[[0.5, 0.5, 0.5, 0.5, 0.5, 0.5, 0.5, 0.5, 0.5, 0.5, 0.5, 0.5, 0.4924288893641974, 0.4683783121966764, 0.4832593890709984, 0.4993024745446249, 0.5, 0.5, 0.5, 0.5, 0.5, 0.5, 0.5, 0.5, 0.5, 0.5, 0.5, 0.5, 0.5, 0.5, 0.5, 0.5, 0.4994669369880009, 0.49607649636056256, 0.4589985718198223, 0.41938780400821424, 0.36217632870807137, 0.31991874740104465, 0.2616489446388189, 0.22287048568047593, 0.2148457651785799, 0.1955537448345992, 0.1616606503406032, 0.20796965516554775, 0.19928713338211573, 0.2422987517318593, 0.2995977080980256, 0.34422741564897413, 0.37112082598855795, 0.4355320820162608, 0.4679331536330063, 0.4886555617001304, 0.5, 0.5, 0.5, 0.5, 0.5, 0.5, 0.4990069190205956, 0.4992989111630945, 0.4931574593838592, 0.4773848581988773, 0.3453472991995374, 0.20948238600103758, 0.10309519977532586, 0.016603683126009693, -0.05068818667126551, -0.014207813028527453, -0.04166184232008097, 0.0002073639651681433, -0.03401166709891067, 0.004611319251189182, -0.024805196309398547, -0.02513333559593145, -0.01088460536970862, -0.04107543851142356, -0.003359343097901809, 0.011354384365743346, 0.10133368136226602, 0.27773502026281605, 0.36356812498901564, 0.46269112659288797, 0.5, 0.5, 0.5, 0.5, 0.4965767908847809, 0.49280951078605495, 0.47392173162699563, 0.33401450453703835, 0.11185841351890358, -0.05118186315248449, -0.07107137785438969, -0.014139731147855715, 0.003452827211373551, 0.004840756775934784, 0.020343602010756114, -0.003646907648694491, -0.001781939919874586, 0.005624523049068402, 0.004831438003451409, 0.0029942786014154456, 0.002657514607815275, 0.004388572282448891, -0.004498299101572119, -0.038352292739811444, -0.056282473084857135, 0.028665839996568732, 0.1817846542559985, 0.42680117395076406, 0.4938302868016609, 0.5, 0.5, 0.5000831867237515, 0.4941760731226959, 0.4748379870817394, 0.3358526812644975, 0.07131576920537006, -0.03503735658352834, -0.025331939466696964, 0.015404742869161252, 0.015844851837105735, 0.007957525310980927, -0.0064484872779527235, -0.0020002642623315765, -0.013628249316979892, 0.0021768475608638974, 0.0001668413102043149, -0.005577320026308072, 0.0026103357849187082, -0.0007205222894374611, -0.003858375837769294, -0.005631478478455227, 0.017936171408807444, -0.0026325428584363306, -0.02798190783096786, -0.020653000213901283, 0.24178044086948308, 0.4292154174497401, 0.4957609684145661, 0.5, 0.49971216665463686, 0.48873023200677557, 0.38571169307621167, 0.12309355949871136, -0.06475962346415524, -0.018484823799613505, 0.015654663427489494, 0.0040212668284162045, -0.0073333370229024825, 0.003618687323030352, -0.007744930975214768, 0.0026552040503058255, 0.008398939416252504, 0.0036795783348157955, -0.003857008712259256, 0.0073434663165354705, 0.0024452393846228176, 0.0019034814719405923, 0.006325373522339925, 0.0026965863369465674, -0.0021987965399802266, 0.010406191131622588, -0.0005423990057843315, -0.025747099544852447, -0.034308958339503655, 0.3000063549108946, 0.49066875927682996, 0.5, 0.49984195351717287, 0.4537612513450577, 0.17262926018167152, -0.08098089106817082, -0.0010823013538338762, 0.012090439667358432, -0.013258512866381477, -0.010434514475317768, -0.0076486501242448, -0.0032760435044931735, 0.007000176298047764, -0.011591669714853193, -0.001508610047768065, 0.006556740668040022, 0.0028564681167476875, -0.00042505119142798725, -0.0027560113233313466, -0.0026817122166452627, -0.004443001656113001, -0.009657195348160464, 0.0012906341076053863, -0.005122596489340167, 0.006292052668169769, -0.015331619361135133, -0.02878703269607667, 0.10288106479326285, 0.4073240254756339, 0.4901855353416532, 0.4298930152120531, 0.2882538175213381, 0.006801349661514, -0.004601806745158121, 0.03716560102809288, 0.011407976189593464, 0.01406974368950723, 0.00493504756103009, 0.004257155782125687, -0.003308686235842064, 0.004630683597142637, 0.0004309569417106681, -0.004153858671002691, 0.002264153910820062, 0.000444477286135022, 0.0012458258912520109, 0.007969978826866377, 0.002457458435664855, 0.009111455991262547, 0.012282571057628554, 0.003959115876357483, 0.01335330736421391, -0.001007855362604578, 0.0262678056752054, -0.04060023819029456, 0.014036499961859222, 0.4119977123456734, 0.4599833907469305, 0.2993239851955944, 0.0683170114943178, -0.04831296982745436, -0.026143479831217228, -0.015176247294628981, 0.0010774671247551224, -0.001155832616212159, 0.004860216110867003, 0.003157270490962352, 0.00586540208319183, -0.0012934815574025772, -0.0003846803728897434, 0.0020443133129268137, -0.013610643414094875, 0.003254924548319745, -0.0015204470983938418, -0.0018541605035734367, -0.006664584458640062, -0.017410158689942182, 0.0007854844969092901, -0.005732068783533259, 0.011978536453554272, -0.004710345932479828, 4.542512053935817e-05, -0.048655856411841863, 0.07036845889309759, 0.44323838513856056, 0.47460771488187903, 0.22336101470992548, 0.005782093659020174, -0.01963148622876987, 0.0019163391029457545, -0.006689288277749749, 0.0034275720109405204, -0.011331875892875704, -0.006980054053912218, -0.0026791429106599665, -0.0034256243117100917, 0.0012877323308128897, -0.00033102604069680384, 0.002354849038231499, 0.0049060610269482, -0.0051072121489093795, 0.009289900632584875, 0.003149924047095587, 0.012916337808903253, 0.001080637062622858, -0.002596940771824794, 0.017975254250730256, -0.0006350922661089387, -0.005340470375925235, 0.020414240527719698, -0.03963315648619069, 0.08656628064117249, 0.423763888940179, 0.4694835272819251, 0.21860733716575478, -0.0396215506329731, -0.019568707920076953, 0.005073270105838439, 0.008579678054623799, 0.0033800159702060176, 0.005544127499158936, 0.011436814713177632, -0.001692097292102152, 0.005728391188010422, 0.005149500481724164, 0.004986757376049525, 0.0020733350880295393, -0.0029392752530867094, -0.005006924955448658, -0.005130903948235874, -0.0016545748841466708, -0.0014767677130186143, 0.004505153774218979, 0.009263692588524613, -0.0011848702235576162, 0.003165286195507383, -0.012791739958820412, -0.008432424841885966, -0.07645766605580281, 0.13732013917564753, 0.43945733369377055, 0.4803499806178616, 0.2463227525322831, 0.0076976101774583125, -0.08315410012286238, 0.049906346805443064, -0.01828938736193262, -0.00483704708019069, -0.013206003060612845, -0.0030595715713444037, 0.0010738053509862623, 0.007224640314190763, -0.0008878939484028533, 0.0012352619540332828, 0.001878217976704644, 0.0015577933484167631, -0.00036120281554493055, -0.0011259303126105766, 0.004331511633631694, 0.010714501616846048, 0.004020673291423984, -0.00847006413542712, -0.001253729796507195, -0.01041158869023227, -0.004284602259281192, -0.005669192768787818, -0.012019689767662501, 0.23548016135800826, 0.47231482321346285, 0.4896518960479796, 0.2979434332824376, 0.06770262326309406, -0.08204018320323993, -0.003339783039455793, 0.018679470755030257, 0.0022660219708093977, 0.016085930827484524, -0.007727351242077829, 0.0009100335312143877, -0.014234887401268017, 0.001661280423261902, -0.00563654474045879, -0.004954640400955174, -0.0055602289103979605, -0.006912796129962882, -0.005058864230232086, -0.0076121190848806525, -0.004247554634540251, -0.002212487184791121, -0.004232781037867208, -0.00195613346374636, -0.007458100649859777, -0.002777859207086608, -0.003758349022990973, 0.045581472141704396, 0.29628633255862086, 0.4682518678660759, 0.4998589817440591, 0.401003712378509, 0.19609495685074857, -0.02292172047828309, 0.010986808119095989, -0.009111772534277066, -0.0035548683435285256, -0.0054358708929795, 0.004147942694383588, -0.0088043874417187, 0.0016618433966940625, -0.008164118564283921, 0.0015192279763015096, -0.0033636609459382918, 0.0023797109304004734, 0.0003983436289504863, -0.0006933333124978766, -0.002815117787408489, 0.004829783595568036, 0.005510815224191022, -0.0004217181587007727, 0.006599982576187696, 0.0027586118423405903, 0.008091643320778349, -0.00791312315482529, -0.007475285306128675, 0.3148713882528396, 0.46680910910858064, 0.49795234428474155, 0.4489902155645043, 0.3231348820522373, 0.007965227699539286, 0.010003623769092187, 0.02145057988378272, -0.0038614571505225076, 0.00689605411907355, 0.0052866696281652905, -0.0013457427727839007, -0.004010432865672881, 0.0042419174860745005, -0.004391313812186114, 0.007789586066580289, -0.0015176723738994542, -6.465044741648355e-05, 0.0036370144461231532, 0.0007004011444907371, -0.004610028458350399, 0.0013052261239298265, -0.004531729876199603, 0.005964956745438178, -0.0011933343502779534, -0.007906599699789237, 0.00975257329688275, -0.010038007221502686, 0.3237438657946308, 0.49454539622238375, 0.499340323667457, 0.47331408389948876, 0.3599086239198912, -0.018387641906195462, -0.04902621560718929, -0.014741092152942597, 0.009143902633489277, -0.003083351118842379, -0.00028485906938051044, 0.009771791753793072, 0.0002566634049533033, -0.007780938461389365, 0.0036561323791839333, 0.0061186757504722465, 0.004876008046722788, 0.011474364628132571, 0.005610274774510629, 0.0031073536355781255, -0.00740089720668963, -0.00038860562156127536, -5.274830387607803e-05, 0.0027179806486988187, -0.0006982333468055201, -0.0136753956308705, 0.006025033378509019, -0.02357662767215392, 0.2180298815605675, 0.47439300398571876, 0.500061685759151, 0.48672829627075165, 0.28403136836479786, 0.047640330204087145, 0.012170128381879444, 0.016376607435105463, -0.005044019974277199, 0.003916395850939991, 0.005912979619327122, 0.0018345914351171832, 0.0010736221052392286, -0.0042963676571751595, -0.006445567202473811, -0.0036092511315079607, -0.004557287871559364, -0.00555403795509369, 0.002253561540041226, 0.0012024267169230421, 0.001988282888418803, -0.006950264756724511, -0.002896888107335558, 0.0011016146868379738, 0.007424142107583369, 0.006856026728928366, -0.0012962266806957183, -0.03623755535647187, 0.18539268789714783, 0.46768530406763925, 0.5, 0.48329437953786597, 0.2082268897289485, -0.05564545805182993, 0.03609786073756988, -0.012649116457214404, 0.011940655973284284, -0.012611775007402765, 0.0007890723355870049, 0.009996612576060084, 0.0075932357289818465, 0.00665978998711503, -0.003760350978613116, 0.0005999903033526435, -0.00415433822423305, 0.0036284214855868253, 0.000254894265565539, -0.008340864527280343, 0.0024439930566553776, 0.002621305803184675, 0.0063448706587818935, 0.009292056956596864, -0.002700620683600528, -0.008423299151578028, -0.001009376788191324, -0.01575600528507936, 0.1481314880944552, 0.46727943461884824, 0.49975710028300796, 0.4814025626585859, 0.1750418143446153, -0.05022622718041295, -0.02058816546899837, -0.005749049302330568, 0.0033719088992714493, 0.004364632765463935, -0.0067777316191830654, 0.0015541027037647883, -0.0028143985910426667, -0.0003522406150959166, 0.006992512639284537, 0.00827096740033998, -0.0020736535653469086, -0.00495609792177338, -0.0030069476156630087, 0.0054712744971003495, -0.00789110366164468, 0.005575901073676112, 0.0011540068913332866, -0.009278258299297982, -0.009630496640406955, 0.019214247678542812, 0.017018338437393657, -0.02000001571602806, 0.2156225054499666, 0.47200076835791904, 0.49984713819808185, 0.4664619568459575, 0.07489668027857234, -0.03480226622268436, 0.025794040045027083, -0.0006894623826727229, 0.012751720941397478, -0.0015291589118300091, -0.003505776859582615, -0.0012539310312689755, 0.005954471385297217, 0.011711602188642868, 0.0012915088179263103, 0.004966825805884656, -0.0058816634362604935, 0.010167701753179485, -0.001553369177024081, 0.0011829656076186635, -0.0001416626944270057, -0.004536669431855799, -0.004565946599105565, -0.004970464654200314, 0.011864824137485247, -0.01890036545727326, -0.021750527561571687, -0.020260446278960332, 0.20610013513363515, 0.4855425304379741, 0.5, 0.461428282108668, 0.04459665264391224, 0.01649522305142344, 0.010661131792710912, -0.013991919485711733, 0.012793218921504021, -0.004430786973442654, 0.007145055695946807, -0.0027873232034922937, -0.013358999367782164, 0.000495787006375563, -0.003966414810080897, -0.0030535419292531544, -0.01100152807621489, -0.012575745235388302, -0.013976449968117978, -0.008556188965732911, -0.00413079957031271, 0.006881346200158495, 0.004688947396947376, 0.00303613247544086, -0.02029146299205511, 0.010382629901652486, -0.0076348010512731785, -0.05158673979584728, 0.2575363287933918, 0.498824330806315, 0.4997357036221381, 0.46893340227899616, 0.07518711482581666, -0.04315266066808575, 0.02236929494390752, -0.02313995084819635, 0.00389565796141272, 0.003909672339319123, -0.00337499573864288, -0.00038892887196694865, 0.004045363978907082, 0.011330626550037071, 0.0004640302656392711, 0.0162483530619347, 0.014666062869414142, 0.009304832205289893, 0.013113009520148673, 0.010682238197305767, -0.00629497995134147, -0.006043998353662763, 0.0049650175955088215, -0.0001358684915482191, -0.0010762796816289385, 0.024519800482597182, -0.0920857308540624, 0.06357736640345547, 0.34101946221068125, 0.49960307838136236, 0.4997439628839463, 0.49665529242515605, 0.1809986552527125, -0.07405238254221412, -0.012889800652535949, 0.014694658066454754, 0.010055496385496548, -0.0005847886344818857, -0.009766156523717616, -0.007700089107576309, -0.007389917662063491, -0.010897539835074518, -0.006411905090166187, -0.016353143371318542, -0.006883272642136521, -0.01277745776811058, -0.0051703265995187535, -0.00015875284075248503, -0.004768281432343543, -0.007765894905953937, -0.010331580456446804, 0.009367630154954705, 0.010920137767681566, -0.02456138317767136, -0.032742280188874845, 0.2089924943711266, 0.4388519819224282, 0.49926722162713044, 0.5, 0.49971216665463686, 0.35487161375917653, 0.11659325562667343, -0.01941405363583197, 0.0033232965976873166, 0.001902829263697022, -0.009008174741463142, 0.0004729391516589246, 0.0049478695532055835, -0.0018547729962779325, 0.0066347038020716734, 0.003231389363988097, 0.002451709862560863, 0.0035615692288197263, -0.001258856801582404, 0.009990651368783634, -0.004876926437763132, 0.009075627376731815, -0.009373853986628879, -0.006504360976411062, 0.029806792127448876, -0.0216103192368512, -0.10092710714898259, 0.11250120126846695, 0.3599884333339818, 0.48948052166512074, 0.5, 0.5, 0.5, 0.4406357481080396, 0.32938196907800255, -0.035749071736901956, -0.10025931127280667, 0.008158927462680656, 0.010475954839551221, 0.006098678856323955, -0.004059866497676478, 0.003642386407345729, 0.00041514546655422755, 0.001607827081537769, 0.0052874507914695695, 0.0037942199435125512, 0.005884030109299004, -0.0032554927365147338, 0.012440036707402104, -0.015297265116957308, 0.008533892073978578, 0.028865109655016083, -0.04454063705672923, -0.029217194076607965, 0.02791762940558666, 0.2709514568311193, 0.42500690973165606, 0.4922773711049832, 0.5, 0.5, 0.5, 0.49488079125070816, 0.44335401977866684, 0.2909720335412559, 0.05704715735845993, -0.0751352043930499, 0.002308570562358793, -0.0050175170011916796, 0.011785813475461033, 0.0012347016864095587, -0.0006263827570071601, 0.008725476562784478, -0.001788680052998593, 0.011068978869617921, -0.00618676637649451, 0.009796431275083804, -0.0007981873425340135, 0.009755013881562073, -0.004765101133935942, -0.03180191881136168, -0.05707803240421634, 0.03852098855906575, 0.22546055244633348, 0.4163119848649526, 0.48443621606757636, 0.4923541562075377, 0.5, 0.5, 0.5, 0.5, 0.49714455240839106, 0.4135902333483343, 0.21740791581671595, 0.004738170652296834, -0.01669618966969304, -0.01973602232171056, -0.004588676686044951, -0.008963567831487003, -0.0003181781053060689, -0.008159582723877736, 0.008467967696031727, -0.01726317704198875, 0.0062013809308752235, -0.03134053070539381, -0.03137246268029176, -0.0346324166008199, -0.05403487759082549, 0.009499284986390756, 0.13952574835460124, 0.30396242295250764, 0.4484331373018862, 0.4979085913803489, 0.499737037974404, 0.5, 0.5, 0.5, 0.5, 0.5, 0.5, 0.49107462829273785, 0.44580651966024665, 0.37866410868597933, 0.31383298967252626, 0.29059402123491873, 0.18537225844379795, 0.12033706248714186, 0.0982384392731624, 0.0353554350359803, 0.07090013743812594, 0.03793037594202349, 0.052737604984892064, 0.07397789065427965, 0.1238968042440837, 0.19257583626877237, 0.3095537503657008, 0.3752873281452611, 0.41240830244026755, 0.43142488991829464, 0.4926138049684727, 0.5, 0.5, 0.5, 0.5], [0.5, 0.5, 0.5, 0.5, 0.5, 0.5, 0.5, 0.5, 0.5, 0.5, 0.5, 0.5, 0.4923926314981157, 0.46833068846068837, 0.48329474131987876, 0.49930394755499496, 0.5, 0.5, 0.5, 0.5, 0.5, 0.5, 0.5, 0.5, 0.5, 0.5, 0.5, 0.5, 0.5, 0.5, 0.5, 0.5, 0.49946346727912505, 0.4960677385579615, 0.4589691602663767, 0.4193308506150264, 0.3620341363042866, 0.3197165384334802, 0.26146795826735714, 0.222510110994183, 0.21479366301078004, 0.1950927036651572, 0.1616955978347437, 0.20822579151814635, 0.19925894077115344, 0.24209849256604987, 0.29938483715198216, 0.3440506501801165, 0.370945222404236, 0.4354114373062515, 0.4678747950222012, 0.48864307731830336, 0.5, 0.5, 0.5, 0.5, 0.5, 0.5, 0.4990010907960233, 0.4993063413796517, 0.4930745268803792, 0.4773242521071467, 0.345412665460379, 0.20945814846673338, 0.1031615928611418, 0.016856166585542877, -0.05051642189897749, -0.01389344208477095, -0.04152519546008056, 0.00028481944770291897, -0.034034882776199815, 0.004995992570463878, -0.024318038768148382, -0.02473670857731954, -0.010691429702919883, -0.040524307887166496, -0.00252829589294508, 0.011442717529642798, 0.10142155591040475, 0.2776826739547243, 0.3632861385308486, 0.46260740935188155, 0.5, 0.5, 0.5, 0.5, 0.49657238127414816, 0.4928617399599129, 0.4740142906928928, 0.3341797353240818, 0.11209667459657578, -0.05125140563443735, -0.07096371756507465, -0.013839535492301486, 0.0031148567657812718, 0.004779815738573463, 0.020452094891511174, -0.003940354867419398, -0.0017104727901008168, 0.005947477322018411, 0.004672816422656257, 0.003254411214307223, 0.003103036459138803, 0.004513702132732889, -0.004394221129341468, -0.038628166363289355, -0.05676973315534605, 0.02802581943731791, 0.1812217018926549, 0.4266218080490905, 0.493780900276187, 0.5, 0.5, 0.5000763146140808, 0.49421061100587593, 0.4748292684979246, 0.33607553356241127, 0.07139381721156444, -0.03463363191024338, -0.025365092847449117, 0.015278006814302875, 0.016059403832902937, 0.008229567099414317, -0.0063879366518376874, -0.0016114678345283922, -0.013894611350997555, 0.002705178700503078, -0.0002651937402365723, -0.005746789503967246, 0.002861992886813216, -0.0002314047085019468, -0.0037072756068240132, -0.005550397440990318, 0.017787669895141824, -0.0024333448911143495, -0.02758157390867935, -0.02085205329961451, 0.24162881217191484, 0.42930910353132284, 0.49574771752774766, 0.5, 0.4997072386958254, 0.48883657985191725, 0.3859282826730964, 0.12366927582620654, -0.06474611266999843, -0.01862792601273976, 0.015363734423289426, 0.0038324610880640614, -0.007263698250784265, 0.0035299850023985573, -0.008011544119509283, 0.0027958691827796086, 0.008119799773761968, 0.003565776580471549, -0.003986272493227478, 0.007114057248658772, 0.00230997809042476, 0.0013198077951224743, 0.006394893472108081, 0.0033693244962557877, -0.001747425660046664, 0.01080866046793707, 7.47157569683762e-05, -0.025760898200556763, -0.03472337107505975, 0.3005193645638553, 0.49065686038418194, 0.5, 0.49984164791184815, 0.45367952317825366, 0.1725532510125719, -0.0814874553839871, -0.0008435968135077523, 0.011957764242885366, -0.01290621753408098, -0.011172455453075944, -0.00780312640765513, -0.003377153704620628, 0.006954156425170896, -0.01137193236170468, -0.0021901652814267387, 0.006379156808464162, 0.0021023716331809595, -0.0013238634893031548, -0.002600853550008929, -0.0027246789423026087, -0.0042934071528187715, -0.00959420886547351, 0.001015352613614541, -0.0054798537050207465, 0.006938316635807656, -0.014959567237150447, -0.028767451903619096, 0.10349801989056324, 0.4072187040161309, 0.49018785221512323, 0.42991764277469585, 0.28826576491886075, 0.00618930964965605, -0.004808937297422466, 0.03735269748994182, 0.011508516905921326, 0.01436443078572334, 0.0048927456400931725, 0.0038253076215379275, -0.004125405591826269, 0.004394683167961376, 0.0008673292530629291, -0.0038328532284442017, 0.0018068660687418283, -0.00020817380477269212, 0.0008864490278268318, 0.007830906616051809, 0.002321795330257497, 0.008936471671753194, 0.012060800275745187, 0.0041905994419782055, 0.013212167939573905, -0.0008851730920771566, 0.027219693763351805, -0.04025605115642381, 0.014387239958157834, 0.4119588471795429, 0.4599339963336023, 0.29929879197956316, 0.06847406129036548, -0.04832900245561462, -0.025725403449203516, -0.014796700804159743, 0.001321864177627344, -0.001093453747585554, 0.00522865127529558, 0.00291750734465325, 0.005670975376120023, -0.0015365426470898506, -0.0005392140045082797, 0.0017522116109255183, -0.01402251943646038, 0.00316980832811361, -0.0023691540364575033, -0.0015501992038197997, -0.006341560180432824, -0.017320635722143894, -0.00013991542791309139, -0.00558273532906147, 0.011446380814845445, -0.004643927809469482, 0.0013041377137772033, -0.04827976149087196, 0.07065359326505535, 0.4432526209300044, 0.4746457920231882, 0.22328354150953403, 0.005810341212552678, -0.019526803234619177, 0.0023280913907688713, -0.0066502187519956926, 0.00331103283230274, -0.011790443261498354, -0.007255772169100058, -0.0029449914441613038, -0.003536128137078676, 0.0006073524019411955, -0.0006172175083892867, 0.002822464699822481, 0.004866405567415507, -0.005730643890811504, 0.009388761786729934, 0.003277572191807695, 0.01260827897924221, 0.0010087216231864597, -0.002776124287247591, 0.018112568310812607, -0.0010345669943202765, -0.005481255238083433, 0.020598482433000987, -0.03891232550380204, 0.08673380478555412, 0.4236388399921615, 0.4695161187182355, 0.21869049976826904, -0.039664108017344595, -0.01964080967494962, 0.005242118890016856, 0.008752458873865462, 0.0037590036630785572, 0.005853233953854256, 0.011663249258258889, -0.001932577776219376, 0.005421795931086905, 0.0045896946001070206, 0.00432178191086638, 0.0017227704854286304, -0.0018102215151094923, -0.004509497014116552, -0.004645505625968639, -0.001847880995697848, -0.0018178591986755138, 0.004236172624950072, 0.008353748195935566, -0.001471110801117009, 0.0023983256604317837, -0.013484143265753357, -0.008645465332809726, -0.07454135395815027, 0.13770542008351325, 0.43941435786324334, 0.4803659522942851, 0.24621862091320987, 0.007761388373817267, -0.08293937069849172, 0.05009938192238129, -0.017670370367446207, -0.0049674312022855716, -0.013065340525475689, -0.0031883245581333618, 0.0010770540030676549, 0.00714091368452781, -0.0015646538113174913, 0.0005288124114631215, 0.0010500877227065744, 0.0032981124601483883, 0.0007765017892305957, -0.0010249624638969063, 0.0041068146187775096, 0.010420307026389226, 0.00388836772177831, -0.009380553843827149, -0.0014801833509022941, -0.01068059154105381, -0.004965945129460282, -0.006628628737451737, -0.011236773508390183, 0.23565295829359234, 0.4724002377481849, 0.48967181327885206, 0.29786936255092983, 0.06738456483430826, -0.08225652171248583, -0.00344542569643193, 0.018688746159431457, 0.002313342562859373, 0.016412430893864655, -0.007485392748668778, 0.0010392407243254376, -0.014017954608062119, 0.0007764050391527146, -0.006293183681014456, -0.005184780013914023, -0.0027877832928247977, -0.006468989724032472, -0.00500208509589764, -0.007617951347294157, -0.004112388818492044, -0.0019056051816145562, -0.004545515858345109, -0.0023610739650926013, -0.00794110993831285, -0.003093039639644572, -0.004258393443542509, 0.045854762252556254, 0.2963395085941454, 0.46837180193292394, 0.49986859299608843, 0.4008885962874077, 0.1957032811933217, -0.022926338753965502, 0.010955505808947025, -0.009143175220989884, -0.003610188884463751, -0.005762588720530595, 0.00407378168999384, -0.008894774979827417, 0.0015942869046769795, -0.0086959158006458, 0.0003166070039988336, -0.002676194870585999, 0.005021666389728845, 0.00032691865108429313, -0.0007469417951331489, -0.0024978227440682504, 0.005284239581600369, 0.0056221700503731, 8.696008510475215e-05, 0.006655591191238469, 0.0017811320420091324, 0.0077736065908030295, -0.007684567601627301, -0.007600587086478075, 0.31479421617885806, 0.4668771635884455, 0.4979737170596388, 0.44892684372375424, 0.322913712614691, 0.008614889369539533, 0.010807121738243127, 0.021636349462745032, -0.004210562695623043, 0.006763290818925338, 0.004997340891939907, -0.0019586844259437855, -0.004434547439486803, 0.003698425076145602, -0.005406680740437194, 0.00950184668385826, 5.585440721726995e-05, 0.000615641504851655, 0.0031249590323215574, 0.0008248552953463563, -0.00444158800176734, 0.0014691864214431867, -0.004304066091303008, 0.0056990466805985195, -0.0014457076674002998, -0.00802013702895187, 0.010248192879077892, -0.009865698266219223, 0.3237718784459639, 0.49455543399690494, 0.49934770296624953, 0.4733572951632408, 0.35963583311419317, -0.01799297839897953, -0.049109866610741924, -0.015527245812850539, 0.00892089639630153, -0.0033468415073673093, -0.000277465140559783, 0.009108222526028052, -2.5796153394092115e-05, -0.00847037119846071, 0.0037044838942410733, 0.007353507495361006, 0.005623129264937403, 0.012337774171421493, 0.0055443042527388514, 0.004117983720084069, -0.006957260067160945, -0.0006636693022926592, -2.3179629090011003e-05, 0.0022900840170780056, -0.0011604921654532277, -0.013483001259730133, 0.005951791610314445, -0.02357522195481711, 0.2176634032279457, 0.4743387754664244, 0.5000638636652118, 0.4867688216013761, 0.28359349681969187, 0.048144744997312305, 0.011910051703525132, 0.015518827643007507, -0.005304317364113014, 0.003893135003835846, 0.00531271283278076, 0.001757602637082153, 0.0005237130747919, -0.0042779895524547576, -0.005973487498167099, -0.0024625790513348395, -0.002854776089801941, -0.005253761599382898, 0.0028702355181160926, 0.0012133770502796477, 0.00232032782075968, -0.006757241099584655, -0.0029656357034878603, 0.0014203765661852093, 0.007807307007354235, 0.0065863071305795095, -0.0010162061246677696, -0.036613450136092136, 0.18508722011874792, 0.46765381004961526, 0.5, 0.4833841577440546, 0.2076283766572461, -0.0554699242689801, 0.03571224228703667, -0.013105375559745787, 0.01132741560774627, -0.01284266537488803, 0.00048735357920589217, 0.008573996076182613, 0.007792018214694721, 0.006951057144644123, -0.003019594030199296, 0.001763151008426512, -0.003239188979904833, 0.0037433965948308946, 0.00045301494162656455, -0.008397192286861047, 0.002274010005426114, 0.0025793360878735346, 0.00640560312521546, 0.00982350436346526, -0.002788126312213876, -0.008650502029970527, -0.0011253853391778657, -0.01653169084613727, 0.14745997621065662, 0.46706825121877577, 0.4997637555636905, 0.48143548988745255, 0.1746123825081219, -0.04922360099029034, -0.020415274919013834, -0.005921898925291669, 0.0030173290860570578, 0.003812065682308364, -0.0070007516454943354, 0.001274005287950805, -0.0025527864957174983, 4.244968415104277e-05, 0.0076922956697353185, 0.008449427012295115, -0.00195021603910483, -0.004728716161384804, -0.00249541006068356, 0.005651754294071091, -0.007900720967163795, 0.005691622070171392, 0.0015767026793211455, -0.009314026395822426, -0.009562156681101422, 0.01912331312918606, 0.01625708520017027, -0.0201613309194568, 0.21573337194358133, 0.472150469382132, 0.49985200727021767, 0.4663938120978882, 0.07446927548173617, -0.03391905002090876, 0.025846963993495523, -0.0007775371325249809, 0.012581077375290264, -0.0019778024752748233, -0.003637615547865103, -0.0017304945113627576, 0.006438817061080491, 0.011534670652163802, 0.0011973889637202522, 0.0054044835332535245, -0.006121852221415104, 0.01031086894379791, -0.0013068304109285478, 0.0011269528139703502, 0.0003165940409284316, -0.004463788609198211, -0.004917758565308606, -0.004779601694981929, 0.01205997699519077, -0.01913739512885446, -0.02183945353440641, -0.01937905513995431, 0.20641076232564795, 0.485644673561622, 0.5, 0.4612415622112089, 0.04386995275781656, 0.016553661648738737, 0.010648059887944393, -0.014626120412426035, 0.012536467561986979, -0.004677691171080287, 0.0072453291400373845, -0.0025757106245783983, -0.013460651829381196, 0.0008379045500732177, -0.004203779972404961, -0.003084139056643353, -0.010638208029899888, -0.012402979283958025, -0.013676454541570592, -0.008897557963840877, -0.004041443920542455, 0.007070535780707558, 0.004997938238683835, 0.0027895361306395027, -0.020645173414712132, 0.010864641834857407, -0.008298830688236194, -0.052421970953723994, 0.25729738168113764, 0.49883051226217345, 0.49973568642410865, 0.4689456460903378, 0.07451253677003507, -0.0426963036936368, 0.021856529295603458, -0.02281497447693811, 0.003938231958505469, 0.0033651465632066834, -0.0032512638186946623, -0.0010285153487348533, 0.004115412541818558, 0.011500669530541376, 0.0008592301615301857, 0.016130100772010915, 0.014880382709390703, 0.009522322122777063, 0.012908894552471992, 0.01093237675229538, -0.0062213865900636895, -0.006487813931843144, 0.005200035799596854, -0.0002675307083379475, -0.001074458271790239, 0.024961828328240617, -0.09234012606529024, 0.06298311633740225, 0.3405293192073042, 0.49960266960937133, 0.4997439462233553, 0.49665324917072196, 0.18060578872025318, -0.07377204347351295, -0.012853027262388104, 0.014658731430557376, 0.0096946045390968, -0.000220638023676251, -0.01000212451715739, -0.007293360114800967, -0.007391802016687227, -0.011213676460429398, -0.0066303224548822405, -0.01660411114419925, -0.007064253625670822, -0.01283445551962201, -0.005073686344905392, 0.00024693327570076546, -0.004719530712093329, -0.007974673689012108, -0.010019021322079507, 0.009094331634421882, 0.010345718223087936, -0.024585737743788513, -0.03274683758540061, 0.20928371697933035, 0.4389038612926023, 0.49926646697114707, 0.5, 0.4997072386958254, 0.35466469519498023, 0.11611619366143808, -0.01962893170444305, 0.0037722221631152613, 0.002228375942845386, -0.008490546031614017, 0.0010945109132819335, 0.005081042064298122, -0.0013730972703660778, 0.0062961528367164515, 0.0029877286583449582, 0.0022568983815279002, 0.0038860749090479266, -0.0013559146495264439, 0.010143713307345434, -0.0043718433023210955, 0.00895888545271834, -0.009543022286528547, -0.0067458397922586216, 0.030009734202351868, -0.021413479983599857, -0.10121344224745424, 0.11267887914634078, 0.36007582875510036, 0.48960953384634903, 0.5, 0.5, 0.5, 0.44067269319326785, 0.32915538374974623, -0.03644985924899315, -0.10012709631848879, 0.008662889646229622, 0.010851061747676066, 0.005905080333780665, -0.0038383837211676606, 0.0033970865403402392, 0.0004071573103416268, 0.0017174512733145921, 0.005385845264615113, 0.003704206501428349, 0.005949229738766084, -0.003766417106304088, 0.012430355190101758, -0.015011003498437767, 0.008473229983926902, 0.028481319857811764, -0.04424584836813832, -0.028391590283569305, 0.027853416459734527, 0.27093149478912404, 0.4249281380463229, 0.49230203162826575, 0.5, 0.5, 0.5, 0.4949070432805889, 0.44335621095622607, 0.2904915876729281, 0.05644481951231881, -0.07565592214383321, 0.0014859736155520057, -0.005408921118920626, 0.011162732483652243, 0.0017289015299282245, -0.0003316972795204701, 0.00926976267654349, -0.0018507226518917365, 0.011148569030451945, -0.0063746949569023345, 0.009429897079803733, -0.0006723027582102276, 0.009763254011634415, -0.004704300978537282, -0.031620215109031354, -0.0565992949407596, 0.03875537298814833, 0.2257695685938879, 0.416457469065993, 0.4844406491744576, 0.49237600708133794, 0.5, 0.5, 0.5, 0.5, 0.49712496996355465, 0.41323387612535334, 0.21701749076411034, 0.004920738770357984, -0.016319930786108192, -0.019320525681618062, -0.0037216660105307926, -0.00821577855652095, -2.1543551289888123e-05, -0.007454379129838933, 0.009174494998783518, -0.016538677620019135, 0.007414805585295374, -0.030753991162842588, -0.031019685220079675, -0.034519141283693926, -0.05430343398208148, 0.009711721403562726, 0.13981773065360328, 0.30411645426497236, 0.44849967146250797, 0.49791375139963695, 0.4997168265240171, 0.5, 0.5, 0.5, 0.5, 0.5, 0.5, 0.49108266918264726, 0.44588263762037267, 0.3789331741221592, 0.31408773769329446, 0.2911303058934361, 0.18594767651847197, 0.12063417822366347, 0.09854265904358435, 0.035741243168075885, 0.07115128214509586, 0.03820478049254426, 0.05281640205729733, 0.07419763512710453, 0.1244922712736288, 0.1928711296883967, 0.3096448124015226, 0.3754617249655084, 0.4124822583008048, 0.4315945675357099, 0.4926513300494855, 0.5, 0.5, 0.5, 0.5], [0.5, 0.5, 0.5, 0.5, 0.5, 0.5, 0.5, 0.5, 0.5, 0.5, 0.5, 0.5, 0.4923838910571146, 0.46839076365583904, 0.48338289106427285, 0.4993076204610114, 0.5, 0.5, 0.5, 0.5, 0.5, 0.5, 0.5, 0.5, 0.5, 0.5, 0.5, 0.5, 0.5, 0.5, 0.5, 0.5, 0.49946259619636324, 0.4960769826532197, 0.4590140560179552, 0.41918807028437133, 0.36188214337328756, 0.31955518381877573, 0.26119909778923983, 0.22230399593981331, 0.21425848397403252, 0.1946628081990537, 0.16122014429286444, 0.20752990309579136, 0.1992125068248205, 0.24174847245486816, 0.29931820120100433, 0.34399177981869317, 0.3709636559822412, 0.43551881776031354, 0.46791136386310805, 0.4885697338394335, 0.5, 0.5, 0.5, 0.5, 0.5, 0.5, 0.49901066211494377, 0.4993052040981584, 0.49310882535460726, 0.4773595297266478, 0.34535909086742184, 0.20910717165273912, 0.10253096186225208, 0.01603984158575235, -0.051391073639734816, -0.014457894713576789, -0.04250508809007768, -0.0011024123032947427, -0.035058061243780886, 0.0042829424768029865, -0.025072613994228634, -0.026083773158384886, -0.011520732035471227, -0.041791882761531944, -0.0031492037947882206, 0.011588886668562594, 0.10137475840130342, 0.2777851860987116, 0.36371890141458485, 0.4627867883794798, 0.5, 0.5, 0.5, 0.5, 0.4965687673046257, 0.4928609928129471, 0.47394795886142227, 0.3339189884364301, 0.1120085521788046, -0.05081506979067479, -0.0709155525840162, -0.012674485288488389, 0.0034115580825652605, 0.00450081919641842, 0.021768440939916124, -0.0028313360704874347, -0.0013101822289183235, 0.005456117928135816, 0.004806915480626979, 0.002956699596813158, 0.0029954782023655633, 0.004487120053269894, -0.004223441144497694, -0.038468215558826, -0.0567454568545953, 0.02806089517765904, 0.18157322286367594, 0.42681077563935266, 0.4937897143531784, 0.5, 0.5, 0.500082538412923, 0.4941189257284861, 0.47475940993929877, 0.3360246909606243, 0.07155770342013126, -0.034539170234821004, -0.024761044183850972, 0.015061646004058975, 0.017069199673585212, 0.008760999000096635, -0.005387605209891091, -0.0018366267713757485, -0.013675019290432662, 0.002495593746386655, -0.00042281050768878633, -0.005064612394877559, 0.001778376645821494, -0.0005428307321516826, -0.0044451213893164036, -0.005565345220483824, 0.017099891122188453, -0.003415562751601929, -0.028026995968145486, -0.020637145314858035, 0.2417822702442745, 0.4292815619756117, 0.4957212821883057, 0.5, 0.4997108044331659, 0.4887894069174356, 0.38563692284186574, 0.12318389832383324, -0.06459765972027864, -0.019291318168952368, 0.01609540907171604, 0.004330398005270309, -0.00694221486755427, 0.0044407083013221485, -0.008183567191184085, 0.0030480421549443385, 0.008335052250207921, 0.004059013965784043, -0.003720477972029351, 0.007606906791398016, 0.0025234435245780943, 0.0016317629456038473, 0.0063972102411950825, 0.0029801231941767965, -0.0021306456363461347, 0.011072682828418882, -0.0005945502479305709, -0.025904671250415713, -0.0345937478912044, 0.3004529458434386, 0.4906580487884952, 0.5, 0.4998413617811238, 0.45381178829700997, 0.1724319937278561, -0.08094084324777508, -0.00041881807222091604, 0.012410018856566134, -0.012989217956498397, -0.010741698166033056, -0.007876555469602016, -0.0027333788609165254, 0.007437582254866203, -0.011265565517233901, -0.001409749430019842, 0.006791584107045794, 0.0027096255955666605, -0.0005526522565630146, -0.0022586846554383502, -0.00244834473693705, -0.004462533246980417, -0.010179683428203334, 0.0007613203860358125, -0.004846356488549951, 0.006632791465618281, -0.01479940391074666, -0.02869730794106415, 0.10356133415792039, 0.4073588094530382, 0.4901862601987172, 0.429973952213392, 0.2886989588019851, 0.006659391683149737, -0.004839171299855123, 0.03726552168389052, 0.012179540375580567, 0.013720101742054144, 0.005469198932572756, 0.0033192136922858538, -0.0029021060216000046, 0.0049410544442457915, 0.001067056047993945, -0.004328365380745984, 0.0023535493241693775, -0.0003143345975575654, 0.0010984350781705816, 0.0070413713653751835, 0.0019095616605471473, 0.008533124320638925, 0.012273646821627104, 0.004006633541537544, 0.013769653451693759, -0.0009123132478169984, 0.02698001559805986, -0.039904803395576664, 0.014585851368026308, 0.4120089032047908, 0.4599314154665226, 0.2993590823892049, 0.068619272246535, -0.04867122013504558, -0.0260168388734969, -0.014281029967869022, 0.0009225938038760345, -0.0015980919743822802, 0.00508906857328951, 0.003132769627167329, 0.005655644804970874, -0.0017227566540060609, -0.0008218930047104904, 0.0016148216617297873, -0.013455448211817617, 0.0033944554542723526, -0.0023192834376181155, -0.001986635540829099, -0.00684686943047688, -0.018014022565424927, 6.999307089348565e-05, -0.005796536119365543, 0.01199208597599209, -0.004956379731778701, 0.0008559838953520558, -0.04760296291629818, 0.07123594747305813, 0.44321005053064666, 0.4746119860930091, 0.22314879698967863, 0.005608485055748471, -0.019590215912177304, 0.0023319994164030106, -0.006456432549206591, 0.002356691857336524, -0.011649334695111382, -0.006887741333686094, -0.0035936062709050714, -0.0034501136928277018, 0.001560235539148717, -0.0005545998509391771, 0.002865679948163207, 0.0050913827639624135, -0.0051838087610799844, 0.009394546526728643, 0.0029974501890061658, 0.012478892753114505, 0.0006932117890082639, -0.003088619249832292, 0.017641579382376284, -0.00014950765603095187, -0.005860899685528832, 0.02095825611005604, -0.037840389446532695, 0.08702973967006523, 0.42374448295885186, 0.4694527945521956, 0.2182946785874668, -0.039974147525314106, -0.019350922802102787, 0.004941505127514783, 0.008616816620495871, 0.003745830102063799, 0.005879483108510975, 0.011850791929143597, -0.0016527523892232165, 0.005402153640084313, 0.005196605719978766, 0.0047389305936222995, 0.001894731791681488, -0.0024309623724670447, -0.004999907156150181, -0.005077597088380402, -0.001729326167488659, -0.0019434555623228274, 0.004087130011431224, 0.008926438525174551, -0.0009268879300667011, 0.0022182662095156036, -0.01359766636724772, -0.007648442959586915, -0.07428983650448902, 0.1381766249744219, 0.43948255220056076, 0.4803275855957638, 0.24599337052121847, 0.00783927848664726, -0.08274527517503426, 0.05008780811706669, -0.017438576644650816, -0.005054374203187838, -0.013149277877534006, -0.0033649013668713016, 0.0011825688515748841, 0.007071381993219012, -0.001640021559048651, 0.0011374791638321573, 0.001447147465245747, 0.0013378107807031192, -6.116653414992643e-05, -0.0009257347517489005, 0.004785519717939993, 0.010182995396141507, 0.0038572067247032906, -0.009387114045749432, -0.0014223462497876362, -0.010656901360994434, -0.004974908442368444, -0.005938472948955715, -0.010679410477190768, 0.23573068581454296, 0.47231919855533894, 0.48966452412143957, 0.2978226128297732, 0.06794090307894526, -0.08174979937936001, -0.002949557464036039, 0.018697895566379692, 0.0022309367639134392, 0.01677268868920313, -0.007664464597170755, 0.0007534584398720983, -0.01445280000045404, 0.001571412618671366, -0.005626222533368636, -0.004895461577682415, -0.006445325460902305, -0.0068006496746401334, -0.004987995589513833, -0.007708043436336722, -0.004365134868934009, -0.0016222810159955056, -0.004405945211931269, -0.0022476579541875195, -0.008101997131393143, -0.00420698854940418, -0.004028112930867028, 0.04681621360638953, 0.29708327321587163, 0.46825967960180925, 0.49985336515195317, 0.4009768680360483, 0.1961789088115106, -0.022427421580202663, 0.011028062282012252, -0.00885209728915546, -0.0039047164646077203, -0.006296677670748138, 0.00421448301819177, -0.009493002103205835, 0.0011249404573174576, -0.008565994142097364, 0.0014787482081729687, -0.0028541032094471838, 0.0031139126121527117, 0.00018868696419732927, -0.0006462713904709376, -0.0020896598092553995, 0.005084626868605164, 0.006486236258357024, -0.0002853614985099993, 0.006309100188926805, 0.0016452296817445233, 0.006968464762576168, -0.0069649813215535575, -0.0055777915452595115, 0.3164946364665561, 0.4671875417415666, 0.49799816085583887, 0.44893163234191, 0.3233763992361493, 0.008222232902187999, 0.010247051798018172, 0.021302287898205426, -0.0048451254854053865, 0.005937128603242611, 0.0044903992490516725, -0.002472365836397249, -0.0046130186530750905, 0.004256766180536009, -0.0034047212179533133, 0.007728241697359492, -0.0003684730076778677, 2.296533575478027e-05, 0.0040512337478725464, 0.0004279809976096415, -0.004328480010561581, 0.001752874776826276, -0.004178933650522159, 0.005199770978458266, -0.001961581001314887, -0.008044849754814587, 0.009401625536975598, -0.009347291804204001, 0.3256306639765805, 0.49458549310764316, 0.4993569370984925, 0.473257052005261, 0.359623670648655, -0.01774079788266429, -0.049125273869625015, -0.01467390075440891, 0.008688537969182538, -0.003499516586473521, -6.909936235336857e-05, 0.009070016069235014, -0.00021051125932454502, -0.007360569095444207, 0.004274520070452199, 0.006320872505571418, 0.004488073628028826, 0.011492953926109844, 0.006589750930082498, 0.0037793715833618685, -0.0070581884442765235, -0.0004888111060478839, -0.0006043882871103968, 0.002589331885116147, -0.0011706077976843825, -0.014089679576166662, 0.005824098741929323, -0.022202549756531065, 0.22049760882536557, 0.4746687788178618, 0.5000708945872877, 0.486695311201456, 0.2833355602570941, 0.04896882687896898, 0.01185713578188009, 0.01582692191457727, -0.004640507717744963, 0.0038990175918248104, 0.004997324765003665, 0.0021711640089206933, 0.0012388694568256618, -0.0036866703323858514, -0.005597406571988645, -0.00297813082539617, -0.0035312915932145, -0.0046755774590343194, 0.003048645051353876, 0.0015892887407164445, 0.0024488418633940197, -0.006249078063086667, -0.0030829642774372655, 0.0014758796521746797, 0.007322331993180438, 0.006130146321802418, -0.0014575970407367197, -0.03306002633077451, 0.18827555761262907, 0.4680850851229332, 0.5, 0.48332859956815893, 0.20754838171988005, -0.05391156850501817, 0.036457997558266696, -0.012518994951028635, 0.011631078216615352, -0.012503121301257107, 0.0006390090424479344, 0.009123941960711566, 0.0076686662634499695, 0.007121153835533692, -0.00358683450286109, 0.0009037041676296785, -0.003195362152992514, 0.005091946963183901, 0.0010084734918374715, -0.007504959522516388, 0.0024334567464368807, 0.002607197680549066, 0.006379206714887499, 0.00972255779340752, -0.0027263875181494663, -0.008288643906672126, -0.0004615755445980474, -0.012315738203379813, 0.15004230935419946, 0.46758228374001626, 0.4997437552458139, 0.4814559621256214, 0.17383774563797796, -0.04859790023642647, -0.020117079081899563, -0.005372429635259376, 0.0038089428756374975, 0.004188697241897856, -0.007094593538663365, 0.001626297231463868, -0.0026035736722167294, -0.00029523188648020984, 0.007502284572209979, 0.008314371705659268, -0.0012880314930771271, -0.004363351789738845, -0.002165492935476304, 0.005569878899764905, -0.007886797414909424, 0.006197853753502393, 0.0020555031879257103, -0.008715867339602217, -0.00875104457698411, 0.020715707988226917, 0.017818009951656714, -0.017712478969472176, 0.21668230469275795, 0.4723154870727181, 0.49984568945388164, 0.46644003698193826, 0.07377128049879175, -0.034532320348508845, 0.02555681487767442, 4.158800869630225e-05, 0.012524205012940201, -0.0015336897738075501, -0.003127488131129715, -0.0021308239335768586, 0.006739751248036765, 0.0117208695039826, 0.001159895949499862, 0.005094673968357749, -0.006105191841968815, 0.010508716286342694, -0.0009286602118381385, 0.0017979557285516315, 0.0003464371345215355, -0.004333940284509225, -0.004875076727595951, -0.004780563229840967, 0.012186833401934242, -0.018662608934422502, -0.020478635057881025, -0.0178094058650879, 0.20723821117860527, 0.4856549720596809, 0.5, 0.4612119695400123, 0.04399953589837311, 0.016299353908905415, 0.01162580215243849, -0.013042128094469614, 0.012833265782895795, -0.003929497096315929, 0.007745147732531608, -0.0022487682899187014, -0.013448651062714922, -8.313016217420785e-05, -0.004297798767818557, -0.003868694470233647, -0.010952873865985762, -0.012364087758783244, -0.01407975930458045, -0.00847637466794089, -0.003230383798762994, 0.007264891464815478, 0.0045578626973233885, 0.003529301283967947, -0.019746531547493246, 0.011719440313814153, -0.005817748261594329, -0.05209656151199425, 0.2580590778151577, 0.498826286336378, 0.49973570609108464, 0.46897842423622865, 0.07451638681044298, -0.042586361272387956, 0.02225519740355744, -0.02212050874951849, 0.003627000326473833, 0.0034619415986448052, -0.003352156228365649, -0.0012432475320015618, 0.0038977162174483183, 0.010903955536127113, 0.0010199141515694929, 0.015669342886974816, 0.01365419557110943, 0.008601223383540251, 0.013266383121616581, 0.011135064360239462, -0.005944290560519612, -0.005172151180593992, 0.005236977674074879, 9.802610948807244e-05, -0.0007474958659389955, 0.02590926605747224, -0.09098291287053041, 0.06391585814973416, 0.34106198899272006, 0.49959757449546216, 0.4997439652757383, 0.49664862932036286, 0.1806599830188253, -0.0744808970739664, -0.0118361567852126, 0.015013913609878117, 0.010233260020831726, -0.00025277167426629964, -0.009681553285091347, -0.00741166209476838, -0.007395867117832099, -0.011452596262179012, -0.0070788395396996695, -0.017288668365658483, -0.0078483443440143, -0.013348151645449023, -0.0058012408795392574, -0.00020176660061548013, -0.004119875956370829, -0.00746204021507331, -0.009214561443189537, 0.010037007971802446, 0.011653605996947435, -0.024535445777663433, -0.032485070682563046, 0.20921879689825457, 0.43873854755159486, 0.49925706060700703, 0.5, 0.4997108044331659, 0.3549569872684951, 0.1168606135828014, -0.018957459317795074, 0.003373101343997963, 0.001919119545504961, -0.009555559489212618, 8.852760897241786e-05, 0.003894677116840294, -0.0025740066002050456, 0.006382768155056206, 0.0020414007654451023, 0.0022945998688863713, 0.002836874138288129, -0.0022805163658843014, 0.009332948900046538, -0.005854367702427454, 0.008513217892908998, -0.009037333186408848, -0.0065672592232767415, 0.03048285841412243, -0.021082542946143114, -0.10075837269841065, 0.11285844102526872, 0.3602428926532953, 0.48943043219886606, 0.5, 0.5, 0.5, 0.44077170411329036, 0.32936459110872407, -0.03630659272164408, -0.10050545042650068, 0.008133246363597786, 0.010307443417493978, 0.006334712053804118, -0.0039204165142401794, 0.0035578908649290474, 0.0007163618038630293, 0.002288530036881142, 0.005570702761841155, 0.004219514023652331, 0.006133240438821309, -0.0034291024520619307, 0.012083434581202389, -0.015768592343501458, 0.007726196951252526, 0.027812963760402914, -0.045280238987862396, -0.02937353858700735, 0.02734068899787547, 0.27168546212848316, 0.42538888617074955, 0.492336503441186, 0.5, 0.5, 0.5, 0.4948967169459466, 0.4433180750968016, 0.2908101952575384, 0.05706266312205913, -0.07467348680617696, 0.0025979085742118407, -0.005108629787059787, 0.01219733136535008, 0.0020581614664427015, -0.00017495610873864706, 0.009473781913939789, -0.0016488511685781395, 0.011352400957237, -0.006130039482481374, 0.009759211524653874, -0.0002600826225083872, 0.010053944171427671, -0.004363704191843332, -0.031472411960217696, -0.057425132217144, 0.03809171011765695, 0.22503425219648396, 0.41631938790332773, 0.4844876988255163, 0.4924198975852105, 0.5, 0.5, 0.5, 0.5, 0.49715203532898977, 0.4133667074549918, 0.21737639131664446, 0.005722911586967427, -0.01583003986950609, -0.019173182954056553, -0.0035416310801757727, -0.00831654625367829, 0.00010095006091161968, -0.007665414783349948, 0.009141668690358467, -0.016596701549616115, 0.00718024920980971, -0.030471827195555107, -0.03071136904546418, -0.034041338102443544, -0.053325178037044, 0.010368284195798374, 0.14036445422069097, 0.3045354176832319, 0.44855586717496815, 0.49791323400676857, 0.499709629128019, 0.5, 0.5, 0.5, 0.5, 0.5, 0.5, 0.49106572802351345, 0.44590567015664406, 0.37898392182432605, 0.31396435523124616, 0.29122095431869105, 0.18637779115269262, 0.12081074587623951, 0.09861685300199664, 0.036232519497452764, 0.07159292263978333, 0.03886909562635595, 0.05261574448041376, 0.07423207074296034, 0.12432709835118201, 0.1930462705761753, 0.30984719716546855, 0.37534446723361653, 0.412418258445068, 0.4315190878117687, 0.4926503499537091, 0.5, 0.5, 0.5, 0.5], [0.5, 0.5, 0.5, 0.5, 0.5, 0.5, 0.5, 0.5, 0.5, 0.5, 0.5, 0.5, 0.4923370861059681, 0.46818419950590956, 0.48326707277945624, 0.499302794699144, 0.5, 0.5, 0.5, 0.5, 0.5, 0.5, 0.5, 0.5, 0.5, 0.5, 0.5, 0.5, 0.5, 0.5, 0.5, 0.5, 0.49946373843500885, 0.4960668853091659, 0.45898280963837756, 0.4193277871462395, 0.3620577438637076, 0.3201350877677449, 0.2620535635488393, 0.22320068281597166, 0.21486522328722368, 0.19516508939834418, 0.16193756317114438, 0.20812729229972377, 0.19916619019789172, 0.24225710389876878, 0.29962383508852075, 0.3439117305170312, 0.3707348250161736, 0.43550778123546147, 0.46799868128103, 0.48869351481309625, 0.5, 0.5, 0.5, 0.5, 0.5, 0.5, 0.4990117727020645, 0.49931037408987, 0.49312955512821993, 0.477377763612694, 0.34556877919320317, 0.20958538475908364, 0.10326357904570416, 0.01749767263367954, -0.04964410887049765, -0.013066594979381688, -0.04143640813424032, 0.0006610755032234735, -0.033232922494587064, 0.0055256503998089, -0.023238866994095338, -0.02408077411112765, -0.009901041406714762, -0.039961080381699376, -0.0020913428285120926, 0.011953749138315936, 0.10211802022785768, 0.27831864287211006, 0.3638288800836018, 0.46275776510380395, 0.5, 0.5, 0.5, 0.5, 0.49657898184577864, 0.49288337933371923, 0.47392802644240717, 0.3345242244481295, 0.11220305351059132, -0.05120657219124057, -0.07116843352700321, -0.014161672552927235, 0.002691935327595064, 0.004247743515330979, 0.02167612997853791, -0.0037266909068103056, -0.001065015794110468, 0.0058311636156549804, 0.004839832313675314, 0.003530425900284029, 0.0035041267565146137, 0.0049107624313337855, -0.0034060794912550156, -0.03737499769488369, -0.055737885664228236, 0.02941766083185688, 0.18233236756525578, 0.42687630032082635, 0.49384163568971384, 0.5, 0.5, 0.5000785268676959, 0.49418079122615155, 0.4748711331118093, 0.33654652778911964, 0.07199889204690722, -0.03471945164456347, -0.025174766906283508, 0.015449097921312055, 0.016606951529985363, 0.008989725219888, -0.005694805431334931, -0.0017014686644204527, -0.013926315055898898, 0.0017346029471996204, -0.0003669817553476367, -0.005795933136956658, 0.0017560700678311027, -0.0011281972306681114, -0.004336425028851976, -0.00558655999451526, 0.017228622526017902, -0.0019468387599538485, -0.02791309151400491, -0.01976530613283846, 0.24261658484474133, 0.4294540957255359, 0.49575238066004607, 0.5, 0.49971188888786616, 0.48884688609358895, 0.38599841355660974, 0.124163812541237, -0.06389489147350721, -0.018296492339705924, 0.01653640841421681, 0.0037328438978975345, -0.007144131491852116, 0.003911372278379205, -0.007115305255890572, 0.0031559627202781887, 0.00892168512847257, 0.004261355614376556, -0.0037425916192563124, 0.007349572854317891, 0.0022130609165196724, 0.0014397606777858507, 0.005562227902415941, 0.002298667049266767, -0.0023573399473573683, 0.010534980635425448, 1.0012757502701217e-05, -0.02612015456609771, -0.03369340323414971, 0.3004753499507483, 0.49067597250473194, 0.5, 0.49984656185748827, 0.4536847390354337, 0.17362209135950024, -0.07950153556482803, -0.00016761595633771768, 0.012775964460615586, -0.013269667674193504, -0.009915564202792689, -0.0062676865903450165, -0.0027252322254609908, 0.007282703341627883, -0.011082252866676644, -0.0018648270690754328, 0.006822949023728527, 0.003052464666004223, -0.0008489012141186679, -0.0031544597731417057, -0.0025120914658236927, -0.004575170332029945, -0.010574945285991897, 0.0006301661737086692, -0.004755124754597535, 0.006774123696458475, -0.015046652119420294, -0.028037762325027547, 0.10365192256371047, 0.4073147451022793, 0.4901431364176127, 0.4300799894442731, 0.28785930755205574, 0.0075115370452243, -0.003411193946294357, 0.036727475393699485, 0.012157325203740965, 0.013918346778758577, 0.00537479951816423, 0.0034253495479075243, -0.0033120971568468527, 0.0042865583200253484, 0.0007633230340635147, -0.004263546117522137, 0.001656828340767162, -0.0006664700564257033, 0.0012881592344278566, 0.00805213817096736, 0.002237626984135952, 0.009044285736579135, 0.012284966298635147, 0.003880229298198209, 0.012741625242242269, -0.0005754731265878866, 0.026268957142817132, -0.03980021585196912, 0.014839333700279664, 0.4119768886288454, 0.45976380163101876, 0.2990219878621488, 0.06733384456849356, -0.048485983644213894, -0.025048170029914957, -0.014923403922934878, 0.0005908422237409652, -0.0014166936168875444, 0.004644887211415608, 0.0028931974053751247, 0.005244917160812023, -0.00108618494127893, -2.227229920677034e-05, 0.0020113709832815176, -0.013892451284882711, 0.0030489688888956598, -0.002697403946794697, -0.0027630228369924974, -0.00674432177488102, -0.01797476689132534, -0.00014668255823689717, -0.005268123770928391, 0.011870571171107347, -0.00470190889061026, 0.0005771694725288198, -0.0477891186861413, 0.07135036718640723, 0.443384221280915, 0.47458169484550505, 0.2230457863000712, 0.00508339030572831, -0.020007047088730755, 0.0019184169039401548, -0.006633494504890504, 0.0034317485007083082, -0.011860932434268114, -0.007243603698536487, -0.0030592532080839095, -0.0034570063312181786, 0.0008004297517255011, -0.0003198535587640718, 0.0023052782162955227, 0.004283563304943497, -0.0051072686044791515, 0.009575038226457137, 0.0032403490217380168, 0.012535991892149694, -0.00015860956747897132, -0.0027241105006312167, 0.017552341332079235, -0.0007568206701138381, -0.005714689718546247, 0.020795868280488454, -0.038250837642051505, 0.0877754865617287, 0.4238312416922456, 0.46946908795348385, 0.21835657627988345, -0.04025820929806228, -0.0186443695656101, 0.005537601862080581, 0.008882371392963937, 0.003332459434392954, 0.006016985257796566, 0.012318436477706182, -0.0026598225562012748, 0.005390893595093454, 0.005118248436179391, 0.004564812029279635, 0.001770984966819825, -0.002577892531564816, -0.004870611579364615, -0.004521136873907438, -0.0015459188630176143, -0.0017860279309314566, 0.0043062669487599235, 0.008493125450463955, -0.0010799359105146565, 0.002320800971382459, -0.013170998398401038, -0.0074571892859318775, -0.07368509245169286, 0.1386642609766574, 0.439639684925301, 0.48040684967000924, 0.2461836778655945, 0.007319220946874424, -0.08198428429380164, 0.05002940954201653, -0.017810137078865352, -0.0049113796030554385, -0.013193440475998889, -0.0032553896222799754, 0.0010658510170480971, 0.006963244048234409, -0.0010852413521766126, 0.0009314615366917083, 0.0017418737890586863, 0.0021266171125636038, 0.0009639071588248738, -4.727092072205191e-05, 0.004711944795266272, 0.010161602671873273, 0.003134087940699971, -0.009256057144258976, -0.0018866023151384444, -0.010762909599163237, -0.005358094858086425, -0.006559290074509539, -0.010186874015796099, 0.2359455862214946, 0.47240331136011304, 0.4897352358706146, 0.2978915335136228, 0.06722931747746633, -0.08247382496187682, -0.003187895293289408, 0.018507772233342896, 0.0016672720320034557, 0.01595811381490989, -0.007795532448475839, 0.0006350113528525552, -0.014278312198462864, 0.001390496474473881, -0.005468625365568365, -0.004428339770506826, -0.004889226252004016, -0.00624784836350126, -0.004411362260925044, -0.006884462691917419, -0.003583727578032303, -0.0016303125418065981, -0.004650873195611406, -0.0023386876165472567, -0.008128027752518575, -0.004099881582722307, -0.0045832895309277765, 0.047046573462441225, 0.2965671340684214, 0.46827670684594713, 0.49986102392701126, 0.40078053705347616, 0.19539279596290293, -0.022770443475849403, 0.010598212755840324, -0.00868378160579881, -0.004230433576332074, -0.005715373235254717, 0.0044066515246048285, -0.008936842841476316, 0.0012233283133206445, -0.008322137934223841, 0.0025819413199576623, -0.002604157567172377, 0.002781375702511499, 0.0009766747650263594, -8.747455439558533e-05, -0.001313300291826073, 0.00535505682284769, 0.005444716910596739, 3.645938689442955e-05, 0.006280562209942732, 0.0016846559364358492, 0.007364636920039551, -0.007543369717037345, -0.0066453158799812985, 0.31487435950196185, 0.4667533061983214, 0.4979253818097829, 0.44896998085819084, 0.3226749738700241, 0.007932674589806541, 0.010196313562931802, 0.02099271268704524, -0.004001724899383406, 0.0066080512277362675, 0.00437854555286521, -0.0020011473068382362, -0.004611545479339095, 0.004115594620545095, -0.0032570115589301884, 0.007232075364414816, -0.0006113509035867995, 0.00014028657893401059, 0.004977843015748546, 0.001636403813212585, -0.0038377439058124613, 0.0020084925237565045, -0.004850564361545526, 0.005780359489430654, -0.0015134802069057826, -0.007306962118721128, 0.010589895685274896, -0.009825351908287892, 0.3232905172042035, 0.49448342021675323, 0.4993316138221145, 0.4734682992631719, 0.3600639570705945, -0.017847724494591374, -0.04892685285683729, -0.01466431402371939, 0.008973816202834037, -0.003464572867555743, -0.0006822883433404151, 0.009210303896860698, -2.078656837981588e-05, -0.007334579257380467, 0.004861103992816229, 0.006395918841034032, 0.004904062189989071, 0.01114464280058512, 0.006541219204481051, 0.004078110147398204, -0.0065488824303572765, -0.00011829939788091982, -0.00010993623968184212, 0.0020067785621750833, -0.000708378552606904, -0.013516443865118525, 0.005989179540745426, -0.024007192221561224, 0.21724700552712664, 0.4742360587141564, 0.5000623633343598, 0.4868689632716292, 0.2850433164559023, 0.0496177523479338, 0.012015072922267713, 0.01627916752087178, -0.005592947502497109, 0.004063862491621126, 0.004975220420465879, 0.0017415719173264435, 0.0008262114398447308, -0.0045104344744544, -0.006461475385345071, -0.0030195971696268965, -0.004220111248349429, -0.005223128436873382, 0.002757111309362132, 0.001746397879968065, 0.0034453452019822836, -0.006691190517678056, -0.003190178907455289, 0.0015980098231596334, 0.007657765963581351, 0.0061108184089786665, -0.0006621075784075299, -0.03602157922561896, 0.1846846221530867, 0.46756708358432564, 0.5, 0.48341483247530864, 0.20933884425739746, -0.05367022929788052, 0.036306041757309046, -0.01376560315586648, 0.011363137955840711, -0.012639456237006401, 0.0009686106832414321, 0.009083209772099369, 0.00785402745522862, 0.006199173866394664, -0.003648098774577514, 0.0005507143224253209, -0.0038473151468578462, 0.004250179989820193, 8.849901433006707e-05, -0.007741292241254248, 0.0026849895509475728, 0.002545541124114204, 0.006595995568619244, 0.010301507400005516, -0.0025689172608382464, -0.008478696799211436, -0.0011183703205776946, -0.016340561417583672, 0.14746807905434442, 0.4671177089732676, 0.49974972873350326, 0.4814645489144081, 0.1759436281489124, -0.048175982042682454, -0.02027036003795501, -0.00578743808929205, 0.0038074789920346536, 0.0035456828586715805, -0.0073958813852074146, 0.0010233742526156238, -0.003149298559598425, -0.001509268984101954, 0.0063631099177675595, 0.007655831602957226, -0.0018027433278345847, -0.004904032227561803, -0.0024021632231245025, 0.005537773337837052, -0.0074525162711013915, 0.006370776214178164, 0.0011136709147168268, -0.00905267155272681, -0.009637673473956342, 0.01939363634909002, 0.01571500410311569, -0.020152003573390222, 0.21576130574743904, 0.4720909253014261, 0.4998504284983472, 0.46646000291967926, 0.07592056158218216, -0.03317098053151501, 0.025900562102046647, -0.0004903265322799929, 0.012940066969753642, -0.00196640236037598, -0.002893087369705896, -0.0018143381177757956, 0.006113494860617427, 0.010926845836295164, 0.0010235045468810283, 0.004663474237779577, -0.006225941401793831, 0.010731193813297929, -0.0012244426957899734, 0.0021797716301132177, -0.0001305192652020277, -0.003920457976251167, -0.005306048380645639, -0.005000964140432735, 0.011845396497657572, -0.01959900282640879, -0.021981310435379847, -0.01982664806206729, 0.20631706074329012, 0.48556561944838517, 0.5, 0.46139582341033447, 0.045655794973412406, 0.018466727217095063, 0.011374404000424752, -0.01397164135086956, 0.012381856274100171, -0.004126927316695546, 0.007168136453990517, -0.00240815951954191, -0.013769356465448305, 0.0010346759440424441, -0.004638863165035225, -0.002941030212779724, -0.011133134371327081, -0.012975009949017385, -0.013248204764187586, -0.007936667841619924, -0.0034297553728469183, 0.006755864501562783, 0.004743394543269888, 0.0024747170183087954, -0.02074575352651985, 0.010702383200526534, -0.00856646251339809, -0.05194585189961606, 0.25740301927387044, 0.4988022442342375, 0.49973131456461084, 0.4691105736492754, 0.07639957167077466, -0.04203215511876579, 0.022401998609292192, -0.022464815031969447, 0.004531567672386075, 0.003410582727317729, -0.0029630599914323126, -0.0010817981764211428, 0.003802675931998813, 0.011032194137530305, 0.0012742521241499198, 0.016275964912986305, 0.015198609635966332, 0.010313605203883613, 0.01327704344259909, 0.010803581448025477, -0.005944701138246565, -0.006157619202065497, 0.0050620719152280075, -0.0006519011219939323, -0.0018812076822661557, 0.02436118145668281, -0.09272258520360124, 0.06342335812167246, 0.34058078435830036, 0.49959366257760607, 0.49973971098446673, 0.4966656390150374, 0.18166108451049684, -0.07275245731020304, -0.011775550641528413, 0.014276293856291198, 0.009742579546339987, -0.0007135364283396613, -0.009743624304547532, -0.007608629606810702, -0.007384558504780835, -0.0115355945203546, -0.006164374107299693, -0.016525339405323306, -0.007203700919622239, -0.012340661499443338, -0.005078743588389343, 0.000511051079689554, -0.003951559491387021, -0.008438297672146388, -0.009832987224703991, 0.009296764712073103, 0.010420252490745118, -0.024732589060221372, -0.032732901277771245, 0.20936138556607367, 0.438720941912162, 0.4992498386048112, 0.5, 0.49971188888786616, 0.3550968076589387, 0.11724692480333758, -0.017441713616023726, 0.0035627257312689565, 0.002301394745094324, -0.00861487394801093, 0.0007925151322340797, 0.005399286084213777, -0.0016754086449741153, 0.006952453889691992, 0.00309013305160704, 0.0027515168476054132, 0.0031266995564081294, -0.0015149208266483855, 0.00919715110767132, -0.005771611918198467, 0.009513187407825627, -0.009059184422675328, -0.0073292146582673206, 0.029528168283014654, -0.022277935946490243, -0.10094421855058296, 0.11318344298893832, 0.3602424246570577, 0.4894971676287627, 0.5, 0.5, 0.5, 0.4408686918002273, 0.33022972054137106, -0.03449880191450429, -0.0991592892020754, 0.008833087220287765, 0.010461763206804104, 0.00683927524284935, -0.004229327262466101, 0.0034050962658236073, 0.0005002827768491699, 0.002073160870079739, 0.004990637212866302, 0.0040986058512341725, 0.006268692291700499, -0.0029845067652060652, 0.0122265040843846, -0.016194950992384282, 0.008255309513084567, 0.028260817153523764, -0.0445911377957167, -0.028848263837315015, 0.028497509172565872, 0.271116376104739, 0.4248471320583565, 0.4922560337232354, 0.5, 0.5, 0.5, 0.49493601798458375, 0.44326383438638134, 0.29089832221718864, 0.057230595784968495, -0.07501695466177176, 0.0025770552849281913, -0.004407901004429309, 0.012002124412092955, 0.0018175307517124832, -0.0006806975222595729, 0.009534529333729056, -0.0021373098590959628, 0.011350906905274247, -0.005894317904223708, 0.009148089435896723, -0.0007408357267057716, 0.009879704867786415, -0.0045428394206052354, -0.03137926512179553, -0.05715075325570736, 0.03890357585145274, 0.2263147462277129, 0.4166612040345683, 0.48444113657062726, 0.4923391384144541, 0.5, 0.5, 0.5, 0.5, 0.4971313764570949, 0.4132525414247985, 0.21698645429292113, 0.005293045414701528, -0.015566944585630465, -0.019193742767020277, -0.004178284370712068, -0.008652347460002336, -0.0004193811777283252, -0.008057832418437693, 0.00887130358864459, -0.017156129736444824, 0.006403522274506727, -0.031193937901757025, -0.03102058517957842, -0.03498316302111684, -0.05428599562635359, 0.010013611570369332, 0.13995628310757685, 0.30434974240729745, 0.448527961892267, 0.4979158877949275, 0.4997325908787925, 0.5, 0.5, 0.5, 0.5, 0.5, 0.5, 0.4910920701812929, 0.4458579373789105, 0.37905766251470163, 0.31434704292957516, 0.29131470603706366, 0.1860891293210866, 0.12085824865084227, 0.09860700565078667, 0.036065677839530186, 0.07131112906770685, 0.03829493148894432, 0.05281898308920581, 0.07440930915252025, 0.12456132317899227, 0.1927571052754905, 0.30932685762119067, 0.3752122952292933, 0.41258088002436655, 0.43173865276254936, 0.4926602030078343, 0.5, 0.5, 0.5, 0.5], [0.5, 0.5, 0.5, 0.5, 0.5, 0.5, 0.5, 0.5, 0.5, 0.5, 0.5, 0.5, 0.4923731971861851, 0.46825849657161644, 0.483261760511439, 0.4993025733546433, 0.5, 0.5, 0.5, 0.5, 0.5, 0.5, 0.5, 0.5, 0.5, 0.5, 0.5, 0.5, 0.5, 0.5, 0.5, 0.5, 0.4994617070978964, 0.49605455227605844, 0.4588019385752676, 0.41896334753551545, 0.36164737419054926, 0.31953724225073155, 0.2610021412087126, 0.22206135968865906, 0.21390646320065423, 0.19460557262091835, 0.16140059629531756, 0.20754631073214763, 0.19841922549265276, 0.2415012621281468, 0.29927399283093603, 0.3438577120279945, 0.3708503432869781, 0.43533908028075025, 0.46775203552412387, 0.4885753706380056, 0.5, 0.5, 0.5, 0.5, 0.5, 0.5, 0.4990050800907993, 0.49929564907616464, 0.49301637217316274, 0.4773666307008991, 0.34508592439311275, 0.2084431963925607, 0.10150502540353239, 0.015332502650771913, -0.05240607496882564, -0.01579991551347002, -0.04342113908568369, -0.001708432921028316, -0.03492392456741309, 0.004078716239501033, -0.025078885798007457, -0.025717670547581242, -0.011208320219633265, -0.04090295624846949, -0.0032942542289278237, 0.011409732888130006, 0.10134660615186493, 0.2774762945394716, 0.3633653105964726, 0.46266287453854116, 0.5, 0.5, 0.5, 0.5, 0.49656846255444625, 0.4927740279131541, 0.4739102550214399, 0.33404262421105874, 0.11203100204464823, -0.05180552237850144, -0.0720187555265398, -0.013922865234405083, 0.0024490905546424406, 0.0046353893989414426, 0.020784725753711146, -0.004542316284727157, -0.0023318165672211962, 0.004899649222523014, 0.004305377691683595, 0.002314639631043621, 0.002796901649592236, 0.004746114836345256, -0.004706363708722594, -0.03848559531426397, -0.05672459129432275, 0.028244911621281767, 0.18140870608066667, 0.4267243311339772, 0.4937716998140901, 0.5, 0.5, 0.5000781491445413, 0.49416007000100454, 0.47475189795333766, 0.33611853172257977, 0.07157031303474558, -0.034689713295094286, -0.02468068139412893, 0.01629511287517756, 0.016402931249562304, 0.008099058451597252, -0.006418755300952367, -0.0023308216424657536, -0.014504371655496444, 0.0021211557485643134, -0.0006244824704937128, -0.005109776481840635, 0.0015939557923779393, -0.0005742904951881546, -0.00428373864532096, -0.005604888774383083, 0.017241537625537047, -0.002589902709578757, -0.027397860232734706, -0.02011910737324541, 0.2417841484248715, 0.4292607495307145, 0.49572214725614683, 0.5, 0.4997109969930992, 0.48872458019090514, 0.3855966117631924, 0.12307818630830672, -0.06463567755011555, -0.01828048089403537, 0.016100462797585206, 0.003776722260648378, -0.006523410637690749, 0.003588064617156833, -0.007597085687959555, 0.002112787701549089, 0.007783883002028546, 0.003711616807446756, -0.0037568738819546764, 0.007347695764197608, 0.002070955895125111, 0.0017695413055477723, 0.006221024228720435, 0.0029773652272905736, -0.001589071285576329, 0.011073953556095967, 0.0005830389684141011, -0.025901082793958863, -0.034869978945428294, 0.3000060414812821, 0.4906485730743969, 0.5, 0.4998427810809632, 0.4535928908671033, 0.17220330049551547, -0.0808611973730208, -0.0004293067132281609, 0.012028176470100948, -0.013177772102270157, -0.011031310480702834, -0.007117877847467493, -0.0035029460433851477, 0.00697869046901826, -0.011708171206694441, -0.002216864470054772, 0.005863919852152774, 0.0017661458002653878, -0.0016430206093862216, -0.002836073638075263, -0.002989935067216721, -0.004271365465028515, -0.01002828000941942, 0.0014603906686634542, -0.004371045447558482, 0.007675160024682213, -0.014587913019158032, -0.028988316201551297, 0.10351077451564716, 0.40736053273036377, 0.4901606981894786, 0.4299828678264563, 0.2884956085843197, 0.006141816193486556, -0.00467662555471409, 0.036783081808910476, 0.011911361437445032, 0.0142821696192124, 0.005398642604532279, 0.0032146436373675156, -0.0033553981905557924, 0.004687802915107521, 0.0007316532357111684, -0.004660551870763203, 0.0014541022528978223, -0.0010387816539678216, 0.0004666452715945382, 0.007357277166970362, 0.0021482404045585486, 0.008472501705950914, 0.011832573044544646, 0.003968018316735637, 0.013012601778107268, -0.00017967979970796394, 0.02735101661482534, -0.04081776295195088, 0.014210658068213117, 0.4118998928159738, 0.459815422785097, 0.29934763475085263, 0.06871875995356051, -0.04795460978098917, -0.025326622959913187, -0.014319645789157048, 0.0011531713267436438, -0.0004661645138201705, 0.005126021433881943, 0.0036579334781844776, 0.005738257801900804, -0.0013344649482367277, -0.0006159207350481254, 0.0014920268512331812, -0.014558614170896655, 0.0023321100994415306, -0.0024808565436760556, -0.0022001028137790036, -0.007020718023188484, -0.01792944356879967, 0.0001989767375571569, -0.006021753753020939, 0.011821363683833675, -0.004202388466434626, 0.0013343776664731808, -0.04908203411573505, 0.07023848653504051, 0.44323249665134645, 0.47451488769611727, 0.22328372583698, 0.006289527021811735, -0.019864407798210637, 0.0020623029800637864, -0.0066643182192229165, 0.0029874377280740255, -0.011851656814503706, -0.006439870874033108, -0.002804330785829632, -0.003059619003101268, 0.001480741230854269, -0.0005205338492758044, 0.002216720163840296, 0.004374032989663936, -0.00597198761569018, 0.009303971126631908, 0.0024693371725932178, 0.012644979180048966, 0.0007087422794214186, -0.0027519347092969763, 0.017917516962207634, -0.000482777863801583, -0.005490479485576296, 0.020333143317225796, -0.03900026125193142, 0.08639693904285281, 0.42383157441502833, 0.4693721474992859, 0.21879748780749486, -0.039308849297748596, -0.019375088634256507, 0.005481417305205995, 0.008828941694723013, 0.0034393223252456822, 0.006148045623836125, 0.012105433245825034, -0.0018939725629873762, 0.005669840510152269, 0.005119677290737394, 0.00517750700740456, 0.0015564898304268177, -0.0030388558658829266, -0.0050156715869229115, -0.005310784701275365, -0.0021475536615218485, -0.0025545124634317714, 0.0040703139668575375, 0.008689505903303621, -0.0005218147371305664, 0.00278930154986101, -0.013404677986249225, -0.008303395122080313, -0.0740982149850578, 0.1372959518332404, 0.4395761505343056, 0.48037962087199537, 0.2463177717319159, 0.007668251662815549, -0.08272687488168312, 0.0504458536172773, -0.01753363542449581, -0.004975039425228159, -0.013031628501204868, -0.0035306538508005983, 0.0008401662461217992, 0.007788106231727809, -0.0009907641912894713, 0.0016175299929615315, 0.001654480674734504, 0.0021166130612467345, 0.00026801346658069324, -0.00024132677315043277, 0.004209906805466191, 0.010563304762855115, 0.004013774635256874, -0.008860960034113585, -0.001661290079792266, -0.010963900002099573, -0.0053985523341097364, -0.007485367965198539, -0.010849169753690874, 0.23568046757717662, 0.4723373263209171, 0.48968925687187664, 0.2978356667424752, 0.06753085148997068, -0.08212833899602794, -0.0036319387252546423, 0.01857809438944583, 0.002041716007073211, 0.01618751986735809, -0.007360556459492534, 0.0009411354947631851, -0.014503795436099932, 0.00194077304426574, -0.005401566650260165, -0.004232852322303489, -0.005900741509340124, -0.006686145924920928, -0.004576500569035028, -0.00654284630792885, -0.0035952892095310407, -0.0018176275980091605, -0.004726840901195632, -0.002733959026754429, -0.008136205224945956, -0.0034708646186348436, -0.0038885119692880854, 0.04596302372185335, 0.2962646199558099, 0.46824109984708034, 0.49986023163318355, 0.40086676111076897, 0.1955017693654898, -0.0234916365969048, 0.01054981279853084, -0.009606567985346178, -0.0038769787848223136, -0.0059634210788340495, 0.0043878920020847265, -0.00894078688644897, 0.0016748414858410942, -0.008210479721258634, 0.001767577726330826, -0.0024965100840395747, 0.0024304249822839318, 0.0006175387128854348, -0.00064635278954451, -0.001386885039299282, 0.004703327410658971, 0.005447631518759053, -0.0006308108791888415, 0.006500451107070903, 0.002026934867130545, 0.0065897558291480515, -0.007294453334276026, -0.007496486362852608, 0.31471019995711996, 0.46674603433720857, 0.49798073058675935, 0.4488998999129157, 0.32267987885906096, 0.008146710621509278, 0.01116583851769624, 0.022114759527073927, -0.0031759130198978545, 0.007486632079553985, 0.005305445273844931, -0.002107743920761984, -0.004458979639448283, 0.004692539747701403, -0.0036314471668582554, 0.007892464021267084, -0.0011599427371547918, -0.0001854176164733543, 0.00444423794341878, 0.001475322423419363, -0.00468177505526971, 0.001871405466745804, -0.004076466692020222, 0.0059792523298399436, -0.0010019897618353272, -0.00792620461118557, 0.009825177184520978, -0.01037427518983904, 0.3237537887515945, 0.49453616860144917, 0.49934911301897394, 0.47331358928983447, 0.3597346912431602, -0.017576190731125197, -0.047763514671980416, -0.014860618255705619, 0.009253549099746577, -0.0021423064753081957, 0.0006617800650891088, 0.009596887172805879, 0.00036582311630293114, -0.007351569131483587, 0.004577865615060456, 0.005910722769164442, 0.005230668190655404, 0.011048729778674915, 0.006544923943451079, 0.003940389814257308, -0.006403674638319832, -0.00017180242037483006, -0.0004993842828234137, 0.0025331075251399044, -0.0008226077339777263, -0.013004195008210448, 0.005963059954026139, -0.024175138655557735, 0.21849386468651424, 0.47443065580350163, 0.5000587984543091, 0.4867930788484818, 0.28409159643528514, 0.04830088309053353, 0.011841880534177899, 0.015981472346260576, -0.004854303852186305, 0.004306170041256104, 0.005887551026299287, 0.0020528450552024778, 0.0018421319049335167, -0.003729103911375155, -0.005618601932657519, -0.003413823365461861, -0.0029562537695677015, -0.00414724143498796, 0.003104207664883486, 0.0016788881280797175, 0.0034229149256258156, -0.0062422183444986856, -0.002909085031082355, 0.00112681918352585, 0.007557413103502789, 0.006182027715120865, -0.0014426658781715742, -0.03547900820167266, 0.1857066986985502, 0.4677311085961079, 0.5, 0.48339808734088185, 0.20855367097320238, -0.055222799274850055, 0.035504316214181736, -0.013347968769502347, 0.01116640713791802, -0.012542815597166856, 0.0009795592076063853, 0.009596141693322421, 0.007999517676135708, 0.0069715203403226175, -0.0034272340180023083, 0.001139457279764734, -0.0030097222702387062, 0.004073338019769284, 0.0006804916675374203, -0.007982009062728782, 0.0028075860569858097, 0.0025948276332448763, 0.006788198211437756, 0.009536617582031748, -0.0029305676997370663, -0.008293667917261714, -0.001376614483608334, -0.015498128357352819, 0.1483791940212325, 0.4671667676295685, 0.49971837108090605, 0.4814755740714853, 0.17526787614556352, -0.04936279885654622, -0.020951870625950324, -0.006115817622683818, 0.0027025194635550013, 0.0036135916224357776, -0.007574642787895013, 0.0012276473918872467, -0.0029999224060866976, -0.0008814471457485156, 0.007683710333502608, 0.00880486439948383, -0.001172772652669418, -0.0051124415207698505, -0.0026466275638571497, 0.005440988632154534, -0.007882832911997916, 0.006033419522410335, 0.0015679271737472596, -0.008985776609030825, -0.009389604267325732, 0.019703626449424465, 0.016998459235992528, -0.01897341701291145, 0.2166282655707219, 0.4721212093035035, 0.4998484073628931, 0.46643119677371286, 0.07489931881244354, -0.033338197844431906, 0.02579638489652732, -0.0006905235515801148, 0.01251299058609393, -0.001654881011575348, -0.0031455034230870433, -0.0021391954741799392, 0.005910051257741337, 0.011026019168903656, 0.00028017775886803227, 0.005310256421534946, -0.005721891830824813, 0.010859208540158262, -0.0016838517093196684, 0.001794812011144498, -0.0001585583564948415, -0.004270826776354269, -0.0051623449287103, -0.0045491467270370525, 0.011934035449525824, -0.01861393898344885, -0.021047556546068116, -0.019431759142012804, 0.20695322159453358, 0.4856285883147032, 0.5, 0.4613096720844767, 0.04449804261032172, 0.016697980420325945, 0.011003296923672865, -0.014041683800181339, 0.01286986157059507, -0.004299241497301438, 0.006733695297333974, -0.0027279898794734417, -0.014181371699131239, 0.0005105616632079975, -0.004415730306056089, -0.003062844425332261, -0.010406113033698185, -0.01232474642469922, -0.013412579037314014, -0.008829835822364594, -0.003907363718457722, 0.0070366650325985785, 0.00484566960072463, 0.0033287936961024158, -0.02016959498711867, 0.010695642481877361, -0.007826712887347619, -0.051760827393857595, 0.25751376564204703, 0.4988275887545544, 0.4997336546208002, 0.46905769975721473, 0.07515435859522679, -0.04280867736145666, 0.021914507684552366, -0.022913829643514613, 0.004052851350797931, 0.003581716131281602, -0.0033235594479051923, -0.0011258008190675847, 0.003834338953815955, 0.01118273229746256, 0.0009226195526332103, 0.01619667543401314, 0.014179023081313323, 0.009669201776935718, 0.013102935480500318, 0.01074579151112642, -0.005925193594687652, -0.0058283389371843975, 0.004689930805267423, -2.9089249526116992e-05, -0.0007939284497178872, 0.025438411428734094, -0.09192064368778213, 0.06322378883540809, 0.3405337196628058, 0.4996012387746966, 0.4997419779139002, 0.4966533999066623, 0.1809484435621161, -0.07339587188672868, -0.01194701846349713, 0.014560463624656524, 0.009709218440203811, -0.0006399071095862606, -0.009936854127407213, -0.007724833694810648, -0.007320151089506188, -0.011140378270817446, -0.0068755564131726095, -0.01687269511492784, -0.0074086270838342695, -0.012657889445293143, -0.0049055058575728176, -7.540011566175717e-05, -0.0048871170359214965, -0.0077256457803015835, -0.01069693241996693, 0.009415562661266037, 0.010619730973544772, -0.024858901700768415, -0.03252319702066956, 0.20913528219227737, 0.43877518632211987, 0.499263825430209, 0.5, 0.4997109969930992, 0.35472767139048506, 0.11632282163798226, -0.01896314855415789, 0.0031037752003536885, 0.001790941825678006, -0.009356692429131973, 0.0005281335767855261, 0.004780103341893331, -0.001961475123023248, 0.0060123717810890475, 0.003108437831140249, 0.0019890343574529177, 0.002729775703425432, -0.0012992887397699807, 0.009510653634391502, -0.004558236823134776, 0.009056886017827823, -0.009746633672755885, -0.006367176582281321, 0.030126421443177828, -0.021693002032644147, -0.10069024606283869, 0.1128359638564047, 0.35982989990974107, 0.4894710697699871, 0.5, 0.5, 0.5, 0.4406859543746269, 0.32935998873706807, -0.036023347235010564, -0.10012813139218198, 0.008310422225118965, 0.01029226878564272, 0.0067404013580923, -0.004401453524466496, 0.0027941463241586474, 0.0004458051904640807, 0.001814677131873678, 0.005523120650972739, 0.0033231564891996555, 0.00611397820240594, -0.0032011928247365484, 0.013063932109709537, -0.014934119459297084, 0.00990060486755057, 0.029514483559555497, -0.04444211105677527, -0.02969976972311544, 0.02727430593673627, 0.2707420538290243, 0.42489907597130255, 0.49226331688233427, 0.5, 0.5, 0.5, 0.49490118028208036, 0.44344090613864556, 0.2911101797264781, 0.05754059032492959, -0.07443607150989381, 0.003017435923264316, -0.005113038991597602, 0.012081198301791446, 0.0008278506394708135, -0.0015269916999237024, 0.008052018732123817, -0.002877921331510815, 0.009611912969420185, -0.007067160312223271, 0.008195171537825665, -0.002549941852955865, 0.0074319003858517, -0.0076816455537806975, -0.03431714122787161, -0.05924551874249078, 0.037926733277284706, 0.22525696977541493, 0.41627079522568367, 0.4843687019925217, 0.49234023578197655, 0.5, 0.5, 0.5, 0.5, 0.49713503681941945, 0.41334019111049514, 0.2172595964878593, 0.004871845380322746, -0.016638061187599057, -0.020415510187245887, -0.00486978830848717, -0.009560155571775619, -0.0011769272976289527, -0.008178897821543457, 0.007866698581561101, -0.018116641069235124, 0.005835934637230603, -0.032325984443281226, -0.03168657761869799, -0.03549453025478789, -0.05513709219536603, 0.008456582306824946, 0.13918746919413266, 0.3039134739215644, 0.4482919091785644, 0.4979002037291472, 0.499722582974258, 0.5, 0.5, 0.5, 0.5, 0.5, 0.5, 0.491063305353232, 0.44574680852874216, 0.3787462545277441, 0.3138916963279375, 0.2908374418849535, 0.18563854855797704, 0.12014892017221511, 0.09833605000391142, 0.035814905854355095, 0.0712775680125264, 0.038671339331061344, 0.05337717408898414, 0.07487145545171223, 0.1250924133329013, 0.19298657185245546, 0.3095280072657923, 0.3752898687415488, 0.4124320104345518, 0.4314710633632583, 0.4926335967348086, 0.5, 0.5, 0.5, 0.5], [0.5, 0.5, 0.5, 0.5, 0.5, 0.5, 0.5, 0.5, 0.5, 0.5, 0.5, 0.5, 0.492406302601892, 0.46838020220640963, 0.4833165287144072, 0.4993048553631003, 0.5, 0.5, 0.5, 0.5, 0.5, 0.5, 0.5, 0.5, 0.5, 0.5, 0.5, 0.5, 0.5, 0.5, 0.5, 0.5, 0.49946658767550606, 0.4960816085364741, 0.45898872240282207, 0.4192201046013806, 0.361964825203918, 0.3199879967196679, 0.2616913313417666, 0.22287287836154637, 0.21505805981531742, 0.19503603051439708, 0.16158056848096736, 0.2078841715933603, 0.19907975465932665, 0.24221187229510371, 0.2997477919451143, 0.34399098185242677, 0.3709573141158308, 0.43569813070915264, 0.46802560784754477, 0.4886428055836007, 0.5, 0.5, 0.5, 0.5, 0.5, 0.5, 0.4990035729804673, 0.49930649450812603, 0.49307707859078415, 0.47738551233615656, 0.3458759092976953, 0.20978585133758043, 0.10351340081939227, 0.017509880130986945, -0.04986264173602959, -0.013308086407313667, -0.041440609795699836, 0.00036916311019156544, -0.03400514367568236, 0.00496776224571897, -0.024151286644470592, -0.02473728254730373, -0.010512674369560014, -0.04098775461650318, -0.002436036073482451, 0.011548484650357212, 0.10146297785246712, 0.27742285100986824, 0.36328572161100275, 0.4626500526750794, 0.5, 0.5, 0.5, 0.5, 0.49656463389697786, 0.4928701831194739, 0.4740284704697888, 0.3341073615287699, 0.11259087908076709, -0.050149708163648395, -0.0700117945064228, -0.01330124685708281, 0.0037617155060420144, 0.004932013648093421, 0.021344844360396555, -0.003534660943447099, -0.0013710839953412724, 0.005553909361907431, 0.004661811598340879, 0.0032320976983714715, 0.0030340534279704443, 0.004698899126131377, -0.00442525775543634, -0.03874640421476535, -0.057320220147111266, 0.027212729095059278, 0.18084475122575114, 0.4266085476455278, 0.49376985582201033, 0.5, 0.5, 0.5000926458180004, 0.4941654941726619, 0.47483960971439254, 0.33621484694043713, 0.07149923672992081, -0.034596040840882976, -0.024827499947124923, 0.01466275104439797, 0.016494628213114305, 0.008326630190758065, -0.0064396976539658765, -0.002506444464877102, -0.014166020080445763, 0.0024651343413355674, -0.0008942849311747654, -0.005412449104655262, 0.002052453367407375, -0.0008914555832372176, -0.004204050510954531, -0.006026493496802063, 0.01807222143740442, -0.002759917680280038, -0.02660559600664509, -0.019930833395559726, 0.24200410663650151, 0.4293608867329897, 0.4957424351425802, 0.5, 0.49970995715042693, 0.48872998052320726, 0.3855515888767498, 0.1234606167649528, -0.06525856959505674, -0.018629280171082646, 0.015492946455338994, 0.004296503258022614, -0.006675146142452384, 0.003370918540442455, -0.007662319439962621, 0.002797516565245534, 0.007637142475784571, 0.0037775966521979517, -0.004025286230351556, 0.006984577887243924, 0.0023315375906160112, 0.001146494531562675, 0.006398498786849868, 0.0040226446988606175, -0.0010655777657893625, 0.011748035829084034, 0.0007818819740078221, -0.025582359443119044, -0.03383903173577253, 0.30107083164791776, 0.49072482515419075, 0.5, 0.4998393928303173, 0.45376171257901066, 0.17204806818992086, -0.08192040270090731, -0.0009081371608320103, 0.011924687831955058, -0.01327294480800162, -0.011229232792874765, -0.00787517793726513, -0.002609885412623309, 0.007337525554249433, -0.010979235793901074, -0.0017394791547256318, 0.006392872773495177, 0.002414476987194908, -0.0011128833420540175, -0.003145704470122037, -0.002882791742566071, -0.004434982505676357, -0.009757684327917376, 0.0016387591130989742, -0.004263277799424258, 0.007277285473205448, -0.013090024002198043, -0.027987802939822618, 0.10404222726755923, 0.40732420395286667, 0.4901973459287926, 0.42997411082634696, 0.2884025462105726, 0.0061980045232696455, -0.004993204746520832, 0.03715963374879735, 0.011791469383669902, 0.014354324364525153, 0.0053449336602470815, 0.0035575492770527147, -0.0030985702301581067, 0.00511303551510911, 0.0014280313800983477, -0.004105267405744699, 0.0025008505974979754, -0.001099234000011417, 0.0007417119663130703, 0.007820065496580316, 0.0022054126102545118, 0.008566461978298192, 0.011696652091248623, 0.004053313073588825, 0.013356228814964025, -0.000535639135135689, 0.02889684799079816, -0.03824583296955619, 0.014901079515157756, 0.4120419281464642, 0.45998082195215545, 0.2992838363335781, 0.06885422717095653, -0.048166771598974895, -0.026270860175300906, -0.014421720417318519, 0.0007964237255355856, -0.0013444457961567986, 0.0057973524219430035, 0.003037289079461191, 0.006102692701975132, -0.0011410879146107028, -0.0005780297848367165, 0.001768008604863645, -0.014157426869655576, 0.0030305422243253745, -0.002359529241131263, -0.0018004273463084071, -0.007168602671327042, -0.018291846816824813, -0.00012134544536372607, -0.005126949429867453, 0.01161987090893414, -0.0037874133394736847, 0.0034201638125141353, -0.04466921189342737, 0.0717156505517801, 0.4432140423344647, 0.4746568194081634, 0.2232600967345384, 0.006233325878629527, -0.01914491202927458, 0.002387025086539222, -0.00646201465766911, 0.0035435844146375238, -0.011970311811258088, -0.007093315795432554, -0.0027769882967496502, -0.003291880005549791, 0.0018096073675749143, -0.00027149589526288554, 0.0025876380753970555, 0.005342429875243905, -0.004916290872584543, 0.009467101954514672, 0.0029310045462042976, 0.012698384589073033, 0.0005084689569907074, -0.0029313038899226322, 0.017670112877703554, -0.0006414086521337195, -0.00621307045322335, 0.023400342291274863, -0.03360521539615975, 0.08830687022061133, 0.4238916987593758, 0.4695336311053251, 0.2185742391073487, -0.03956193088411389, -0.01945415075160334, 0.005230592429451651, 0.008902292942943533, 0.003902566303945563, 0.006159126343908531, 0.011658911820925785, -0.001310854241079764, 0.005942704360934525, 0.005181798580775977, 0.0051048367253920665, 0.0027409479633355074, -0.0027390094449199834, -0.005377726483023343, -0.005207003503528222, -0.0022467048678435665, -0.0024603192787746152, 0.0038421322898579517, 0.008538083981532982, -0.0016493520751128309, 0.0013156979357655076, -0.014516495133293674, -0.00727117717609955, -0.06845900741786767, 0.1402144023650074, 0.4396470093940621, 0.4803897708902361, 0.24615523937767694, 0.00793826617025046, -0.08350503056293834, 0.05026700117330121, -0.01757071852575642, -0.004622461079326392, -0.012493789438183573, -0.003142058707329707, 0.0012850427390912174, 0.007504824567928072, -0.0009308660963919291, 0.0007861441449513692, 0.00238943009372649, 0.00215535152282465, -0.00013912391523415474, -0.0010232768636945944, 0.004042106188693475, 0.009642620871226878, 0.002963557337254483, -0.010347656348938958, -0.0023322392726832938, -0.01210439676224259, -0.005711100961463912, -0.008495066420056206, -0.007388437608104796, 0.2371807795058655, 0.47247435613821853, 0.4896713321199522, 0.2977214324812794, 0.0670451161358727, -0.08285420382684452, -0.0030322499820045973, 0.018547966427711816, 0.0024737012964078852, 0.016945034722366227, -0.007026129239205941, 0.0008307466571962277, -0.013572255324220498, 0.002240922723549362, -0.004533518645769821, -0.004162211223728938, -0.005278191068581676, -0.006616521896217607, -0.004812941226189752, -0.007544003110504535, -0.004398202443392326, -0.0019239467622392536, -0.005237648947759139, -0.0026917132822985167, -0.007978875635962925, -0.004429335665237455, -0.005709433442909127, 0.04670066659718974, 0.29685786960921134, 0.4682760582411544, 0.4998599845410792, 0.4009178187781006, 0.1954646077987491, -0.02331751430054324, 0.011536187458994023, -0.008187069252291887, -0.0036382258399363246, -0.005152768788833063, 0.004399638241728008, -0.009188674562492545, 0.0019049077447337328, -0.008310933740815377, 0.0015526829682066521, -0.002664821476734603, 0.002983358537330858, 0.00046246932329406705, -0.0006358620206724857, -0.002115072166178993, 0.00463593536001382, 0.005902228709630243, -0.00036987346048988456, 0.00583222488894346, 0.002176731846091642, 0.007023045791500382, -0.006267698752610816, -0.006767007463154778, 0.31482188019707114, 0.46671502657033526, 0.4980550076725654, 0.4489692832624623, 0.3228621275524441, 0.007927038222700997, 0.011020032845520531, 0.021436521112090975, -0.004598432860630845, 0.006017521494159975, 0.005064933157462294, -0.0012440261605402647, -0.004201946869156434, 0.004283670174082044, -0.0032229523811675895, 0.007615920664161502, -0.0003298605747007348, 0.0003542309069595379, 0.003947446832147169, 0.0003739620376769531, -0.005233784230823119, 0.0014759733821570107, -0.004228989239918415, 0.0050736207980879465, -0.002492411705963062, -0.00805769653891083, 0.011132148990453217, -0.009776179506995164, 0.32348660679607794, 0.49453461065841414, 0.49937314838459296, 0.4733459034456705, 0.3597662112802239, -0.018366590449283147, -0.04917083055104626, -0.01582681819047641, 0.00853672912010468, -0.0040464682694839925, -0.000833508655400948, 0.009085329909680157, 6.502878676011859e-05, -0.00802509356018621, 0.004452389367777782, 0.0062257557742137265, 0.0048296070984852205, 0.012285599041254586, 0.006854829172425208, 0.003299192327766317, -0.006804007929231569, -0.0007732126407094435, -0.0004071349011083308, 0.0022003701074759362, -0.001193623193682822, -0.013756802992986737, 0.006474549986588394, -0.02343141079515478, 0.21773715579952166, 0.4743535544121207, 0.5000571673109526, 0.48674491679890985, 0.28394070054842, 0.04902840376157096, 0.011514232234404592, 0.015510239858315518, -0.005733879964549043, 0.00342802674715998, 0.004481686215729943, 0.001460010090254338, 0.0003349367752675456, -0.0046183544264950535, -0.005752267241087473, -0.0033526709593500103, -0.0038474691018680275, -0.0046426361142848215, 0.0028244957075652787, 0.0011684750579940037, 0.002445791461377359, -0.006937009534592532, -0.002983565454924098, 0.0014970484993394452, 0.007929519407183514, 0.005646199215974405, -0.0011930687689948249, -0.03654370709090723, 0.18503885993349872, 0.46753264781008996, 0.5, 0.48334817798766494, 0.207740941886292, -0.05467883710535837, 0.03619601090432194, -0.012997459624778735, 0.011559523656570684, -0.013010618264985325, 0.0005755310043584261, 0.008629017330371164, 0.00760261988673494, 0.006457856060824654, -0.00407869464689094, 0.0010278686657349179, -0.0038277338445430156, 0.003968380746264279, 0.000997996319023011, -0.007831048549624254, 0.002424842210777533, 0.0025819135402790168, 0.0067009854125146115, 0.009855617455774233, -0.0034702532456303207, -0.008515197613867443, -0.0005799070254913925, -0.01634093713985676, 0.1476737435484448, 0.46713123730483874, 0.49975789500024775, 0.4814496409925019, 0.17418132725027433, -0.049141557435226815, -0.01977441858041324, -0.005805683632182358, 0.003982368578614201, 0.00413092752632457, -0.007479359884880323, 0.0012094785066076804, -0.0031852997382230412, -0.00109877608709631, 0.006842383061825664, 0.007900892797493909, -0.0018601674666309598, -0.0045539303742809945, -0.0023039518015656856, 0.005883311412309355, -0.008185194429077641, 0.0056065913027869806, 0.0017954980649588514, -0.008700233331326322, -0.008861715632858265, 0.019395202599264954, 0.016483339447318605, -0.020059866281612614, 0.21592202377380237, 0.4720994237385327, 0.49984881257139874, 0.46647628685221865, 0.07438047666669327, -0.03408243455078799, 0.026375907884077548, -0.00022996579499989545, 0.013370662940266651, -0.000933377576429781, -0.002909511079580458, -0.0018274470621285502, 0.006332741016295848, 0.011002308742908078, 0.0016359229006092644, 0.005019068871994055, -0.005824859404855572, 0.010934749825007247, -0.0010331132847145408, 0.0013170994734552108, 0.00048380925913672925, -0.004187652159493654, -0.0048381748146539665, -0.004721620056920805, 0.012062628454117588, -0.01875555389456765, -0.021284674252370673, -0.019973252971942718, 0.2064048389207454, 0.4856065709356761, 0.5, 0.46140472596111054, 0.044060629729314474, 0.016686514093444977, 0.010932212416939618, -0.013416541238212683, 0.012724635187976844, -0.004201106907112884, 0.00818315646681861, -0.0019591184848590667, -0.013463910654272307, 0.0005518700979178123, -0.0044928340008686795, -0.0029056121652167896, -0.01122337590972672, -0.012234224999714709, -0.013732768926406074, -0.008657005164798167, -0.0037659179644514715, 0.007669547116059169, 0.004822050766288807, 0.0023298617748222714, -0.02028822924252122, 0.011245390845276542, -0.008103199614765981, -0.05262344849933966, 0.2573767190603038, 0.49882374219599435, 0.49973707455542604, 0.4690506193622273, 0.07496627478511671, -0.04274675687225907, 0.02244624544669772, -0.022412218375796156, 0.0034451343961564803, 0.0036843839263616452, -0.003511049020190132, -0.0006974892138424753, 0.003787183313182629, 0.010844451580716915, 0.0010332775090520585, 0.015846895786142734, 0.014670677483315589, 0.009259383080837564, 0.013145572001228505, 0.01096163766931323, -0.00639582031373677, -0.006158160108477995, 0.005448138949067326, 0.00017691141144087353, -0.0008285481165638276, 0.02477484200051812, -0.09209860246150497, 0.06290274729848094, 0.34070073309617926, 0.4995876775750248, 0.49974529097556897, 0.4966579345147045, 0.18062481907704075, -0.0741504319616665, -0.01209642659788087, 0.015079156217630138, 0.009637820189025703, -0.0008623022103078582, -0.01004875414489937, -0.0071795398865535705, -0.0068181189557404345, -0.010543733521629281, -0.006576514548942638, -0.016468576555104728, -0.007496825628179301, -0.012425551142069306, -0.005061532830464189, -0.00012108679737583344, -0.0037861969397994266, -0.007791791608695874, -0.009408659084404108, 0.009353041716942652, 0.01106634459659955, -0.02478075347796374, -0.032583538429608296, 0.20883269511202718, 0.438800652406758, 0.49923878936927657, 0.5, 0.49970995715042693, 0.3546173373395644, 0.11597603813635646, -0.01869343393757794, 0.004400697916046878, 0.001937330512416003, -0.009578987960714479, 0.0006594135653462475, 0.004133593239151568, -0.0020204479121273752, 0.005955647236444228, 0.002818394185627133, 0.0027302767256600228, 0.003662430169246084, -0.0019500642886909625, 0.00952553460577938, -0.005044139610287801, 0.008487628408980591, -0.008830836152349707, -0.006180987845088542, 0.029689351376426358, -0.021696208432240908, -0.10091379174020353, 0.11276272992879292, 0.35997757058019636, 0.48948981136015696, 0.5, 0.5, 0.5, 0.4406078850117681, 0.32920834640155855, -0.035956706380895466, -0.0999062840665277, 0.008304241058157268, 0.010840950044940746, 0.005634054977742477, -0.0031266400375822827, 0.0033949385979132472, 0.00023104471491212526, 0.001622691149827346, 0.005251885036560238, 0.0035425819120640314, 0.0061412502799920755, -0.0036865620569802066, 0.012300789300904037, -0.015222357996568644, 0.007500900858629608, 0.027860014344917812, -0.04446155718426671, -0.028385289137060284, 0.028300643822364475, 0.2714487508309176, 0.42480583022030766, 0.49226412296047317, 0.5, 0.5, 0.5, 0.4948996236156752, 0.4435728899694766, 0.2911427054215176, 0.05782313238502043, -0.07444874719688888, 0.0037527268641297466, -0.004602613267968328, 0.012451841019622172, 0.0022697447821631894, 0.00029366007388514123, 0.009633831112015314, -0.001508500358875774, 0.01069737550560088, -0.006132896208234081, 0.009516416720357187, -0.0004761871773846087, 0.0098417649842322, -0.004453110451035554, -0.03207518638005138, -0.05627343652679352, 0.03907932378019983, 0.22623599658072394, 0.41698247911620495, 0.4844524452739687, 0.4923495717550503, 0.5, 0.5, 0.5, 0.5, 0.4971160347380973, 0.4134044478377027, 0.217648499601929, 0.0050729269495411455, -0.015901053244204447, -0.019328285458535033, -0.003980004685801139, -0.008888129939469766, -0.0001361876254700898, -0.007988920203205581, 0.009123271673716696, -0.01682294240452494, 0.007359148247924865, -0.030588267111411126, -0.03143063251634579, -0.0353916947281454, -0.0541334605838903, 0.009758039377261106, 0.1397193882290044, 0.3039723447465338, 0.44851371240826615, 0.49790820881963854, 0.49973551318137677, 0.5, 0.5, 0.5, 0.5, 0.5, 0.5, 0.4911051406931702, 0.4460286277703275, 0.37912216669154325, 0.31414955662585287, 0.29125828640113693, 0.1861366546451273, 0.1208439937194514, 0.09894699029893611, 0.03635235923140506, 0.07144053699077677, 0.03848193382003497, 0.05229499698997349, 0.07398407218230718, 0.12443037097096868, 0.1929038876406842, 0.30950739882783807, 0.375228024098734, 0.41234714097689057, 0.4314717212300578, 0.4926331338834332, 0.5, 0.5, 0.5, 0.5], [0.5, 0.5, 0.5, 0.5, 0.5, 0.5, 0.5, 0.5, 0.5, 0.5, 0.5, 0.5, 0.49243860691760777, 0.46832227810867466, 0.48317335540785744, 0.4992988898086607, 0.5, 0.5, 0.5, 0.5, 0.5, 0.5, 0.5, 0.5, 0.5, 0.5, 0.5, 0.5, 0.5, 0.5, 0.5, 0.5, 0.4994710971380245, 0.49608422042022754, 0.4591133522260887, 0.41965498436376825, 0.36253629626545525, 0.3204211202545367, 0.26223256241008985, 0.22359821362715085, 0.21594037907803612, 0.19628844279406632, 0.16241767267529988, 0.20871837714841143, 0.1997443755505773, 0.24327452409406852, 0.3005475286588101, 0.3447681261328702, 0.3715711540666743, 0.4358099808010387, 0.4680853054161953, 0.4887044379641722, 0.5, 0.5, 0.5, 0.5, 0.5, 0.5, 0.4990152176423146, 0.4993071660040706, 0.49313425839307706, 0.4773626835612816, 0.34602053951474254, 0.2106785039499237, 0.10495935408768625, 0.018732114868213853, -0.04764280933709212, -0.011257970941179177, -0.03789813921897805, 0.0036770257403687264, -0.03093402843975088, 0.006636200826977172, -0.02141930649979784, -0.02277048240902196, -0.008412943106335807, -0.03958528756997374, -0.0014143176860112539, 0.013608745285782525, 0.10310920571128862, 0.2785906653723243, 0.3636653178957583, 0.46254191044068427, 0.5, 0.5, 0.5, 0.5, 0.4965690030608901, 0.492942467456217, 0.4740475965697445, 0.3343405438418789, 0.11292451449042964, -0.04995107228932853, -0.07015089579532037, -0.013486325042897492, 0.0035765920880128288, 0.004707296478251809, 0.020672793625846203, -0.0034489038691172483, -0.0006407283249335854, 0.006998942001951631, 0.005942815822325274, 0.004013381437754984, 0.0044856984303079965, 0.006212302651631444, -0.0019826124327977745, -0.034905877857833424, -0.05344910348151778, 0.031162656045003324, 0.1837262528880274, 0.4269617040945093, 0.4939177005479413, 0.5, 0.5, 0.5000795414842414, 0.49410593527314867, 0.4748684923192538, 0.33627706178415234, 0.07144839807040917, -0.03482308088119352, -0.02551669215438704, 0.014831513202935812, 0.01569867527642782, 0.008396273175976542, -0.006626478613480471, -0.0018625470180351558, -0.014269626582262935, 0.0022563772309409117, -0.0002720990871837267, -0.0058209315923757115, 0.0018560656348668523, -0.0010250579414582198, -0.004455472690710772, -0.005822824806277179, 0.01724391837888842, -0.0028817996520085756, -0.02692265783385133, -0.019569512503142587, 0.24206871744495684, 0.42926228237109426, 0.4958142563068126, 0.5, 0.4997102931783858, 0.4888957686930481, 0.3856924687830905, 0.12341354005990068, -0.06485876994447158, -0.018986164699766214, 0.015730277814881757, 0.004371709243070742, -0.008152984786055159, 0.003718746933891319, -0.007790213983134064, 0.002887641273264423, 0.007777720018953091, 0.003609321486571938, -0.004174989205506088, 0.006782369470732275, 0.002231057094147334, 