[[0.5, 0.5, 0.5, 0.5, 0.5, 0.5, 0.5, 0.5, 0.5, 0.5, 0.5, 0.5, 0.5, 0.5, 0.5, 0.5, 0.5, 0.5, 0.5, 0.5, 0.5, 0.5, 0.5, 0.5, 0.5, 0.5, 0.5, 0.5, 0.5, 0.5, 0.5, 0.5, 0.5, 0.5, 0.5, 0.5, 0.5, 0.5, 0.49892318954626563, 0.4933237751868473, 0.49817033998854277, 0.4824760259709863, 0.46034478316615085, 0.46310727442690275, 0.46170639576674055, 0.4720514363558331, 0.4772451553473486, 0.4889613666783699, 0.4806840962193498, 0.48862073560980773, 0.4946680246892762, 0.5, 0.5, 0.5, 0.5, 0.5, 0.5, 0.5, 0.5, 0.5, 0.5, 0.5, 0.5, 0.49963586449027025, 0.4927693091639368, 0.48639647876591, 0.4752851339911663, 0.4501924201322583, 0.360445464638829, 0.3350229087121462, 0.3358745362875705, 0.3400068216913308, 0.2328620714948203, 0.30949691751058234, 0.37413604000933914, 0.3024720225561384, 0.34073515319591485, 0.38120576896581254, 0.4485066741309885, 0.4748965427102479, 0.48952047211707583, 0.5, 0.5, 0.5, 0.5, 0.5, 0.5, 0.5, 0.5, 0.5, 0.4869540609956034, 0.4420731618666711, 0.34471917457062684, 0.2682494148282873, 0.185878092565325, 0.0929715518331888, 0.07685242723175911, 0.11412779088340844, 0.17254289849691473, 0.19395018629315722, 0.08789128180730665, 0.1460492614509556, 0.01416921152614143, -0.0486995962593854, 0.05816298861403663, 0.2946375885487668, 0.4298500745479411, 0.470897520159841, 0.48915313756741047, 0.5, 0.5, 0.5, 0.5, 0.5, 0.5, 0.5, 0.4978128650287007, 0.44883210968581905, 0.3966241656758916, 0.32822641355803894, 0.22650829722558638, 0.09225791680030074, 0.0694234447064006, 0.01518527486729228, -0.10038578673357043, -0.13254935006907592, -0.040277972517122576, -0.08968802404863838, 0.03231185230010824, 0.0014936770224343652, -0.1820607949070918, -0.033481119005891354, 0.15431089176852378, 0.2651463148803429, 0.30574242433754323, 0.4170732711946711, 0.4708347011827198, 0.49832579920693865, 0.5, 0.5, 0.5, 0.5, 0.5, 0.4904812617358401, 0.41060497803539026, 0.26090150861814365, 0.07215691442376575, -0.018283962898496067, -0.05112628371032679, -0.10270170992574104, -0.03073881604666905, -0.1173016069307934, 0.045437947876607286, 0.08024993153532255, 0.027393476223842837, 0.0027325832034859917, -0.014298737323774052, 0.18125967869046092, -0.054460269522256154, 0.11491849027381798, 0.12965088549248008, -0.31237463343703076, -0.2686285840396648, 0.08533272091760913, 0.3945545790616575, 0.423176433033533, 0.4965576298113403, 0.5, 0.5, 0.5, 0.5, 0.3788148624798564, 0.1225565973737307, -0.03136661116381545, -0.013829774661471441, 0.05531450652332219, 0.02376830700740453, -0.00025548102104035745, -0.014367675185267607, 0.005811304562125365, 0.0010039663794538583, -0.024579365484261127, 0.07192561414479687, 0.06825214216769636, 0.07496399385099477, -0.01815960401471022, -0.1778866672787075, -0.02210894128569024, -0.030144332512169053, -0.02382173358034599, -0.1970552611945784, 0.06280862805582982, 0.16315458113291226, 0.3815739001080529, 0.45877857427440655, 0.4726414817055343, 0.49479345091200955, 0.4778240496547751, 0.4661465098953555, 0.2199733330669913, -0.10902497716568228, -0.21737813772667441, 0.05883420165613999, 0.14249447850732855, -0.13452245050371836, 0.0712598478112227, 0.0337901264732853, -0.03225476107708644, 0.07725155236958767, -0.07472293510317819, -0.09358239349196655, -0.004047189985324824, 0.1685913334324698, -0.0188905748862616, 0.10297381665246338, -0.020178645679833927, -0.03920938467803604, 0.1954084901343796, -0.07463212599635924, -0.017660124070604216, -0.012870129152436701, 0.1888234756422373, 0.38773345659822867, 0.47655029033572033, 0.478841470727528, 0.4720840346771573, 0.4542060022542195, 0.28464642712775906, -0.23460912025475983, -0.1581758673977548, 0.13992815325971777, 0.12420865515197255, -0.046672445956053764, -0.008111905798029763, 0.024493790993723584, -0.038796403152897126, 0.1427492639680451, 0.001347420233565393, 0.025761900840572047, 0.009157819818031711, -0.03777695965326272, -0.11830956907345862, 0.20376493105202043, -0.006626622042792436, -0.05412637546424815, -0.03866220563089037, 0.09558399014315253, 0.1038343499466672, 0.0067659991263553515, 0.13513505254747318, 0.450828899098634, 0.5, 0.4965658931547297, 0.4884304688030765, 0.4823967913191674, 0.3477204082454173, -0.11639856111397387, 0.02426859596286038, 0.07702799180473589, -0.13240610026256028, -0.08493852130231284, -0.11231567183086975, -0.06436042642205533, -0.15342949359527894, -0.025366869777086326, -0.19307544224413, -0.1044192080673045, -0.0855122677691661, 0.07872677251132942, -0.23387179419848006, 0.04055382106646318, -0.004195834502390462, 0.06860552459316922, -0.28459854600467194, -0.048545540761863154, 0.0935409539239837, 0.18210919667820943, 0.34124211267869664, 0.47037886747079743, 0.5, 0.5, 0.4874032375698026, 0.4424579317899359, 0.2873774126083544, -0.03109798215939417, 0.07177017629762558, 0.16338850259416177, 0.024171057021809293, -0.04196274756243541, 0.08986402251222399, -0.09304782072692724, -0.0712889194302884, 0.034509705440172574, 0.1364038070744361, -0.018989741826424853, -0.0790477081141585, 0.07995991636308283, -0.03531009405466761, -0.020345247782620313, 0.022207487176577216, 0.10907304687278656, -0.0227096330940231, -0.11107888605284087, 0.05679034156652668, 0.26518302792097553, 0.4347006980116895, 0.4844475688573955, 0.5, 0.5, 0.4462592566215979, 0.428579568231671, 0.1730719411292787, -0.02548112146168961, -0.15807768969543726, -0.05093412299095475, 0.009810996816690495, -0.017615041755613157, 0.02558104475764618, 0.0029657893125195544, -0.02511573860373169, -0.030368243451208997, -0.014508291823883978, -0.11649707552177935, -0.16710275515590936, 0.036102977320924726, -0.03138247471054022, 0.1529760384541752, -0.054518060521046234, -0.10175354152702289, 0.04611745771399255, -0.16117802973323675, 0.1676670058039115, 0.30532709617131615, 0.4661289557674646, 0.4943949642022997, 0.5, 0.5, 0.44349688196196047, 0.43554508111780094, 0.1591007166009013, -0.036560313729351285, -0.12333751404576694, -0.17671373343469274, -0.04486221787053865, 0.025732813106860507, 0.10036230635590367, -0.007349824213970737, 0.12275346915173532, 0.1383288368908038, -0.0662536347955769, 0.048913425761564856, 0.11994227704716962, 0.044306839762323455, 0.13447562860462384, -0.026773088275004013, 0.04383710219778264, 0.0024712186760746917, 0.00739020673069041, -0.08865956040806457, 0.14066260669347533, 0.20840302705047176, 0.4749083487384831, 0.49553146915667207, 0.5, 0.5, 0.4919640009901454, 0.4657606501742241, 0.23564664082203962, 0.020800393632554516, 0.010132756470156821, -0.005480691974267044, 0.020767222914470713, -0.031027467154761772, 0.03531651515085867, -0.053298680442565194, -0.21559896264143885, 0.2180800741658752, -0.03322247334788025, 0.07767103226622078, -0.055177115499485146, 0.07539301621580446, 0.008239025036857027, -0.1093957378886179, -0.07091616830853939, -0.005306236638898718, 0.09778324165914137, 0.08242095072073509, 0.17372671244894744, 0.19030437836482011, 0.46763332740166896, 0.4994834068389217, 0.5, 0.5, 0.5, 0.49546142803356596, 0.2646463115702072, 0.0679843493663995, 0.11882058232161913, 0.19647518247369755, 0.13834374237455366, 0.03929476587503744, 0.02810613763520746, 0.03565618239946209, -0.16940178863522654, -0.07883499904725923, 0.14212519212835728, -0.19089083408670346, -0.036587857206387124, -0.08833781263585717, 0.03984541973811162, -0.10136355942581479, 0.017357255806554825, -0.08124326210693124, 0.15705709570924978, 0.05540902272818815, -0.010780989866169289, 0.12078092898150787, 0.4671499463917328, 0.4984227113493172, 0.5, 0.5, 0.5, 0.5, 0.2931615868044461, 0.05700587321402373, -0.08880741567053853, -0.05461495717830967, -0.1570990342907902, -0.08795923097225945, -0.019776853018041055, -0.03083290250761936, 0.023111011610657525, -0.05388429246485943, -0.044634562545359996, 0.23167071290429203, 0.13170962959667823, -0.07960839034997869, 0.0834744270255025, 0.07652302355356223, 0.055978715281006876, 0.08056771923968004, 0.052544994695400936, -0.05735457339137108, -0.10057986634505708, 0.025131993643104797, 0.41819871908419964, 0.47219424577256985, 0.5, 0.5, 0.5, 0.48909763967947667, 0.4606738664075909, 0.25102199420389093, 0.010924887918908973, -0.12681968175269312, 0.026421609955104133, -0.09588647807447145, 0.033168996850843645, 0.08254293773149099, -0.05733236106462215, 0.0029124490874647435, -0.11310478447105278, -0.03647511926987262, -0.00685641415653129, 0.05099258892174757, -0.009594528356717877, 0.1182700269971742, -0.16806700840156316, 0.07855197454790656, -0.009171307016830069, 0.08391405298331174, 0.104578522714448, 0.13492112772324344, 0.4753696911295114, 0.4836411247518141, 0.5, 0.5, 0.5, 0.49061275855735403, 0.3864909712275568, 0.30750028921278877, 0.097014334196537, 0.12384519258108252, 0.05463555608806406, 0.07201682555674141, -0.017792197518915833, 0.05513005883599651, -0.017336884087494155, 0.030068191113586846, -0.057261272615163734, -0.12735242926005338, -0.1412005457046691, 0.03520194969624803, -0.13621460731308221, 0.23596213231533172, -0.003984079623589644, -0.07224597870641444, -0.00930322255968016, -0.009454068365825501, 0.08085201668766528, 0.1588019230315887, 0.5016345260673172, 0.455150896987901, 0.4837205473499275, 0.5, 0.5, 0.49581836194613527, 0.292632245680288, 0.08759338013895247, 0.03252535479569906, -0.004748902711580892, 0.008158409787132365, 0.12174996319180935, -0.08076369651284404, -0.021291181821737993, -0.041182369565070986, -0.05242390294027657, -0.010132491609161926, 0.15810547813619721, 0.10218832986762744, -0.0527529336019072, 0.06425181371422367, 0.048450830599892705, 0.0697409449091256, -0.024234310528973884, -0.1315232579122649, -0.07283634467413193, 0.07000297440592242, 0.165478733863291, 0.4273344906826194, 0.48888429800818795, 0.4977485854814161, 0.5, 0.5, 0.4373966279627721, 0.14489687095563716, 0.04754966647937886, 0.024815641525110864, -0.130414086304432, -0.04878115337932972, 0.007629593545301347, -0.035159749889456804, -0.02140035702935482, 0.13402119317708971, 0.03618505597621214, 0.06343566373305433, 0.0004870359487491922, -0.15162328254512872, 0.0415989603976095, -0.07835120186262094, -0.23061280457834712, -0.0943979292084241, -0.16843598469498394, -0.08036996654186851, -0.038315441011267874, 0.07386684957869351, 0.25198390641826535, 0.44714473845830083, 0.4994035686296006, 0.5018858877902049, 0.5, 0.5, 0.39497749830612006, 0.12726680563774226, -0.02183376809629784, -0.03924429463756234, 0.07768309608219855, 0.11926667081173782, -0.01268196582095647, -0.1363262970322995, 0.02793443707406229, -0.028933298432343397, -0.2558835266060136, -0.012162805121246881, 0.055856201454939504, -0.01134450238655471, 0.11931970642636056, -0.14255566937116032, 0.13361413490687674, 0.18053664999503782, -0.11589992694760597, -0.12171960306417887, -0.16007790720598397, 0.09561389939500337, 0.3029832404835141, 0.38814256760620797, 0.4959077232873965, 0.5, 0.5, 0.5, 0.4034233180687286, 0.1487624161973553, -0.009033799701384243, -0.05992204058213124, -0.014839540786767528, 0.015379580063063586, 0.08333422351868065, 0.19826021612308573, 0.03884222224009011, 0.026685180714185224, 0.17123670543700448, 0.17482984426592302, -0.03182284671724771, -0.1539312404293872, 0.16334801789441084, 0.28337334198671515, -0.00689209233796973, -0.06463477863592211, -0.1909793500008625, -0.18557604655161164, -0.06622156088398473, 0.17741489929149348, 0.25169376899315155, 0.4430545953803039, 0.494073899244215, 0.5, 0.5, 0.5, 0.4762639995209368, 0.29362329746561094, 0.107089841055506, 0.1549594573651874, 0.17783642321806103, -0.17933687560970338, -0.058668835353172875, -0.030086863579426956, -0.032838544408056336, 0.052229201171974264, 0.11738271531185936, 0.04642342969608494, 0.10986859141226157, 0.06632488622638372, 0.023648424157964965, 0.05263172765725321, -0.004228027409542389, -0.03730562686341934, -0.010155358545831895, -0.058212998473965896, 0.09686523887486531, 0.26245760464766, 0.3865980740581089, 0.4834019296886377, 0.4958848214129366, 0.5, 0.5, 0.5, 0.4973745854014833, 0.4752630670582842, 0.29160671420238543, 0.010679834704141961, -0.11235262441108554, -0.0011711608305840404, 0.10654830669755708, 0.08457476254876856, 0.02537300684188743, -0.09956335950474994, 0.013711072525353718, 0.09594517019660782, 0.058835174007191314, -0.015074108321956506, 0.004702099339156559, 0.18140278114770814, 0.18293548691730105, 0.12971317126614837, 0.21261057525514565, 0.20131307797579737, 0.29153118776835696, 0.32180824439287586, 0.48581117768977056, 0.5, 0.5, 0.5, 0.5, 0.5, 0.5, 0.5083939309869985, 0.2148651800316277, -0.03242246868719902, -0.0774542237355097, -0.02532518058918183, 0.06482716838347712, 0.07892560017359297, -0.06794555478310217, 0.15714769150634297, -0.13921084752726334, -0.15534397335466696, 0.09577750124538104, -0.09659445071807045, 0.10082262055349776, 0.2172670775526948, -0.04096388787097413, 0.08824169075508134, 0.3503220606404993, 0.31517080605762726, 0.41783688749229553, 0.43991610412371296, 0.4967580745840254, 0.5, 0.5, 0.5, 0.5, 0.5, 0.5, 0.4998896017752016, 0.5043031219504724, 0.4917060494763893, 0.49474977890020494, 0.4730221731510196, 0.24251373689161035, 0.11138843747399274, 0.04847380206354477, 0.10797746126116504, 0.03235743207916165, 0.1322107403076058, 0.1769229692344407, -0.012693147600780413, 0.049985996024133623, 0.12306379447076295, 0.2738062800244532, 0.35509416527551696, 0.3921560108056985, 0.39891821689418816, 0.4550297919073759, 0.49546419278427456, 0.5019555838935433, 0.5, 0.5, 0.5, 0.5, 0.5, 0.5, 0.4984426702269963, 0.48417307660956194, 0.4638123020492191, 0.4373755822268943, 0.39614618729935636, 0.300353036825289, 0.2863302508468276, 0.34588579920589735, 0.1638554831989055, 0.17928827673607525, 0.25722003235712987, 0.21172397666130535, 0.20024530754482261, 0.15057660096548275, 0.16860865311532605, 0.30548142795480243, 0.38888234215696443, 0.43621531769973215, 0.4619954629302055, 0.49200139991861486, 0.5, 0.5, 0.5, 0.5, 0.5, 0.5, 0.5, 0.5, 0.5, 0.5, 0.48992368688597576, 0.47037417409854454, 0.4759006061689922, 0.5042240026936032, 0.4639600417579702, 0.4665661947694713, 0.46365894249665696, 0.4237765779774331, 0.43982954031995314, 0.4429719417694508, 0.40993765586344394, 0.4017457116911559, 0.4252926217380226, 0.4888850316820277, 0.5012234985726223, 0.4962269595969789, 0.4807868755713287, 0.48779700756814337, 0.5, 0.5, 0.5, 0.5, 0.5], [0.5, 0.5, 0.5, 0.5, 0.5, 0.5, 0.5, 0.5, 0.5, 0.5, 0.5, 0.5, 0.5, 0.5, 0.5, 0.5, 0.5, 0.5, 0.5, 0.5, 0.5, 0.5, 0.5, 0.5, 0.5, 0.5, 0.5, 0.5, 0.5, 0.5, 0.5, 0.5, 0.5, 0.5, 0.5, 0.5, 0.5, 0.5, 0.4989220970832433, 0.4933170019161088, 0.4981818116502568, 0.482538057383268, 0.4604503983668906, 0.46323316361006794, 0.46185320083561143, 0.4720527349861406, 0.47723133731585804, 0.48890591498981095, 0.48068325213060065, 0.4886238503059629, 0.4946579866093242, 0.5, 0.5, 0.5, 0.5, 0.5, 0.5, 0.5, 0.5, 0.5, 0.5, 0.5, 0.5, 0.499636638038442, 0.492784669620493, 0.48642301872291194, 0.47529374571158195, 0.4501529596653379, 0.36035574793575764, 0.3349965735359784, 0.3362586438763181, 0.34053629026031285, 0.23316315394535841, 0.30986572605455664, 0.3741132517911747, 0.3023897509254599, 0.34087594008450717, 0.3813747511684957, 0.44855320356239303, 0.4749050146494802, 0.4895211678073827, 0.5, 0.5, 0.5, 0.5, 0.5, 0.5, 0.5, 0.5, 0.5, 0.48696087690746304, 0.44211791114405946, 0.34464853762502773, 0.2681686300620962, 0.18559946846984576, 0.09266356552105873, 0.07666852322887112, 0.11413797863879054, 0.17262090022424895, 0.1939181296864443, 0.08785227681908468, 0.14578012831586346, 0.01388711468887944, -0.04881337267811276, 0.05848264938752558, 0.2948975693230624, 0.42991704183022983, 0.4708932224269635, 0.48912566600620516, 0.5, 0.5, 0.5, 0.5, 0.5, 0.5, 0.5, 0.49782801478205535, 0.44877540674451116, 0.39664230081777674, 0.32839896791111656, 0.22664621757919312, 0.0922044125384718, 0.06904591241524896, 0.014748900219413974, -0.10043760674595327, -0.1330378853984914, -0.04056292294634137, -0.08879228189097856, 0.03261020054741322, 0.0019470661060484945, -0.18200689349273017, -0.03385113076499621, 0.15476365266768838, 0.26546387124426185, 0.30585315977848015, 0.41688989280034616, 0.4707879020730179, 0.49837193080972847, 0.5, 0.5, 0.5, 0.5, 0.5, 0.4904116534604148, 0.410503114778617, 0.2607840226681276, 0.07238145256849367, -0.01768184255279883, -0.051304532137011485, -0.1023684064239245, -0.030723731882431035, -0.1169597990105078, 0.04596248158670666, 0.0800508572721903, 0.02673838417969155, 0.0033934305213945094, -0.01340803484704955, 0.18189069380800701, -0.054153678772363954, 0.11576323348948098, 0.13004971684311875, -0.3122683700684377, -0.26855190986954514, 0.08519015280490176, 0.39459465669302757, 0.42313587867385594, 0.49653926543723137, 0.5, 0.5, 0.5, 0.5, 0.3787704625279781, 0.12255439526035053, -0.03130093879555891, -0.013349990898784796, 0.05539650273474008, 0.023338490307981512, -0.00019816390368468688, -0.015025978989995912, 0.005331705125346444, 0.0009000035219783428, -0.024515347184970507, 0.0715645020584808, 0.06820501330000152, 0.0751970555796444, -0.018913985999165838, -0.1777288141598789, -0.0211266471551145, -0.030407334587238873, -0.02391626277377415, -0.19706020406445177, 0.06320801348483321, 0.1636032529636113, 0.3816065514671385, 0.4587821240516627, 0.472677339745046, 0.4947954205562639, 0.4778065272648353, 0.4661812482045103, 0.21999697163369292, -0.10889529545291399, -0.2170973366436729, 0.05877222439149064, 0.1423499841934838, -0.13501245909706297, 0.07069240908670875, 0.03288464909225559, -0.03311481844568341, 0.07676580278642685, -0.07502714088299021, -0.09371376696252208, -0.0049064192540806744, 0.1681906571633369, -0.019595380608087878, 0.10265233737821983, -0.019828123336019698, -0.03938785989387574, 0.19559310257659904, -0.07446230215361357, -0.01748003004604964, -0.012542180448085229, 0.18892858220574185, 0.3878975952257532, 0.4766195948544053, 0.4788494750265191, 0.4720945953229466, 0.4542383224789998, 0.28469668735071035, -0.23449150533802016, -0.1581630529854969, 0.13952210985665114, 0.12393592557656659, -0.04676548556643732, -0.00827308723671929, 0.02365853211245083, -0.03981825602464359, 0.14175327113696629, 0.0007468917625053532, 0.026146435127858178, 0.008597420625111362, -0.03694459306273295, -0.1177424318475974, 0.20457677491650006, -0.006401575099070836, -0.05433540431440062, -0.03932725530789379, 0.09520395994122212, 0.10385047244084823, 0.007090840299775092, 0.13545317331818954, 0.4508857617246507, 0.5, 0.4965671922817911, 0.48839234647385044, 0.4823940179588471, 0.3475833874769341, -0.11647103817970338, 0.024344074439026718, 0.07655718953839054, -0.13209491785333233, -0.08464038065652414, -0.11279626764042912, -0.06493057625325559, -0.15375491465526123, -0.02625004019982561, -0.1934236488566141, -0.10397953655101562, -0.08618730655424021, 0.07842155843221783, -0.23522617460437092, 0.04043204539812952, -0.004483279134477014, 0.0687524605529971, -0.28499284834708405, -0.04871021457756146, 0.09375738746155637, 0.18244581170190544, 0.34172913534829336, 0.47046478733215963, 0.5, 0.5, 0.48743511011154045, 0.44230016482950907, 0.2872019404507316, -0.03126496862889017, 0.07212209881595666, 0.1634267974784636, 0.024287594589042682, -0.04159275392773462, 0.08963401065611375, -0.0930840035073026, -0.07197940940442811, 0.034303332557066295, 0.1369146885944181, -0.017584011117861155, -0.07886727296074675, 0.08052388556351682, -0.0359120280650895, -0.020668060888727212, 0.02150553386114814, 0.10914513866211328, -0.023317271619430306, -0.1112417785730497, 0.056405163595407565, 0.2652227078637237, 0.4350625632127565, 0.48443171068130475, 0.5, 0.5, 0.44619011985549517, 0.4283398710139675, 0.17303138893782952, -0.02546783006875454, -0.15765281958009295, -0.050973102254142345, 0.009361464505859616, -0.017965845597949094, 0.02566038226880991, 0.003307019706608545, -0.025716307092540122, -0.031247463669434653, -0.014106950399609736, -0.11470372288569991, -0.16651031294546853, 0.03625014562666356, -0.03191816777242141, 0.15245548255699587, -0.054958935207113584, -0.10155900896934038, 0.04621503943119112, -0.16162912273728805, 0.16705309795589943, 0.30517665635769226, 0.466339454938368, 0.49430906453155804, 0.5, 0.5, 0.4434241914368524, 0.43523618490247196, 0.15898008822789964, -0.03640205614243085, -0.12332363646808589, -0.1771382538890794, -0.045125479533368984, 0.025591353366609844, 0.10044861885597452, -0.0075512525763397976, 0.12286838513643443, 0.13714326612403113, -0.06644789529615956, 0.05126398167038532, 0.11977594558631785, 0.04384938324348185, 0.13423550686159633, -0.02635856303036651, 0.0439625881918061, 0.002981089193416243, 0.007767412390280125, -0.08896525513965087, 0.13988595050223035, 0.20795160572280091, 0.4749657649057764, 0.49546298693068913, 0.5, 0.5, 0.49195366278213015, 0.4655233251303763, 0.23565227336594574, 0.020931313457648867, 0.009908990626888629, -0.006214191025469939, 0.02089060245783451, -0.031290894702942273, 0.03563791499236745, -0.05397284441760515, -0.2161730850147668, 0.2164828089753624, -0.032544890108207124, 0.07950637109347006, -0.05508433042725643, 0.07511061055181603, 0.009473257603668168, -0.10842647241991461, -0.07074565639585599, -0.005208205581341527, 0.09758334847756893, 0.08178857800595417, 0.17276985857178015, 0.1896466471059611, 0.4677653534247041, 0.49947548981857676, 0.5, 0.5, 0.5, 0.4954311128825753, 0.26466254693091135, 0.06804472922566404, 0.11825495670424707, 0.1957590790645841, 0.13827245876326424, 0.03940621642945437, 0.02817355979878549, 0.03500231727608645, -0.170005677113065, -0.07988732419908726, 0.14390675112994203, -0.18962736521815415, -0.03653739689418617, -0.08882942998103292, 0.041124459994047916, -0.10103289035580473, 0.01701727671067342, -0.08165154387378899, 0.1567753196698399, 0.05493123528828152, -0.011418315292448113, 0.12042077284206149, 0.4672220038713911, 0.4984241238815824, 0.5, 0.5, 0.5, 0.5, 0.29312082191346855, 0.057082496180559175, -0.08922296382036267, -0.05529043139174639, -0.15782553475622674, -0.08878808933774651, -0.019967575798286195, -0.030873183839899936, 0.022268880933860806, -0.0543900594122145, -0.04286921716405507, 0.23291966421443694, 0.13188208738579904, -0.07993111870181754, 0.08458084860546523, 0.07650717174878635, 0.05560454831711449, 0.08043194149863576, 0.052320551878144696, -0.057643335037532606, -0.10107000439186739, 0.024788359100783343, 0.41815675940758623, 0.47220132839589185, 0.5, 0.5, 0.5, 0.4890984120607042, 0.4606056331839621, 0.2513329835975328, 0.010615426151141324, -0.1275134596537001, 0.025624878591378873, -0.09601701244525068, 0.03364469552711831, 0.08220589835577524, -0.05810146587464636, 0.0021966319092183136, -0.11225961769706781, -0.03466343765396255, -0.006879999633065476, 0.050654627609801633, -0.009050109260840954, 0.11775269004814129, -0.16801733786432238, 0.07876979799491875, -0.009217502900728513, 0.0841013609386976, 0.10408981973411306, 0.13482142289138752, 0.47529800341646383, 0.48365730650712085, 0.5, 0.5, 0.5, 0.4905829867078268, 0.3864551126730698, 0.30780787241579327, 0.09686217954699158, 0.12335222663298076, 0.05471597233637945, 0.07213739054608176, -0.017479661249498835, 0.05464435624693291, -0.018369482755309037, 0.029984444500080826, -0.05662452790923883, -0.1256577186831845, -0.1416493344671129, 0.035102350718163526, -0.1364419079974613, 0.23561949600798063, -0.004164044101652313, -0.07278398968846007, -0.009862231296374304, -0.009623521389936662, 0.08071120339058525, 0.15860238779004038, 0.5014851172493883, 0.4550381727944174, 0.4836282546414526, 0.5, 0.5, 0.49574968538949604, 0.2926836940581993, 0.08758878196012275, 0.03233945582901251, -0.0054048952949081784, 0.007935845653015965, 0.12174599869578541, -0.08088326059569118, -0.02163419949719128, -0.04043845000027755, -0.052140015801403386, -0.009342209262614054, 0.15863310368485237, 0.10244809912799342, -0.05226729631475136, 0.06394242724493543, 0.04878860908382486, 0.0696637314914303, -0.024407458727279882, -0.1317389673088776, -0.07298449622997107, 0.07015221122244338, 0.1650300603045449, 0.42710038493126173, 0.48885001660442795, 0.4977197181087391, 0.5, 0.5, 0.43738294022106455, 0.1449826921764834, 0.04764691447471155, 0.024534940099930486, -0.1303357088024188, -0.04923405945913096, 0.00701770877176945, -0.03611599267615631, -0.021562667009683324, 0.13355248076204368, 0.03633117569833407, 0.06410153805741185, 0.0005844131055139216, -0.1513582319189983, 0.04093496099216328, -0.07875424809646021, -0.23024867067491014, -0.09416334398925819, -0.1683805306107136, -0.08107963822199417, -0.03831719817432171, 0.07395212822136499, 0.25189261816168335, 0.4471227581637137, 0.4994068775498696, 0.5018896779158413, 0.5, 0.5, 0.39490711480226043, 0.1274057892207963, -0.02167160807140828, -0.03909208944362431, 0.07775958914515302, 0.1194098690679357, -0.013151355720412794, -0.1366905176399094, 0.026981816053686287, -0.028848417096239212, -0.25607146934467323, -0.01232424288464761, 0.05670764924858531, -0.011120615640604266, 0.11803725163126173, -0.1434090391408132, 0.13366947534642426, 0.18046764475395188, -0.11622934094899126, -0.12185883967003817, -0.16028316735940457, 0.09529542901628325, 0.30263738417160796, 0.3879848656843247, 0.4958502922685684, 0.5, 0.5, 0.5, 0.40333489907915987, 0.14871630676282288, -0.00906314181921214, -0.060244029169954756, -0.014676661654023858, 0.015116712574069683, 0.08349015897360643, 0.19897287356235543, 0.039438541909797085, 0.027049803666960862, 0.17117148642260419, 0.1757850020964628, -0.030996592715536946, -0.15476230906953028, 0.16247054537984376, 0.28345255111275797, -0.007103024482862035, -0.06501230740362493, -0.19124611499893787, -0.1860764122457331, -0.06630745230847432, 0.17716250777759077, 0.25126819289213037, 0.4429115767803751, 0.4939712673363018, 0.5, 0.5, 0.5, 0.47625190232744125, 0.2935896175339298, 0.10694440557891703, 0.15449147473330366, 0.1779334736103189, -0.17959388838683557, -0.05885062567746906, -0.029630561034867935, -0.03265490824482366, 0.05200740787508953, 0.1166543393163494, 0.04676089116002413, 0.11032749784146827, 0.06634519382131181, 0.024106541746722606, 0.05318415099841425, -0.003961932593434812, -0.037190815011715714, -0.010054857895636348, -0.058109632364496795, 0.09677277222507734, 0.26246398304439794, 0.3865073414973199, 0.4833598981520166, 0.495828096401674, 0.5, 0.5, 0.5, 0.49737470424201446, 0.47530149703744295, 0.2915963036743325, 0.010551175340938563, -0.11221667557286638, -0.0009651479881045826, 0.10711160063509619, 0.08563338917071087, 0.025298772787117407, -0.0999408466410825, 0.013750111713172397, 0.09528881996838616, 0.05869361041923456, -0.014291601832649584, 0.005390494542730803, 0.1821629974244865, 0.18287549596562006, 0.1301546492876058, 0.21306041314077764, 0.20172112711013304, 0.29187637836800406, 0.3220488317308769, 0.4858583873964374, 0.5, 0.5, 0.5, 0.5, 0.5, 0.5, 0.5084480433282984, 0.21485659165206145, -0.032540693181222304, -0.07753963211524721, -0.026347705510116927, 0.06359464643187292, 0.07889456170774166, -0.06804070725915067, 0.15735904233565315, -0.13838881312456053, -0.1551050110847502, 0.09569026281438975, -0.0967579201427058, 0.1003712232679478, 0.21712855451991991, -0.04082162872448779, 0.08838129708653909, 0.3502898970261713, 0.31519270856592074, 0.4179868307699244, 0.44002677042497995, 0.49679955011647703, 0.5, 0.5, 0.5, 0.5, 0.5, 0.5, 0.49989302006439107, 0.5042450626294186, 0.49149985167462373, 0.49452360889832486, 0.47258318521071224, 0.2424378831430015, 0.11083450787217938, 0.04793115661442482, 0.10810781111588982, 0.03243330276979429, 0.13242412278158017, 0.1774301899815295, -0.012496021907582477, 0.04982187611799075, 0.12301350195895383, 0.27408075432844053, 0.3550687117064017, 0.3921654094961072, 0.39897000920191494, 0.45510422682871365, 0.49554905925411014, 0.5019642408864863, 0.5, 0.5, 0.5, 0.5, 0.5, 0.5, 0.4984338310353116, 0.48403698881023804, 0.4635545151105653, 0.43725740500557997, 0.396052810553369, 0.3003016295195558, 0.28637478524753374, 0.34592615604803056, 0.16373382558148405, 0.1795958647504487, 0.25772773151404865, 0.2125781607746947, 0.20094110230336465, 0.1505792099497592, 0.16845500458856355, 0.3055453063313834, 0.3889634220823507, 0.4362982017974664, 0.4620348675560245, 0.492012079860364, 0.5, 0.5, 0.5, 0.5, 0.5, 0.5, 0.5, 0.5, 0.5, 0.5, 0.48991727588673334, 0.47038368001921704, 0.47592552308364694, 0.5042513114134302, 0.4639624502435402, 0.4665983226177486, 0.46359059621270005, 0.4236085546464206, 0.43971214418713417, 0.4429448171834744, 0.4101355109039079, 0.40189112265748866, 0.42537183721461624, 0.4889553118708919, 0.5012959692216138, 0.4962637499550623, 0.4808129735325492, 0.48781330132542716, 0.5, 0.5, 0.5, 0.5, 0.5], [0.5, 0.5, 0.5, 0.5, 0.5, 0.5, 0.5, 0.5, 0.5, 0.5, 0.5, 0.5, 0.5, 0.5, 0.5, 0.5, 0.5, 0.5, 0.5, 0.5, 0.5, 0.5, 0.5, 0.5, 0.5, 0.5, 0.5, 0.5, 0.5, 0.5, 0.5, 0.5, 0.5, 0.5, 0.5, 0.5, 0.5, 0.5, 0.49889566646820294, 0.49315313210285766, 0.49818593080630036, 0.4825351703985057, 0.46034585268805506, 0.46301693132077604, 0.46171581991570404, 0.47205820747331934, 0.4772598190504968, 0.4889129457549915, 0.48064080009862425, 0.4886758067586875, 0.49470612258117547, 0.5, 0.5, 0.5, 0.5, 0.5, 0.5, 0.5, 0.5, 0.5, 0.5, 0.5, 0.5, 0.4996358226921299, 0.49276847917229455, 0.48639647607492453, 0.4751186103611115, 0.44990879363264513, 0.36078057364518573, 0.33521150364615687, 0.3353784418284912, 0.33965310106974805, 0.23232003053930653, 0.30896742438998365, 0.37372137064583005, 0.3022557286038254, 0.3407901877710063, 0.38163425008387725, 0.4486252290448934, 0.4750121180962796, 0.4895798101730943, 0.5, 0.5, 0.5, 0.5, 0.5, 0.5, 0.5, 0.5, 0.5, 0.4869980311125039, 0.442225052866358, 0.3449401580215022, 0.2684619051329335, 0.18584803253645746, 0.09308068777515631, 0.07736651071582283, 0.11489174211569933, 0.17258639814256138, 0.1935960392509293, 0.08712255020295784, 0.1458848375038984, 0.014072733152318693, -0.04859101418696768, 0.05852225433291748, 0.29514908746026136, 0.4299354573901113, 0.47104903925054836, 0.48919712263749954, 0.5, 0.5, 0.5, 0.5, 0.5, 0.5, 0.5, 0.49780092139601806, 0.4489538316568391, 0.39686007765447584, 0.328374076374605, 0.2264488230681225, 0.09237488120505348, 0.06927167235081931, 0.015487934134313226, -0.1000874671115217, -0.1317882391811889, -0.03950189683983998, -0.08951556921014246, 0.03158098877553361, 0.0016607199081817101, -0.18174810328031213, -0.03366034651435425, 0.1546926641520644, 0.26559634076552535, 0.30602099595744625, 0.4172159308429734, 0.4711043702841423, 0.49838718864402753, 0.5, 0.5, 0.5, 0.5, 0.5, 0.4903761877361946, 0.4106867296829626, 0.2613802756322508, 0.0727680692777447, -0.01782370032373446, -0.05066238531990566, -0.1018320996039878, -0.030205929999639242, -0.11556203473044008, 0.04735950073430329, 0.08070775677544556, 0.028476352477753264, 0.0030450400144502003, -0.014350920351442776, 0.18114263223706686, -0.05403827790044604, 0.11471840444077018, 0.13008607968702818, -0.3117229454393176, -0.26785030414950095, 0.08541103576868324, 0.3951142600837481, 0.4233719336557251, 0.49657222887218483, 0.5, 0.5, 0.5, 0.5, 0.37868159878751556, 0.12274875891135097, -0.030849233821798817, -0.0136518397938896, 0.055442078425735085, 0.02405810279745989, 0.00019576190853485957, -0.01420175046441109, 0.006427163314156622, 0.000551586717240751, -0.025525153342304527, 0.07225008077336414, 0.06848042200491057, 0.07469301543148124, -0.01893952383730442, -0.1773351433450396, -0.02225681220928626, -0.030462705941353817, -0.023783420322527678, -0.19675625783013684, 0.06321040136686058, 0.1637243014267785, 0.38178350309975895, 0.45877992162578696, 0.4726355592594466, 0.4947978923472894, 0.47788474374095624, 0.4661845063660772, 0.21974240946906656, -0.10922314169632193, -0.2168254749234417, 0.059305202255987476, 0.1426463112199898, -0.1342107353890335, 0.07045110773126251, 0.03313295353429513, -0.032013206222638355, 0.07677597370443558, -0.07531495761181492, -0.09377644503413454, -0.004228263281231731, 0.16809985110090028, -0.020435523675016592, 0.10271293652158164, -0.020297569550759998, -0.03950893337364239, 0.1952224944091101, -0.07396738094874153, -0.0176784598417254, -0.012720996333108262, 0.18941600693092395, 0.3879048611114629, 0.47658467100562885, 0.47885951996451637, 0.47210784833014713, 0.45425133710225885, 0.28440291644382976, -0.23501280743908817, -0.1575697375619168, 0.1404178530294791, 0.12487850110318878, -0.04619799135323611, -0.008022471450659275, 0.024267170501183093, -0.03774035312204745, 0.14362714665147813, 0.0017670734911734425, 0.025680364731737477, 0.009812514322516064, -0.03709145681809317, -0.11802132144663402, 0.2036656348927739, -0.006717267622875102, -0.054476499035676064, -0.03852956394130386, 0.09617790712691988, 0.10365115900671398, 0.006542505211114084, 0.1356607243592421, 0.4510283671818085, 0.5, 0.49656882261204194, 0.4883343300187207, 0.48238698318658163, 0.34771637477248424, -0.11662591613246977, 0.024468841305660002, 0.07730436987548758, -0.13233064494223565, -0.08451830676551493, -0.11283902121247191, -0.06485739179089232, -0.15366859393174268, -0.02587936804006221, -0.19321475567962942, -0.10516792308490681, -0.08595784040603147, 0.07803789235232346, -0.2337823595335499, 0.04097282995016791, -0.004213719894513445, 0.06807808762872002, -0.28436719415367523, -0.0486422447465056, 0.09361298154605162, 0.18197286178957334, 0.34162237565677306, 0.47045972920415013, 0.5, 0.5, 0.4872801378414026, 0.44250854041582366, 0.28764787980240586, -0.030666519792672525, 0.07233068074924398, 0.16320172414839526, 0.024123097102721796, -0.042473568654990405, 0.08886774446368426, -0.09359171138546243, -0.07173581517513397, 0.03523373267347327, 0.13634669531545007, -0.019236887932919715, -0.07919165345072356, 0.08003414937187771, -0.03577393484148115, -0.02051833478694169, 0.021549069210521778, 0.10931212341873865, -0.022907823906204373, -0.11136657550068269, 0.056558448107682804, 0.26541415115790934, 0.43500138756673185, 0.4845103785930676, 0.5, 0.5, 0.44619545086915013, 0.42859693919579284, 0.17336101224246395, -0.024775576422826767, -0.1576977708488252, -0.051564823557433116, 0.009846862627917993, -0.018028300116272725, 0.0250579257435474, 0.003009801347680527, -0.025331565368665026, -0.030417687915186547, -0.015550248792970733, -0.11648704179901789, -0.16595813251867272, 0.03657502442518541, -0.03162605174228921, 0.15198932530410486, -0.05490094123016793, -0.10187362345477907, 0.04563439398429796, -0.16238280832797822, 0.1667067852048701, 0.30525093611778864, 0.4661367830994051, 0.49430278509592246, 0.5, 0.5, 0.44342979647457353, 0.43547334032981766, 0.15920113794494695, -0.035976585099263436, -0.12347066365461588, -0.1776362603324565, -0.04518605527013648, 0.025035133081001686, 0.10029933630217668, -0.007096523218499345, 0.12255823304332263, 0.13771683014345756, -0.06709093118336297, 0.049969574297217684, 0.12022604845134241, 0.04420644472393774, 0.1340751426250293, -0.02637709678765732, 0.044088747757160304, 0.002649523633866585, 0.007456526849837199, -0.08979678619508384, 0.13967609965306807, 0.20802600655681233, 0.4749363602113294, 0.4954579807446755, 0.5, 0.5, 0.4919544599430504, 0.4656221425514712, 0.23573399443088786, 0.021298219077935682, 0.009691739198818229, -0.006368161227596242, 0.020843001938591985, -0.03150712837662579, 0.03512467709044621, -0.05390566973955576, -0.21609617374708046, 0.2176914131847915, -0.03273823475219271, 0.07825637587067348, -0.05510715550003947, 0.07505955773740917, 0.008234398919186151, -0.10900150657543736, -0.07075983594331318, -0.005553134945664299, 0.09740979979327871, 0.08168780200593005, 0.17272332738647303, 0.18998532911254615, 0.4677611266095425, 0.4994749110687486, 0.5, 0.5, 0.5, 0.4954486703264423, 0.26471094224429936, 0.06831344027901312, 0.11740558268083681, 0.19533160883969164, 0.13804321824358537, 0.03889441959659731, 0.027664514663937368, 0.03417610469911169, -0.1697848012079389, -0.07832814112579367, 0.14260799027335608, -0.19118532850590916, -0.036372215950586824, -0.08749911765915053, 0.040181321510335204, -0.10094093169344029, 0.017069527183397968, -0.08159020763401167, 0.15633093626286293, 0.05507050560246393, -0.011925323127923538, 0.12030986786366372, 0.4672887058530041, 0.49843536473449657, 0.5, 0.5, 0.5, 0.5, 0.29314114806378494, 0.056849390515683856, -0.08958923303737079, -0.05580721338493083, -0.1576079252075105, -0.08760880086636413, -0.019765927336390817, -0.031911733818506025, 0.023475538026623423, -0.0530941126340007, -0.044313512889372006, 0.23094983720221376, 0.13147521330941897, -0.07916904296979446, 0.0839160870927136, 0.07644894094195978, 0.056504143446918696, 0.08060613282218691, 0.05262576637738773, -0.05732926917116865, -0.10141652916665274, 0.02458124864966078, 0.41859965901118207, 0.4724764331826759, 0.5, 0.5, 0.5, 0.48906864445372294, 0.4606304122443486, 0.25109161427744087, 0.0109029542225203, -0.12745036316451885, 0.02564911564616416, -0.09563903771200107, 0.03300174098566406, 0.08191051830607324, -0.05639734177514767, 0.004374722757160305, -0.11234035676863996, -0.03605299916196523, -0.00607685047835041, 0.05193865132005399, -0.008904024619925637, 0.11749916399638848, -0.16789867119192162, 0.07840623408920956, -0.009226036679731379, 0.08404818227448006, 0.10381493871037596, 0.1348847566731661, 0.4756054584145108, 0.48378554471124335, 0.5, 0.5, 0.5, 0.49053952691932884, 0.38641850737714745, 0.3075344177222896, 0.09705821997184709, 0.12368807291317326, 0.054687427672201215, 0.07257307721565995, -0.017178510905292304, 0.05513525776981195, -0.0172128844316976, 0.030386035770051466, -0.057750312808027386, -0.127222451167373, -0.14089682208241106, 0.035474161009934106, -0.13580142988378432, 0.2357191566911107, -0.004423413351322722, -0.07254741542221652, -0.009148611525119978, -0.009218051480949029, 0.08155990519180444, 0.15979967429203698, 0.5024315107314444, 0.45543228060301144, 0.48388507355289784, 0.5, 0.5, 0.49575462848694674, 0.29271676864683527, 0.0878454128871642, 0.032847253515018326, -0.004422732776725899, 0.007740734889619278, 0.12104132199811467, -0.0800877365503279, -0.02131778444225969, -0.04142585878554329, -0.051505196673451964, -0.009362190123804582, 0.15908916352560185, 0.10335944518989294, -0.05159449267797615, 0.06429153319382548, 0.04904034493404575, 0.0695562391517396, -0.024167345773781834, -0.13119979777203164, -0.07205659055039669, 0.07115659055866688, 0.16670479403506558, 0.42777888483991305, 0.48893692649904225, 0.497807467273226, 0.5, 0.5, 0.4374163313587163, 0.1452817640515091, 0.048034451244398736, 0.025064551057373416, -0.12998177170553205, -0.048767092790295105, 0.007907157024982287, -0.03486225316559924, -0.02185852095350972, 0.13390548302687857, 0.03573796773178288, 0.0633603074836247, 0.000792294201471324, -0.1510878579476652, 0.04180827997234396, -0.07829914154630427, -0.23038890593823946, -0.0943577298213293, -0.16942416070978059, -0.08054739949268168, -0.037257757901069506, 0.07417255743498563, 0.2523299647196493, 0.44720864631075696, 0.49940197759523586, 0.5018823118036864, 0.5, 0.5, 0.39495169723017876, 0.1277532237288108, -0.02117601582831682, -0.038751577245406114, 0.07761099255044918, 0.11891223391095042, -0.012021178219295417, -0.13598591009051111, 0.027280256642280076, -0.029542044099316805, -0.2570536836382111, -0.012970504737949522, 0.056369870371482465, -0.010649702416603984, 0.1194094260979798, -0.14269108892965454, 0.133811672762934, 0.18161089936324573, -0.11539361294623389, -0.12084604874559876, -0.15870638162681963, 0.0963187268718715, 0.3036098143112094, 0.3881599213426673, 0.4958455624375902, 0.5, 0.5, 0.5, 0.4033948665336141, 0.14912696932622374, -0.008574779214895344, -0.05918181981388722, -0.0145993179333445, 0.014809314488511596, 0.08404354547151406, 0.1985827127986144, 0.039081543931229215, 0.027012199935713153, 0.17064813716464156, 0.17467780579968756, -0.031759351404368495, -0.15450538426324703, 0.16320911486455988, 0.2842698464628176, -0.0064192004276469265, -0.06402194178557068, -0.18969937719224758, -0.1843566362423737, -0.0649811023276, 0.1781803697362728, 0.2519337452126859, 0.442985495455463, 0.49392518286169146, 0.5, 0.5, 0.5, 0.47627523249347903, 0.2936772783433723, 0.10721075662264871, 0.15507057699829108, 0.17712777962307832, -0.17915626940443352, -0.05769520981739393, -0.028994886508052233, -0.03280122854424298, 0.05247572235723646, 0.11668544165832737, 0.04589398420208701, 0.10947873917823826, 0.06629579602488272, 0.023938141201581564, 0.052688454668366906, -0.003948170503514415, -0.0373445127281068, -0.009503069773268941, -0.05716759318560212, 0.09767239209551168, 0.26252797586900795, 0.38650197499950717, 0.4833351943818236, 0.49582331187923523, 0.5, 0.5, 0.5, 0.49737926589813275, 0.4753443777413495, 0.29150780238562757, 0.010268452179312907, -0.11260483861912782, -0.0007233284211698901, 0.10696421509624487, 0.08500555656546172, 0.024446340769400735, -0.10029858319682419, 0.01277968009023829, 0.09511795659176389, 0.05824248962043151, -0.015226214312545672, 0.0035499357420782736, 0.18062744303679196, 0.1821943802338122, 0.12945200648351537, 0.21303930656541342, 0.2021214722151949, 0.29202402533587646, 0.32201009545382625, 0.48581434504493987, 0.5, 0.5, 0.5, 0.5, 0.5, 0.5, 0.5084410587344381, 0.21484489790103858, -0.03279147944516997, -0.07771074115496865, -0.025205224019695396, 0.06543253333841763, 0.07911324264910011, -0.06786446376614196, 0.1576138038039933, -0.13789823624489764, -0.15446471947152707, 0.09658389871739184, -0.09638208447221537, 0.10048331983470374, 0.21722218059488, -0.04123458558830868, 0.08816483560385623, 0.3504476330446226, 0.31530069927378535, 0.417882475800696, 0.4399856107993967, 0.49676270816104257, 0.5, 0.5, 0.5, 0.5, 0.5, 0.5, 0.4998832543307099, 0.5042879454365645, 0.49167855324687787, 0.4948487847589751, 0.4734708698111689, 0.2431167432638229, 0.11184558822934555, 0.04900021376856832, 0.10795182300941135, 0.032926342274200604, 0.1333001110242578, 0.1777794147548296, -0.012125308489804339, 0.050364468954239246, 0.12359069810689749, 0.2739424376980569, 0.35488326849319757, 0.39199343685413857, 0.39866525724403035, 0.4549320806415891, 0.4954603998140822, 0.5019497012850112, 0.5, 0.5, 0.5, 0.5, 0.5, 0.5, 0.4984517786237361, 0.48420411567597493, 0.46384600596923137, 0.4376804964566909, 0.39635005291090175, 0.3007479669678793, 0.28674979302792664, 0.34615861847618523, 0.16390213736960602, 0.17976479177027768, 0.25771328503901225, 0.21223745103139308, 0.20059218624832137, 0.1510209950438596, 0.16905752579755243, 0.30557171292955937, 0.38884665407050883, 0.436120727539151, 0.46190587388049537, 0.4919767223449665, 0.5, 0.5, 0.5, 0.5, 0.5, 0.5, 0.5, 0.5, 0.5, 0.5, 0.4899536400773392, 0.470455805784229, 0.47592729287498703, 0.5042574708143256, 0.4639723614580827, 0.46648721746968635, 0.4637948972504495, 0.4240299863150114, 0.4398940800806633, 0.4430235474609576, 0.4100124389816041, 0.401954885179413, 0.4255578415301711, 0.4889904657267288, 0.5012278965833649, 0.4962016411924213, 0.480727407240557, 0.4877593584493718, 0.5, 0.5, 0.5, 0.5, 0.5], [0.5, 0.5, 0.5, 0.5, 0.5, 0.5, 0.5, 0.5, 0.5, 0.5, 0.5, 0.5, 0.5, 0.5, 0.5, 0.5, 0.5, 0.5, 0.5, 0.5, 0.5, 0.5, 0.5, 0.5, 0.5, 0.5, 0.5, 0.5, 0.5, 0.5, 0.5, 0.5, 0.5, 0.5, 0.5, 0.5, 0.5, 0.5, 0.498922474654532, 0.4933193428580987, 0.49821026362208637, 0.482608010230107, 0.46044170531563416, 0.4631593117388809, 0.461783057569728, 0.4720550112313617, 0.47719594039529317, 0.4889181608287383, 0.48073051860854105, 0.4886556831691468, 0.49467511537444286, 0.5, 0.5, 0.5, 0.5, 0.5, 0.5, 0.5, 0.5, 0.5, 0.5, 0.5, 0.5, 0.4996360621711692, 0.49277323454178823, 0.4864060167084088, 0.4753496566860405, 0.4502658945575355, 0.36066462171057667, 0.33533614530922307, 0.33594039842526874, 0.3405089542073435, 0.23335822507338888, 0.31004690571069626, 0.37446563523368037, 0.3028210610267197, 0.34119176718660926, 0.38151614606984124, 0.44862312704943097, 0.4748967930664313, 0.48952698355339, 0.5, 0.5, 0.5, 0.5, 0.5, 0.5, 0.5, 0.5, 0.5, 0.4869453923399279, 0.4420395721959447, 0.3447368242074128, 0.2683521613436302, 0.18598769802389237, 0.09291376471895865, 0.07684059589669301, 0.11434124481282276, 0.17275028936403541, 0.19399349842273736, 0.08803788653825875, 0.1463114833561346, 0.015023260530678657, -0.04746530109531054, 0.05918562080196714, 0.29516097635353145, 0.43008036691798573, 0.4709595584423937, 0.4892378469214159, 0.5, 0.5, 0.5, 0.5, 0.5, 0.5, 0.5, 0.49779239047173074, 0.44887859970883415, 0.3966777447062209, 0.32833423700481335, 0.22645236898856705, 0.0921219079822544, 0.06978344243363643, 0.015964734667547137, -0.09954025853819584, -0.13242201628783873, -0.04086928979904121, -0.09040162163566513, 0.03201485398117274, 0.0015756876911276272, -0.18124319351528717, -0.03332742594681732, 0.15438319065053033, 0.2649276291932701, 0.3056905268219251, 0.4170134373220672, 0.4710793864986489, 0.4983991437327901, 0.5, 0.5, 0.5, 0.5, 0.5, 0.49043355217791873, 0.4105486437110501, 0.26093823617919276, 0.07250449957447153, -0.01740336792194417, -0.05093634213109943, -0.10200897877252131, -0.029997531278093348, -0.11639017760226218, 0.04613212679472055, 0.08019948327090476, 0.027573699313944475, 0.0027315367785217953, -0.014305442737504389, 0.17995399015603183, -0.054524041282872804, 0.1147770287775977, 0.12893735967634992, -0.3132726545048639, -0.2686191350622001, 0.08551832691045642, 0.39449045189527837, 0.4232501705714066, 0.49655626917039164, 0.5, 0.5, 0.5, 0.5, 0.37882546829704417, 0.12267529920807138, -0.031093357250189795, -0.0128469750447455, 0.05589419381005831, 0.02405412152096025, 0.0007458127790119867, -0.01425069114294737, 0.006641113149532277, 0.0011302537284480444, -0.02487703003438059, 0.0725453491432142, 0.0688521501571042, 0.07488027235962551, -0.019552692981646823, -0.17875927519534196, -0.021557061502352152, -0.028994561574602274, -0.02452828413746609, -0.19695839892683029, 0.06349682707518262, 0.16372091183243848, 0.3817642063767042, 0.45879732191629063, 0.47268349690052675, 0.49477546259474897, 0.47778094339221805, 0.46616666189200273, 0.2204223698801945, -0.10843567331232737, -0.21717069284025758, 0.059372695159443406, 0.14245462620327146, -0.13402020368725548, 0.07151607502508206, 0.033452986994210274, -0.032259048286812746, 0.0774185588716172, -0.07529888029019147, -0.09349759001123652, -0.004219183131814055, 0.16844698431333618, -0.019299161544741757, 0.10210754373967577, -0.01983191323428105, -0.03865053650590067, 0.1952639841357418, -0.0743827761125608, -0.017245494074410762, -0.012378458130038402, 0.18936314993173223, 0.3879320758482887, 0.47658064336756445, 0.4787683692680222, 0.4719875866782283, 0.45415827472960646, 0.28483185659295757, -0.23434922773871653, -0.1583154980809314, 0.13974577554700784, 0.12394175160145712, -0.04719332464481253, -0.008316143518024325, 0.024184059764683876, -0.03909608466437026, 0.141972773293683, 0.000978540772711694, 0.025065011324568502, 0.008692563907685634, -0.03707219090670434, -0.11822000428925504, 0.2035137094102665, -0.005551191261605482, -0.0537916259307116, -0.03824582691964444, 0.09566823217841071, 0.10413517229367983, 0.00694581610261293, 0.13605397962382543, 0.4512176384929204, 0.5, 0.4965540285199407, 0.48837314465834986, 0.4823040649903032, 0.3476296905132341, -0.11654787169091296, 0.023905241205060615, 0.07654219597495314, -0.13249597788733386, -0.08457735937886562, -0.11256582587599916, -0.06495490718526194, -0.15434056561990525, -0.026104763636614774, -0.19399464014676884, -0.10543654110699104, -0.08581080536594186, 0.07855454511133651, -0.23393696128535227, 0.040301655749289775, -0.0033037299030647333, 0.0688561043485001, -0.2846519412418431, -0.048551127505631134, 0.09397632094432334, 0.18255158512988415, 0.34186421742379075, 0.4706235518156774, 0.5, 0.5, 0.48733498911682754, 0.4422587842462091, 0.2873612030402056, -0.030780143899851863, 0.071758339161812, 0.16323366859908237, 0.0241077908786072, -0.04148875640488013, 0.08928179889451222, -0.0933869943364657, -0.07176954320859731, 0.03461524135090224, 0.13562050282912036, -0.019247953796894295, -0.07807204400156646, 0.08137765936086903, -0.03551244775844874, -0.020447893134802383, 0.02224100396231347, 0.10926531381794159, -0.023162863669574867, -0.11147890119066038, 0.0567429263093272, 0.2649887926730112, 0.4348621455967998, 0.48451124128933437, 0.5, 0.5, 0.44622227878567916, 0.42842752704979853, 0.17313181620589893, -0.02518815085532036, -0.15809171898946375, -0.050959423006034586, 0.009452559503011807, -0.01811277401873405, 0.02493419269316027, 0.002806334697151366, -0.025793525216167627, -0.030703349326975903, -0.014661950953017457, -0.11508062221073798, -0.1653215884238855, 0.03677286517224493, -0.03144425682853025, 0.1532197790326075, -0.054736084006212896, -0.10202364278531197, 0.04532890028883607, -0.1624334343717146, 0.16683720255741588, 0.3048831596957777, 0.46608264709258435, 0.4942320881630978, 0.5, 0.5, 0.44345800339615815, 0.43545532364980843, 0.15907901137836955, -0.03621185760930457, -0.12373636988132151, -0.17735769768252657, -0.04548739977052532, 0.02523490089886062, 0.09963355137008374, -0.007435184584190116, 0.12354599693481445, 0.13872122214322702, -0.06589072262271227, 0.04983297385173743, 0.12032714220559497, 0.04421014831882894, 0.13492314857439053, -0.025954116376644288, 0.0434010249588872, 0.002016341309458631, 0.007128918039728255, -0.08955819332244415, 0.1394448711806366, 0.20800498913666957, 0.47488146594717356, 0.495401618673806, 0.5, 0.5, 0.4919584715941203, 0.46557300894693177, 0.23578360566366177, 0.021047626108597433, 0.009639646013130465, -0.006453484865112341, 0.020384651334177654, -0.03202490954523113, 0.03493014177241667, -0.05350428028958942, -0.21499875957800868, 0.21893722284870346, -0.03243733875847912, 0.0776266453580281, -0.05543014833047361, 0.07569212393859599, 0.009579632109240429, -0.10841650920710429, -0.07139900263710135, -0.005653796806782358, 0.09694668207792444, 0.08200811393533668, 0.172798204233997, 0.18990137832342957, 0.4677042955667419, 0.49946839522240527, 0.5, 0.5, 0.5, 0.49543588965119456, 0.26474847256352674, 0.0681314066544373, 0.11829734930245148, 0.19606517636522225, 0.13742812592916995, 0.03885980665731127, 0.029190529093348776, 0.03494649500168634, -0.16859283126091432, -0.07732800102397194, 0.14249642682644564, -0.19103739650224144, -0.03620345526650039, -0.08801060805393379, 0.03985505386686923, -0.10040920059159218, 0.017484970254521722, -0.08144251355047766, 0.15712446423071577, 0.0557678361745737, -0.010694132651248852, 0.12053475214084447, 0.467175655487985, 0.49841954699819957, 0.5, 0.5, 0.5, 0.5, 0.2932261540958123, 0.0571222946434968, -0.08905433626068353, -0.05545299231026679, -0.1581085790525074, -0.08817714265408717, -0.01941214695927853, -0.031734272481224894, 0.022782291442679844, -0.05253874341383145, -0.04430104951884733, 0.23138229707274283, 0.13159776692775202, -0.07891733601402855, 0.083465928804588, 0.07714854968476448, 0.0565228950524613, 0.08016696328624558, 0.052999951014679955, -0.057122951191068035, -0.10056585612215704, 0.024945643834328905, 0.4180487454935615, 0.4721168802390281, 0.5, 0.5, 0.5, 0.4891460856093983, 0.4605960491050177, 0.2513500560434661, 0.010607986481591012, -0.12764555723223844, 0.025674173375307682, -0.09585350621580456, 0.033617188505714775, 0.08181249017890391, -0.0577224314981875, 0.0026274264058720066, -0.11334530176950566, -0.03596245331662453, -0.007021041319239317, 0.05135806900852825, -0.008916018563103808, 0.11897209916743517, -0.16795323931186065, 0.07851095051439176, -0.009266877620545405, 0.0840548643614579, 0.10446835312278545, 0.1347478613177009, 0.47526187762875616, 0.4835862275299884, 0.5, 0.5, 0.5, 0.4906638222352639, 0.3864146807708623, 0.3080621335860074, 0.09697008270378, 0.12242275382217958, 0.054093210544884224, 0.0721925752426218, -0.01647362970442429, 0.05480325364786161, -0.01801623239216894, 0.029651962961599148, -0.057948303267876214, -0.12715956035330092, -0.14168750374749292, 0.03514777529353964, -0.13583659854401667, 0.23643598811747896, -0.0036535983340122667, -0.07265275241149015, -0.009417453952735095, -0.009545778975894544, 0.08075277069702085, 0.1586857773627857, 0.501529382506739, 0.45510140918331665, 0.4837115443099188, 0.5, 0.5, 0.49576456722716855, 0.29262477470747084, 0.08810460183550331, 0.03246820127062046, -0.005771059852062331, 0.007258880873456422, 0.12082112230343979, -0.0811072812695892, -0.021768611593200753, -0.040922893986619246, -0.052798171833914075, -0.010313830029235688, 0.1575592593931609, 0.10247366895589086, -0.05168055416972186, 0.06410603324864854, 0.0488069541143871, 0.07058493909056647, -0.024494887861555344, -0.13153163548772895, -0.07249987677634306, 0.07037507055120211, 0.16538074553208829, 0.4270569108339643, 0.4888638790880077, 0.4977680917677745, 0.5, 0.5, 0.437287189192444, 0.1450480426930084, 0.048518251606067174, 0.025513848573643038, -0.13003461728520924, -0.048975622424621695, 0.007032576959457995, -0.03553654724876691, -0.021854146592130506, 0.13342031074171867, 0.03673884988039057, 0.06372682505691464, -0.0002097918043726213, -0.15156487131255392, 0.04184421732615236, -0.07834771725608385, -0.23029506316173165, -0.09386925315555812, -0.16884142149303155, -0.08119388211883531, -0.03792123320774163, 0.07369356300605641, 0.25204380639267526, 0.447025709206249, 0.49940207643890566, 0.5018958241964336, 0.5, 0.5, 0.3950491667889285, 0.1276731605827536, -0.020879794311344835, -0.03775853693023604, 0.0784707540809876, 0.12013383845885324, -0.011984346156547586, -0.13601297271343957, 0.026741962041935387, -0.0294845341710821, -0.2563032593224453, -0.012693000205356556, 0.05616480035094542, -0.011018629640628679, 0.1195649156417763, -0.14306744597468574, 0.13385431221346936, 0.18086576002200525, -0.11582422335562768, -0.12171216390207887, -0.15984323842987763, 0.09537061705390618, 0.30298877549446235, 0.3879489275555476, 0.49579756297755023, 0.5, 0.5, 0.5, 0.4035590810060652, 0.14908759729599086, -0.008256626494816243, -0.05935569567732849, -0.014533883183986119, 0.014597188212671518, 0.08320894812834077, 0.19868574410653028, 0.03872994387720058, 0.026468240861530233, 0.17146979236576806, 0.17444938821580055, -0.03135701028185058, -0.15458333394648469, 0.16262129663660266, 0.2833160241128871, -0.006660973865338147, -0.064346141985316, -0.19090535514604567, -0.18550041986974292, -0.06592930149784797, 0.17735938036468782, 0.2515246993555191, 0.44284926971462263, 0.4938479293841029, 0.5, 0.5, 0.5, 0.47634037807565477, 0.2938641790118376, 0.10758664601447968, 0.15507999574109932, 0.17735612435985637, -0.18019117015698558, -0.05872244959434311, -0.029510144871468275, -0.03243355460971769, 0.05239572650342847, 0.11709841725599208, 0.046174270610642165, 0.1095260644022882, 0.06625678856036497, 0.022853877779553156, 0.052679621387508604, -0.0037960399415313396, -0.03735720658230139, -0.010254724327282642, -0.05815080454189179, 0.09686722860890379, 0.26244006547276605, 0.38646116243695194, 0.4832718173345785, 0.4957757469305561, 0.5, 0.5, 0.5, 0.49738846847913015, 0.475530080007696, 0.29251724231251525, 0.011155235350294333, -0.11204138518695814, -0.0007558538579756673, 0.10679416445736165, 0.08507019704812777, 0.025436901085454256, -0.10059182258664855, 0.013172498029571662, 0.09551144425327922, 0.058385564687562765, -0.015015027146624227, 0.004391394638398664, 0.181079772868922, 0.1823073686395099, 0.12926604488198853, 0.2123383950557298, 0.20158736653991643, 0.2920290040822073, 0.322149277482735, 0.48587718908030575, 0.5, 0.5, 0.5, 0.5, 0.5, 0.5, 0.5085869461455534, 0.21549431370547603, -0.03204125389984471, -0.07719217626284196, -0.024736458633788237, 0.06540490192312085, 0.07897171155994223, -0.06776520699515509, 0.1573146660797981, -0.1386506597252816, -0.15441648560468563, 0.09639545776509593, -0.09680212876495417, 0.10033956244822526, 0.2167035864522617, -0.04107456747127087, 0.0877368697520543, 0.3500887024388832, 0.31529862093468586, 0.4181309317602471, 0.4401206245624297, 0.49681372149844577, 0.5, 0.5, 0.5, 0.5, 0.5, 0.5, 0.4998951740472507, 0.5044049535324154, 0.4916746331862088, 0.49472007951316366, 0.47318480950433556, 0.24329116838484874, 0.11215707245656209, 0.049052132928234606, 0.1074858285206705, 0.03232668581212297, 0.13229793726631936, 0.17701187632069057, -0.012741690356091035, 0.05000422536184833, 0.12340849417573645, 0.2745429818745326, 0.35519154213495835, 0.3921581513590239, 0.39915561530517696, 0.45528705395507524, 0.49557140230215446, 0.5019867087960747, 0.5, 0.5, 0.5, 0.5, 0.5, 0.5, 0.49843337648658326, 0.4840247446077344, 0.46356623125323965, 0.43737812871685644, 0.39635279687033315, 0.30070358317272694, 0.2865773449544026, 0.3459285932854607, 0.1630892808201455, 0.17891690303155292, 0.257133893498695, 0.21173056743848276, 0.20008529835398275, 0.15033231928734508, 0.16901203640674362, 0.305855852153408, 0.38921340443042474, 0.4365026139237633, 0.4621887243482395, 0.4920442593976813, 0.5, 0.5, 0.5, 0.5, 0.5, 0.5, 0.5, 0.5, 0.5, 0.5, 0.4899053759344279, 0.4704694769472723, 0.4760763948911175, 0.5042820432693638, 0.46396050030151686, 0.46653761970846613, 0.4636861117788256, 0.4237247569069419, 0.4397760086364428, 0.44295776190769404, 0.4098924980483973, 0.4019327580532634, 0.42555517233330964, 0.4889606425913996, 0.5012300992947584, 0.4962314555808625, 0.4808896067704196, 0.48786239574774437, 0.5, 0.5, 0.5, 0.5, 0.5], [0.5, 0.5, 0.5, 0.5, 0.5, 0.5, 0.5, 0.5, 0.5, 0.5, 0.5, 0.5, 0.5, 0.5, 0.5, 0.5, 0.5, 0.5, 0.5, 0.5, 0.5, 0.5, 0.5, 0.5, 0.5, 0.5, 0.5, 0.5, 0.5, 0.5, 0.5, 0.5, 0.5, 0.5, 0.5, 0.5, 0.5, 0.5, 0.49890088266570565, 0.4931854725273754, 0.4982028682210795, 0.48255133974875103, 0.4603013923300518, 0.4630551593857266, 0.4617344620865515, 0.4720125590281144, 0.477203769446704, 0.48892260211601757, 0.4807004233996993, 0.4886009151334053, 0.4946420807880304, 0.5, 0.5, 0.5, 0.5, 0.5, 0.5, 0.5, 0.5, 0.5, 0.5, 0.5, 0.5, 0.49963308038627846, 0.4927140248132445, 0.48628939323282205, 0.47494328608412434, 0.449738634930059, 0.36028757751119367, 0.3348572540052256, 0.3355959559091917, 0.33999188349292303, 0.23290035091583242, 0.30951024180920816, 0.37414616818138413, 0.30250602389477277, 0.3406753679510775, 0.3812803983069853, 0.4484733690875903, 0.47484495692309886, 0.48950648067677316, 0.5, 0.5, 0.5, 0.5, 0.5, 0.5, 0.5, 0.5, 0.5, 0.48693347205515086, 0.441997357278024, 0.34478021788743296, 0.26850935420883726, 0.1855741927776035, 0.09260228005079724, 0.07668554780277588, 0.1139084711831964, 0.17241106606673437, 0.19340943371108624, 0.08759465831519057, 0.14559785331709713, 0.013985457076457304, -0.049187410548039316, 0.05762213548141407, 0.2946698902258007, 0.42992300527294963, 0.47086876439875647, 0.48919314403691977, 0.5, 0.5, 0.5, 0.5, 0.5, 0.5, 0.5, 0.49782479910382627, 0.44884534094727824, 0.39655631569515803, 0.3281147772472428, 0.22652602341469877, 0.09237973423330628, 0.06898977319811506, 0.014793157722012363, -0.10094993280540202, -0.1327702694927544, -0.04040975129297126, -0.08959820740137418, 0.03217376961551947, 0.0016937341592128683, -0.18213500249682013, -0.033612622354951924, 0.1543910609135785, 0.2649250299346367, 0.30578050852890365, 0.4172780064005551, 0.4709609047674092, 0.49828050646060873, 0.5, 0.5, 0.5, 0.5, 0.5, 0.4904092945806697, 0.41068938764075347, 0.26113317582638, 0.07255723694672091, -0.01799117163951589, -0.050971856235780794, -0.10258653106656422, -0.030380460412054944, -0.11613757079787836, 0.046327390833660664, 0.0799441144024145, 0.027361387230745507, 0.002196140600264569, -0.013875025509086966, 0.18119779660139315, -0.054721216300562876, 0.11507436023418964, 0.13028069084059152, -0.31165440610997774, -0.2680253469737024, 0.08612632454724624, 0.3951715338823063, 0.4232267245827118, 0.49655536219684016, 0.5, 0.5, 0.5, 0.5, 0.3788032213022176, 0.12289440986896547, -0.03069865581590673, -0.01340662965709298, 0.05484398086356159, 0.023882046499408675, -0.00043142988073770704, -0.014662224071380892, 0.005927641219511061, 0.00042075512973569954, -0.025118579550936097, 0.07169990034986931, 0.06797408211768834, 0.07415575790693761, -0.019128249029705984, -0.17771736158318718, -0.021356786636220433, -0.029721477900395157, -0.023319532451446995, -0.19656636121172066, 0.06362384856419953, 0.16391286413818934, 0.3816474648156043, 0.4588414748361466, 0.4726840559250661, 0.4947818997508758, 0.47777224086120634, 0.4661963823198691, 0.21992250924673684, -0.10863471335285463, -0.21639408337432106, 0.059075371641984196, 0.1420191054516642, -0.13448413701574632, 0.07038308634286353, 0.0331382190275513, -0.03214994924518235, 0.07681647854887941, -0.07610209603387937, -0.09444566057341486, -0.004800494617713047, 0.16783517913948506, -0.019826367689725826, 0.10295862334298805, -0.0198462565247093, -0.03907610185634084, 0.19524687680531808, -0.07477003124238796, -0.018031209367305193, -0.01265741204775354, 0.1890732552794334, 0.3878948957606801, 0.47658092018530274, 0.4787945287748358, 0.47202210079192986, 0.45420255228904083, 0.2845472443983959, -0.23407804265201798, -0.15780217655273351, 0.13975547520502185, 0.12411359239222884, -0.04717219136694234, -0.00827630252093129, 0.024396858019721624, -0.038791016791837676, 0.14201001946622685, 0.0008666066986919947, 0.02535707371560606, 0.008257625402435027, -0.038086277636815935, -0.11875560313257554, 0.203833410438367, -0.005502300986984175, -0.05393673398449509, -0.038934128897617694, 0.09486035982088248, 0.10318362882716306, 0.00645773571607745, 0.13542173554726414, 0.45088260202539915, 0.5, 0.49655827430376914, 0.4883398632328612, 0.4823300965171422, 0.3473825910118406, -0.11637504795304279, 0.024421473595039656, 0.0767939877595278, -0.13228436703417834, -0.08499570353919014, -0.11272994575707093, -0.06449733906976568, -0.15413622578074776, -0.02646067148840177, -0.19388508924672346, -0.10568644235160507, -0.0864637357793445, 0.07848940655230276, -0.23415090324557936, 0.04026625116128264, -0.0034189092813145874, 0.0690624754827111, -0.285339893228261, -0.048978069638306705, 0.09317791096311753, 0.1819149635352374, 0.3415114975443002, 0.47052551045861, 0.5, 0.5, 0.48735050446906386, 0.4421619189157678, 0.28702909156666584, -0.030908881923386856, 0.07200233044914138, 0.16310674668049943, 0.02429830246699926, -0.04188173376906625, 0.0893925018357302, -0.0936222263900124, -0.07214539950515332, 0.034482928876646765, 0.13596122127652668, -0.019496806117073946, -0.0791603073168177, 0.08034041597010239, -0.03599007397032634, -0.021113435640872816, 0.02197743339418217, 0.1087255766725851, -0.023840624620603466, -0.11154556701093178, 0.05640358638815373, 0.2651030525861103, 0.43501832919998673, 0.48448377427937567, 0.5, 0.5, 0.44620623673917886, 0.4282827740034343, 0.17306495422556684, -0.024875158676978273, -0.15765823780607696, -0.05081708194608873, 0.009858000613051792, -0.01824624024805164, 0.025514058755497473, 0.002828523332596474, -0.025273121974465525, -0.029941365190044957, -0.01459073578202839, -0.11614067887602278, -0.1663252153828038, 0.03663344336396354, -0.03126010521026492, 0.15244334213398666, -0.054746172461145826, -0.10226989563867955, 0.04533936837374754, -0.161881699423405, 0.16681616382327238, 0.30506265018175105, 0.4661890722675305, 0.49427225634546273, 0.5, 0.5, 0.44344113675848223, 0.4353156937986039, 0.15921476846954008, -0.0357551555923297, -0.12306930424907363, -0.1767361159414823, -0.0446806905556607, 0.02540163497170204, 0.10131345331976642, -0.006810175225730851, 0.12378416579332549, 0.13827376839431318, -0.06610988420409275, 0.0501111097191574, 0.12053942665762679, 0.04470092736917795, 0.13463799240759025, -0.026611942492225208, 0.04393340252801679, 0.0017528226060105764, 0.007186460778427986, -0.089518617813131, 0.13973835669317247, 0.20823270507778927, 0.4748825517995298, 0.4954336421555994, 0.5, 0.5, 0.4919560727834286, 0.465554410936598, 0.23582673403602103, 0.021751417737024197, 0.010187602329695105, -0.005903082857248452, 0.020504767337248063, -0.03198963980329019, 0.036033052695719804, -0.05309018742944908, -0.21509524319071244, 0.2182353204191022, -0.03301178682952145, 0.0775406993426218, -0.055775167434587894, 0.07529764905212694, 0.009108693744087655, -0.10895921434899124, -0.07142482600049944, -0.0050880858479935105, 0.0981755113378355, 0.08233419015641846, 0.17295631983158247, 0.19008727693881328, 0.4676345838211946, 0.49947209735902875, 0.5, 0.5, 0.5, 0.4954370333711814, 0.2649194353607724, 0.06881390781127554, 0.11901222814629374, 0.19686770849404917, 0.13800079715340602, 0.038970194901624435, 0.02850305533437784, 0.03532569901160903, -0.16951573246753282, -0.0783234864655734, 0.14218989794330267, -0.19043595784616205, -0.0364856069089856, -0.08764582048233131, 0.040085194015835775, -0.10087325875198117, 0.017475157162922892, -0.08086832824554051, 0.15776953414264744, 0.056071017231796964, -0.011285374425664857, 0.12003058238818129, 0.46702579085216295, 0.498413637431315, 0.5, 0.5, 0.5, 0.5, 0.29345833281580247, 0.05764751990618332, -0.08897851007210998, -0.054834542346404495, -0.15694594834409556, -0.08752904194914791, -0.019222498231929962, -0.03168135023370327, 0.023324865249882393, -0.0523327947073266, -0.04400914624986156, 0.23220164042251476, 0.13255195310248855, -0.07979110259452203, 0.08302587242561606, 0.07689613066395135, 0.057034410036489035, 0.0806466306762612, 0.052665955720691084, -0.057216072377004296, -0.10135854617483019, 0.02415358915109926, 0.4179662176536894, 0.4721487101509701, 0.5, 0.5, 0.5, 0.4891215474639196, 0.4606605686159549, 0.2512121480360458, 0.01058247400297913, -0.12754982135825282, 0.02676458211016911, -0.09474604610005338, 0.03415255417164067, 0.08296456607232715, -0.05700874106151176, 0.0019733168108563163, -0.11423660947997673, -0.0357854199588959, -0.006674174920216757, 0.05084844592305857, -0.008751973418422751, 0.11931528926007773, -0.16728930057053634, 0.07882075578443355, -0.009473099587220033, 0.0841497764871795, 0.10388340683726402, 0.13452453230691508, 0.47548288931990623, 0.4836126921872377, 0.5, 0.5, 0.5, 0.4906329060571069, 0.38631518631746065, 0.3072819752746938, 0.09658833655690409, 0.12275833100607439, 0.054964496988724756, 0.0724028352634539, -0.017446628780638875, 0.05520316009507178, -0.01697532215044977, 0.03035314585768517, -0.05712272321194134, -0.1265064250047892, -0.14100066758422092, 0.03625754020973129, -0.13523445746376206, 0.23595741585247346, -0.004315129134743657, -0.07270782391903222, -0.009921773379382064, -0.009933398614966863, 0.08057086250261737, 0.1588739032134365, 0.5019114464615153, 0.4550996073639614, 0.48371445735223817, 0.5, 0.5, 0.49575337725559343, 0.29240823004619, 0.08715956567058966, 0.03247175588225004, -0.005341375325373966, 0.00718316501369153, 0.12182336626978356, -0.08057901981941465, -0.02157805867855102, -0.04077417386678909, -0.052213183369189384, -0.009897106774354283, 0.15958239015395648, 0.10282466757375168, -0.05198772819937488, 0.0641299876997673, 0.047255143501690404, 0.06939726964680437, -0.024438822900729427, -0.131927987848283, -0.07310989879680613, 0.07020912663568038, 0.1654838221543517, 0.42750935674341234, 0.4888674927376487, 0.497719711238657, 0.5, 0.5, 0.4373852200272551, 0.14485617291199504, 0.047501175036650516, 0.024938265539767083, -0.130426698332125, -0.04896142257311045, 0.007324627404547474, -0.03572354957082866, -0.022184869445980793, 0.13331791035306864, 0.036251497061355276, 0.0633058040110134, 0.0008798888127582543, -0.1512851626908801, 0.04225964468597732, -0.07831847923906857, -0.23091149358605476, -0.0945815872317395, -0.1685838545118895, -0.0809342399547989, -0.03842945919301709, 0.07381735338004006, 0.25219406104734005, 0.44716754608913617, 0.4994027550972804, 0.501874579565945, 0.5, 0.5, 0.3949713671255252, 0.12753077317507103, -0.021641672753143194, -0.038798822601811306, 0.07778409899885325, 0.11943867323971431, -0.012726281005565977, -0.13657514056124043, 0.026448162630586646, -0.029859099705686988, -0.2568701515219662, -0.01283391342857091, 0.05635166003866495, -0.010945081089567297, 0.11961207926281017, -0.14221253800258968, 0.13350161442977823, 0.18016396094288784, -0.11588796673313666, -0.1217029300625714, -0.16009501818185817, 0.09551021601494496, 0.3029187945088808, 0.3881763145944727, 0.4958259849180263, 0.5, 0.5, 0.5, 0.4033764754109697, 0.14880273765339688, -0.009031851246116801, -0.06009557023410343, -0.014892858090190949, 0.014851189257381832, 0.0837617780963494, 0.1983008599991235, 0.03851773280608921, 0.026439299099655846, 0.1710894567205074, 0.1745828730550288, -0.03140542002856223, -0.1537087766075083, 0.16292060765324534, 0.2839809140093021, -0.007336618343110984, -0.0651842086950138, -0.19103293017270181, -0.18566078633822286, -0.06615223059804648, 0.17767047695663798, 0.251727924003481, 0.44304367540396394, 0.4939066810949505, 0.5, 0.5, 0.5, 0.47626523694829076, 0.29363821634551696, 0.10696637707259722, 0.15458849350850637, 0.17702562306034694, -0.1796472094882052, -0.05860681349378133, -0.03046173015530195, -0.032992381262380896, 0.051868575929465366, 0.11691479700797831, 0.04589641652875102, 0.11038186448029466, 0.06688659994229633, 0.024008603645365445, 0.05330267811948807, -0.003668286466707349, -0.03738236008116639, -0.010319303680918199, -0.05825728027681568, 0.09683242099158834, 0.2626738533931145, 0.38656811911612654, 0.4833536559201122, 0.4958041519687272, 0.5, 0.5, 0.5, 0.49737390813563104, 0.4752334797428426, 0.29141429896779314, 0.010332920282779299, -0.11243332311660964, -0.0005977642807351582, 0.10645284197469423, 0.08408433419854902, 0.0251751935984748, -0.09961083116024823, 0.013587706285416598, 0.09516966720608008, 0.05863341637806495, -0.01432108398992463, 0.004529760957844763, 0.18177931308593356, 0.1828269168370618, 0.1296405354075118, 0.21273822720700555, 0.20144537161901102, 0.29154921873718287, 0.3221180679170477, 0.48582325938493076, 0.5, 0.5, 0.5, 0.5, 0.5, 0.5, 0.5083765364272714, 0.2146784777851473, -0.03258930631080489, -0.0772444768105802, -0.025119152472824993, 0.06476024626111067, 0.07865549901771435, -0.06808181638091733, 0.15720286407270234, -0.13888087972391006, -0.15482855942445897, 0.09589752637577598, -0.09718539511788898, 0.1003990605293202, 0.21705769606015266, -0.04095321034902376, 0.08760003285558422, 0.3501944675630859, 0.3150719183898967, 0.41759252218617565, 0.4399342297490982, 0.49676537609871496, 0.5, 0.5, 0.5, 0.5, 0.5, 0.5, 0.49988761627647293, 0.5042711437085569, 0.4918956639857715, 0.4948633775609673, 0.4728626796023809, 0.2426993907053673, 0.1112432541431892, 0.04824963016365676, 0.1074010634579128, 0.031821335632114645, 0.13211550234974914, 0.1768294102316924, -0.012962629123010622, 0.04922810446618178, 0.12168163665222838, 0.27245051907426643, 0.35425176863886065, 0.39191171645700373, 0.39871692842968726, 0.454928739519101, 0.49545687983919906, 0.501930639721353, 0.5, 0.5, 0.5, 0.5, 0.5, 0.5, 0.4984365762307769, 0.4841654076754481, 0.46384429970771734, 0.43736963524901, 0.3961912328174786, 0.300571198727717, 0.28635166872824086, 0.34617190465443876, 0.163864437753812, 0.17920158370345063, 0.2572211262291239, 0.21173839129640118, 0.1998294557699877, 0.15013808664907743, 0.16827286884717443, 0.3051530995652878, 0.38883598200257957, 0.436181613532598, 0.4619873947936598, 0.49200007742409163, 0.5, 0.5, 0.5, 0.5, 0.5, 0.5, 0.5, 0.5, 0.5, 0.5, 0.489902241562861, 0.47034746392433985, 0.47586309227022655, 0.5041756458794506, 0.46393360626019486, 0.4665247542382783, 0.4636544822597129, 0.42377400304173385, 0.43978968101532795, 0.4428777867666721, 0.40970346217219344, 0.4015952684197671, 0.4252886657596851, 0.4890129092617523, 0.5012630560219136, 0.49621242595899867, 0.4807835043162908, 0.48779498991624215, 0.5, 0.5, 0.5, 0.5, 0.5], [0.5, 0.5, 0.5, 0.5, 0.5, 0.5, 0.5, 0.5, 0.5, 0.5, 0.5, 0.5, 0.5, 0.5, 0.5, 0.5, 0.5, 0.5, 0.5, 0.5, 0.5, 0.5, 0.5, 0.5, 0.5, 0.5, 0.5, 0.5, 0.5, 0.5, 0.5, 0.5, 0.5, 0.5, 0.5, 0.5, 0.5, 0.5, 0.4989097327561767, 0.4932403430882961, 0.49817586819348797, 0.4825177736639759, 0.4604222118389294, 0.46317104763981864, 0.46178866428850557, 0.47210415587594834, 0.4772755194204753, 0.4888206890791696, 0.48054938374879513, 0.48868725349683323, 0.4947154138094243, 0.5, 0.5, 0.5, 0.5, 0.5, 0.5, 0.5, 0.5, 0.5, 0.5, 0.5, 0.5, 0.49963533758705986, 0.4927588463716177, 0.4863790344609371, 0.47523033864284303, 0.4501454458690832, 0.3604396755260645, 0.33503024802877523, 0.3358418286733976, 0.34015750834472797, 0.23259603029608536, 0.30894754971978894, 0.3737399809082364, 0.3020901038271419, 0.3406434026820147, 0.381339627716281, 0.4486040635931489, 0.4749017746827099, 0.48952301809047133, 0.5, 0.5, 0.5, 0.5, 0.5, 0.5, 0.5, 0.5, 0.5, 0.48697287965061103, 0.4421942969806393, 0.34482613381946614, 0.26836305267109983, 0.1859018162989469, 0.09294530155655978, 0.07705423886457863, 0.11418299472857112, 0.1723990614699263, 0.1933477725662625, 0.08722109811146597, 0.1455717616715938, 0.013998598604890587, -0.048589547728339746, 0.05816327138969825, 0.29466253367034695, 0.42971023274336306, 0.4709206316069276, 0.4891754353709465, 0.5, 0.5, 0.5, 0.5, 0.5, 0.5, 0.5, 0.4978215652919344, 0.4488628354219491, 0.3967507321078577, 0.3283808166900554, 0.22638645233226787, 0.09237488794844094, 0.06969061135583852, 0.015836126114738846, -0.10030350241791003, -0.132625680344879, -0.04100467255558632, -0.09031219759181204, 0.03223423596866503, 0.0014960695293822794, -0.18183382946260446, -0.03305152937746286, 0.15487842858999637, 0.26558045336732305, 0.30582482655824206, 0.41705229074954364, 0.4709822738131661, 0.498479017445006, 0.5, 0.5, 0.5, 0.5, 0.5, 0.49037198545435695, 0.41067207885396995, 0.26101148737932467, 0.07261906253462572, -0.0179883965056225, -0.051392299349059076, -0.10262915533513668, -0.03047760811844698, -0.1156331221544817, 0.04590170407631577, 0.07947965108400971, 0.02700711987567865, 0.0028118478847140734, -0.014415691731691807, 0.18124493520760526, -0.05426440946037533, 0.11447360081641576, 0.1305290558912465, -0.311244333746425, -0.26821989267616075, 0.08547552826063146, 0.3952694309760487, 0.42339357167267383, 0.49652982798251666, 0.5, 0.5, 0.5, 0.5, 0.37874202571572524, 0.12268393290764913, -0.031110402462035804, -0.013195269176886862, 0.05507609445258344, 0.023138604465491066, 7.360914306836246e-05, -0.01408941747272714, 0.0064817540997752915, 0.0003332572878754444, -0.02546457491851676, 0.07256845036712667, 0.06914636419605355, 0.07474602560508134, -0.018520388827267673, -0.17724205130947165, -0.021370883536229554, -0.030635283811533374, -0.02418641370320759, -0.1969775259911208, 0.06372109136360164, 0.1652810027722743, 0.3823210745151337, 0.4586770265846917, 0.4724847886145756, 0.49479871704141914, 0.4778773582651313, 0.4662128699570174, 0.21990292612292145, -0.10896477530877921, -0.21689376059515822, 0.05917926921948674, 0.14219837145536146, -0.13433971859682292, 0.0711106972215621, 0.03368606273466319, -0.03194568179110688, 0.07779413753968974, -0.07465455512836205, -0.093295764102499, -0.0044308635252602036, 0.16813393644064525, -0.01999003516315111, 0.10210785742164147, -0.02015235103652476, -0.039086352995606345, 0.1958093455132203, -0.07464499721526689, -0.016181592671011536, -0.010220457861937276, 0.19032115411721792, 0.3879991727735794, 0.4764766731793394, 0.47886287138108663, 0.4721122700944178, 0.45427465305858467, 0.2846193429537604, -0.23483881977911564, -0.15789713958918744, 0.13968654001516267, 0.1242372587563033, -0.04566397324753028, -0.007443073942378723, 0.02410575896541497, -0.037427351566858155, 0.14264989795053837, 0.0010619467322083064, 0.025754319552095867, 0.009452843970910034, -0.037088769862693854, -0.11866984213581976, 0.20341717287398342, -0.006547066489660354, -0.05367244364495963, -0.038286173865600404, 0.09599361472214431, 0.10582034006961474, 0.009338961451990865, 0.13773189581724088, 0.4513506407470224, 0.5, 0.49656936655923395, 0.4884083110872998, 0.48237061040745643, 0.347802197743788, -0.11660833599710227, 0.02440663020651631, 0.07642314789320422, -0.1323319793996755, -0.08329796944796035, -0.11214582159327345, -0.06461566891102358, -0.15399280171993524, -0.026719443607781848, -0.1932157633022519, -0.10488642431474818, -0.08598137625742358, 0.07810253454938297, -0.23356831056017083, 0.040727793911083804, -0.004222809493624846, 0.06834332915661488, -0.2855670273827777, -0.04916521276273321, 0.0944791372280703, 0.18395350253765735, 0.3429946422723932, 0.4710391273511856, 0.5, 0.5, 0.48737080063518384, 0.4422575467360587, 0.2875274006426948, -0.03098717387210323, 0.07215768504662505, 0.16331752517951487, 0.02450169603038083, -0.0413292458727697, 0.0890778871672619, -0.09331515714215047, -0.07166335404273196, 0.03560756817441827, 0.13767495637172653, -0.018844031228094058, -0.07923969885195209, 0.07912616520383058, -0.03682872905961154, -0.021470289740068697, 0.021072019713869097, 0.10868422605681757, -0.02451906458750518, -0.11246227455702655, 0.05610602285011457, 0.26574196627157887, 0.4356734877430491, 0.48451587167886934, 0.5, 0.5, 0.44617607053858443, 0.42834973204618215, 0.17337783258416975, -0.025188992204752333, -0.15746241018976942, -0.0507591268453796, 0.010065278051322873, -0.017390593110715297, 0.025090383035190317, 0.0031584374302574257, -0.024576578850178655, -0.029108520676412435, -0.015025688084840743, -0.1170141388248425, -0.16673537113599743, 0.03605288254806875, -0.03282120673152058, 0.15119403449891725, -0.05582975171758834, -0.10263022647195896, 0.04466121518229679, -0.16330036625708522, 0.16565217546646904, 0.3049221609945119, 0.46629680270046836, 0.49426775181415616, 0.5, 0.5, 0.4434094199587919, 0.43536362444297877, 0.15936596736122124, -0.03609181314966282, -0.12294345497997569, -0.1768699293616049, -0.04447951548457078, 0.025203277515612677, 0.10053611314597455, -0.007015337577882898, 0.12330829578369581, 0.1389297812660988, -0.06665634542879983, 0.04944942974956071, 0.11970032318850873, 0.04436199484640286, 0.13410184795026886, -0.027071091254530798, 0.043513103770334446, 0.002282973631614624, 0.006926433025850743, -0.08988070359892932, 0.1389434852311524, 0.20778680597752697, 0.47502559789883736, 0.49543005098547926, 0.5, 0.5, 0.4919515619496949, 0.46568617115680255, 0.23578131365785457, 0.021153960222804524, 0.010215621414110483, -0.006187504545896946, 0.021763881213559315, -0.031231008497537478, 0.035702294414641095, -0.053556839327203024, -0.21547277673382856, 0.21837877977699677, -0.03247281333192038, 0.07809462239661685, -0.055105609817461314, 0.0746296677908094, 0.00836162701142268, -0.10869819736125053, -0.07070438198758554, -0.005612873462306032, 0.0974828727570925, 0.08097839421790458, 0.17181580001308788, 0.1896809511714388, 0.4678326393961891, 0.4994716821948531, 0.5, 0.5, 0.5, 0.4954634002660563, 0.2647064453911242, 0.06807039531381853, 0.11809796699064609, 0.196579026429546, 0.13890762515239238, 0.03954802036289964, 0.029057774133543397, 0.03467853880095543, -0.16986280213347202, -0.07772556922849232, 0.14279340306708996, -0.19110733624341394, -0.03622433305865798, -0.08734701114478532, 0.04075865192056507, -0.10040914349435112, 0.017258976124142372, -0.08143615742692327, 0.1565660670575374, 0.054891745463935104, -0.01183913710358968, 0.12031818342181445, 0.46725679716090046, 0.4984196339850788, 0.5, 0.5, 0.5, 0.5, 0.2932752665471135, 0.05716674578945018, -0.08921032023793969, -0.05514587788449074, -0.15808620091451708, -0.08831131488382073, -0.01997584249146482, -0.03245908005333888, 0.022295264093013287, -0.053524833255523416, -0.044321157774266, 0.2314468492254496, 0.1313189182081015, -0.07997419964195998, 0.08377445886368637, 0.07684205394165025, 0.05638796712779792, 0.08041109568611471, 0.05214352217584593, -0.05745854640954707, -0.10090211453575139, 0.024767492185662987, 0.4182122228413107, 0.47219688720119973, 0.5, 0.5, 0.5, 0.48910749499296857, 0.4607394059521457, 0.25157460566502593, 0.01051976588902884, -0.1282019669821731, 0.02466692683772397, -0.09614144418489826, 0.03350949017856361, 0.08188024545351007, -0.057774187856593204, 0.003078199004861258, -0.11243616764633677, -0.035510361635982785, -0.007281193646936822, 0.051284526129436916, -0.009451285372792646, 0.1178215965348921, -0.1678134443391201, 0.07796231385188054, -0.009858999412013127, 0.08424622901035093, 0.10418775454911762, 0.13478201850582752, 0.47540447759528354, 0.48365698007994884, 0.5, 0.5, 0.5, 0.4905702545427019, 0.38644658811337707, 0.30774695250797635, 0.09663703068037334, 0.1227438590032198, 0.054688769242606454, 0.07179730579688032, -0.017818496322665113, 0.05491074510835116, -0.01733453826863657, 0.02956459356797235, -0.056917001716171714, -0.12646307672009566, -0.14157008725573383, 0.03574914255865671, -0.13590888160017972, 0.2351285549680807, -0.004670903074171527, -0.07211626296129581, -0.009603822894129834, -0.00988956250596809, 0.080898227963567, 0.15879850332131307, 0.5017040031984917, 0.4551157015213105, 0.4837068780204948, 0.5, 0.5, 0.4956806004802928, 0.2926820152024151, 0.08726850827691508, 0.032660464554843345, -0.004691067868673731, 0.007854573412845784, 0.1216309884671621, -0.08114149302736255, -0.022544403054687297, -0.04131464478805574, -0.052591551250424105, -0.010232169161513871, 0.1582117311922915, 0.10296649241999187, -0.05203815358577924, 0.06494928873046321, 0.049061929884208245, 0.0700600575552926, -0.023448388440404314, -0.13130413905550486, -0.07299085024561554, 0.06982371696003097, 0.16514999285065052, 0.4273457100565374, 0.4888757839507901, 0.49776788812831646, 0.5, 0.5, 0.43772282430575665, 0.1455531199338682, 0.04729091839059835, 0.02432663284866887, -0.13002106686651888, -0.04798025282427105, 0.008756624741250836, -0.03488042680639163, -0.02151225592370109, 0.13386266155973262, 0.036682203824560035, 0.06422184907369967, 0.0009558456819740046, -0.1505452925987021, 0.04110993556576875, -0.07797899463727308, -0.23022717158490785, -0.09445632401073506, -0.16854204778932905, -0.08091615761759348, -0.03816700682571979, 0.0734657797121662, 0.2519349926474628, 0.4471901402678331, 0.49940285076117785, 0.5018965540606203, 0.5, 0.5, 0.39524359004302706, 0.12821890786402004, -0.021190738168483228, -0.0388054175995376, 0.07767085218315059, 0.11965966204116228, -0.011879068388667991, -0.13600435936585892, 0.027465363067262903, -0.02932545753807293, -0.2570670764151076, -0.012766312111845063, 0.05636887208147548, -0.011361932961977125, 0.11894502679899753, -0.14222116661298784, 0.13330685103144532, 0.18040260520253432, -0.11605741827758037, -0.12141639215850736, -0.1600141158331515, 0.09525393006363667, 0.3030371716350801, 0.38811607723563485, 0.49582285215416283, 0.5, 0.5, 0.5, 0.4033838085190899, 0.14906705807133258, -0.008704423856095177, -0.05936274935137826, -0.013994090024890967, 0.01512596649528302, 0.08368611051074071, 0.19837067552591875, 0.039271440779174396, 0.0266815986477905, 0.17076342797489322, 0.1755102753908314, -0.03127547491326882, -0.15429097792402716, 0.16332257990323248, 0.2841723282582985, -0.007008132740521339, -0.06467924946212483, -0.19036459461003238, -0.18551025374442381, -0.06610733392131977, 0.17729261359583792, 0.25152777278404687, 0.44296686426366333, 0.49395721901688316, 0.5, 0.5, 0.5, 0.4762468892246, 0.29376001749077824, 0.10714929828362989, 0.1544234390572396, 0.17751582914078554, -0.17917033794594628, -0.05847238773545442, -0.029037031503864084, -0.032300623532153745, 0.05297423532668573, 0.11739859255578772, 0.04615076283398442, 0.11021683371887332, 0.06672880500204204, 0.02389225139840332, 0.0527280619936424, -0.00400519794825609, -0.036910442996211545, -0.009566039621443855, -0.058050282248448486, 0.09703897593158485, 0.2621803659669787, 0.38643652682995283, 0.48334661382297206, 0.49580103200492154, 0.5, 0.5, 0.5, 0.49737363865557793, 0.4752809996341051, 0.29172471176239234, 0.010396661837639267, -0.11240802788368169, -0.0006965141259368972, 0.10741952684394226, 0.08567969585778157, 0.025367218879391213, -0.09938764615252557, 0.01417703977108006, 0.09572684412643842, 0.05927457575656996, -0.014202366027839529, 0.004052650959327728, 0.18117575555524826, 0.18239706845032405, 0.12942086286672233, 0.2126728230250315, 0.20132557099352583, 0.29163683094688775, 0.32192340767083527, 0.4858531127120618, 0.5, 0.5, 0.5, 0.5, 0.5, 0.5, 0.5083771560735514, 0.2148838587412233, -0.032764038301066535, -0.07792614311981826, -0.02542679832800894, 0.0652017036853355, 0.07919201354136994, -0.06726655681125314, 0.15801323020842584, -0.13729858709995332, -0.15459214525927362, 0.09609450982883352, -0.09668831693430292, 0.10034978571182028, 0.21726291717504018, -0.04106313457154149, 0.08799837932001205, 0.35020008802054453, 0.31501695311637923, 0.41783531669277946, 0.4400751469815819, 0.4968086752354759, 0.5, 0.5, 0.5, 0.5, 0.5, 0.5, 0.49988602940273624, 0.5042541010477178, 0.4914914028234409, 0.49450653328514, 0.473055227947996, 0.24294016597855972, 0.11162399107280936, 0.04896603961114192, 0.10733201176136233, 0.03203964099180711, 0.13247269619670426, 0.17749552671106048, -0.01201712666774097, 0.05086277345571666, 0.12389456637773798, 0.27434350473903973, 0.35487182092609926, 0.3918644625809302, 0.3987718920224086, 0.45499445603110067, 0.4955631584992833, 0.5019922006321688, 0.5, 0.5, 0.5, 0.5, 0.5, 0.5, 0.4984255584250217, 0.48407394446519825, 0.46381307190947996, 0.43752959013621284, 0.3962945591958475, 0.30030518689874114, 0.2861891583856493, 0.3457143459744261, 0.16295122021080694, 0.1794010073356856, 0.25726383114308593, 0.212054570303351, 0.20068101587053838, 0.1509503160097567, 0.16882736227624834, 0.3053769131868821, 0.3888342962843106, 0.43605353875781366, 0.4618919507336088, 0.4919802555165857, 0.5, 0.5, 0.5, 0.5, 0.5, 0.5, 0.5, 0.5, 0.5, 0.5, 0.4899499756495271, 0.470412240524685, 0.4758964859291284, 0.5042430581687354, 0.4639516958208435, 0.4665532446992914, 0.4637569876553703, 0.42385286040850473, 0.43987868409914366, 0.4431192454819113, 0.41008776350634285, 0.4019479762539349, 0.4255178880950955, 0.48894448508458094, 0.5012481344362221, 0.4962322043189514, 0.480736298280564, 0.48776474880094495, 0.5, 0.5, 0.5, 0.5, 0.5], [0.5, 0.5, 0.5, 0.5, 0.5, 0.5, 0.5, 0.5, 0.5, 0.5, 0.5, 0.5, 0.5, 0.5, 0.5, 0.5, 0.5, 0.5, 0.5, 0.5, 0.5, 0.5, 0.5, 0.5, 0.5, 0.5, 0.5, 0.5, 0.5, 0.5, 0.5, 0.5, 0.5, 0.5, 0.5, 0.5, 0.5, 0.5, 0.4989287556572892, 0.4933582850751927, 0.4982103145661649, 0.4826292489941008, 0.46057061295000185, 0.4633228350397529, 0.4617813355213425, 0.47210072902130423, 0.47729717949160877, 0.4890054810431899, 0.4808311036342721, 0.4887015254985641, 0.4946979936941003, 0.5, 0.5, 0.5, 0.5, 0.5, 0.5, 0.5, 0.5, 0.5, 0.5, 0.5, 0.5, 0.4996366364571029, 0.49278463821961493, 0.4864266503493578, 0.4754098613834285, 0.45043376622167686, 0.36070233288702946, 0.3355008375089963, 0.33661857504862824, 0.3410521232155394, 0.2344179491359221, 0.311282715529296, 0.3754662750264728, 0.3032077644806859, 0.3414086642834994, 0.381907803297733, 0.4488139910883328, 0.47491045418746697, 0.4895276064179477, 0.5, 0.5, 0.5, 0.5, 0.5, 0.5, 0.5, 0.5, 0.5, 0.4869406677826174, 0.44211702560147903, 0.3446443735438323, 0.26827265137319195, 0.18614825736098067, 0.09321532207493737, 0.07730930412725395, 0.11441407758977723, 0.17337948733387631, 0.19516539861469212, 0.08969300154247788, 0.1479464475453299, 0.016763869067821312, -0.045736712847171845, 0.06021630527422492, 0.29554522513759546, 0.42998318469963065, 0.47090602365638123, 0.4891604881303395, 0.5, 0.5, 0.5, 0.5, 0.5, 0.5, 0.5, 0.4978108460857368, 0.4488271316717268, 0.396686086381519, 0.32843443714941334, 0.22634311559809137, 0.09223051967166275, 0.06962674110824857, 0.015622321948111553, -0.10004681335569791, -0.13295623413484833, -0.041029075889218565, -0.0899997662924298, 0.032163018390967024, 0.0016354219272358668, -0.18101311543548482, -0.032694643725027596, 0.1548170338450634, 0.2652280354082912, 0.3058228516755138, 0.4171715429514258, 0.47093533230333456, 0.49836789353704253, 0.5, 0.5, 0.5, 0.5, 0.5, 0.49042852663973713, 0.4106703533214043, 0.26101017213400657, 0.0725599996174958, -0.01790721365512309, -0.05137488198753281, -0.10221911951313054, -0.030427643112424727, -0.11680623136124321, 0.045503175978105166, 0.07963543314895606, 0.02694597947518365, 0.0025001263492526165, -0.014413025764665488, 0.18091874769814073, -0.0544822726507214, 0.11459439965069254, 0.1290832134485764, -0.3126129647036243, -0.26848845026581236, 0.08521210933931037, 0.39457994111175426, 0.4232350089375793, 0.4965448346988022, 0.5, 0.5, 0.5, 0.5, 0.3787236889719766, 0.12263063416655481, -0.03140539331673597, -0.01341951308847983, 0.05503437437660943, 0.023286001055205598, 0.00011909521513445829, -0.014824190733802875, 0.006150459757291349, 0.0010857514452189954, -0.024753645663785743, 0.07309666642845286, 0.06871366407176341, 0.07400013033148795, -0.018629711416983878, -0.17805109149898232, -0.02290883734057695, -0.0302991076397669, -0.024252171752253793, -0.1968923818779235, 0.06336828100063559, 0.16394515331038537, 0.38162579071558295, 0.4586996281601974, 0.4725653985152685, 0.49479321915833835, 0.4778326913814275, 0.4662272430113396, 0.2197961137343067, -0.10903904516220553, -0.217382168274955, 0.0591539096977443, 0.1422220376865869, -0.13472435347552789, 0.07123152813651885, 0.03306059978206161, -0.032532587242421175, 0.0767782387527453, -0.07580450395710903, -0.09338513148568099, -0.004546004407018322, 0.1679961209287799, -0.019594117606832027, 0.1024627221003847, -0.020635752698440056, -0.03941476968182489, 0.19553151388537207, -0.07466872316565659, -0.017594049439896845, -0.012442790710217307, 0.18890544153185024, 0.3877415214648842, 0.4765138269506783, 0.4788405289200558, 0.47208279208300563, 0.4542681678178012, 0.2845107958368985, -0.23479629445849434, -0.1582192378885084, 0.14001899843157203, 0.1240724308314684, -0.046476026242815285, -0.007772850783245204, 0.024080178084838998, -0.039019878087432756, 0.1422012333936456, 0.0010200130839897366, 0.025612151975650033, 0.009032994419785355, -0.03756362969727555, -0.11852637734717568, 0.20353494663990554, -0.006357578010116856, -0.05471971342939906, -0.03908561510289438, 0.09546212436942546, 0.10392074484777289, 0.0067089116992901975, 0.13550689371083363, 0.4510352127226367, 0.5, 0.4965657402959253, 0.48842907479278314, 0.4823907209547307, 0.34763072648246274, -0.11686927897670944, 0.02424708297900776, 0.07659940020738767, -0.1323933495417526, -0.08378625695031347, -0.11199224175121811, -0.06425381070325871, -0.15405570815098252, -0.02534192250105587, -0.1932446451972024, -0.10526668730146072, -0.08607015637875745, 0.07822264737557208, -0.23442445423787028, 0.04067924256055609, -0.0040281992847270125, 0.06850805805444195, -0.2851038078859408, -0.04871713931811705, 0.0938834183643026, 0.1821846484726667, 0.34168105611674043, 0.4705420827382554, 0.5, 0.5, 0.48741920972969427, 0.44237927697864826, 0.2873012522671768, -0.031077064794483925, 0.07201972855126496, 0.16323119795353241, 0.02436991290772158, -0.041221031461516, 0.0898125616190488, -0.09345380442306711, -0.07139251009993243, 0.035154053935170196, 0.13598342305029268, -0.019594496073777563, -0.07984045383427052, 0.07954723000552945, -0.036150726089157474, -0.021073606372395453, 0.02126390548483754, 0.10943563540859202, -0.02298022306635134, -0.11142675153380509, 0.05619484559070184, 0.26525070658430017, 0.4349712270285362, 0.4844756395462984, 0.5, 0.5, 0.4461820921258095, 0.4284607894075864, 0.1731081891392263, -0.02524125356224658, -0.15772428482076456, -0.05064905785671283, 0.00980419565402739, -0.01737523677900076, 0.02513572736305382, 0.00270141618868283, -0.02586860339994368, -0.030095286386324242, -0.014438311438106062, -0.11618564373576021, -0.16749522793407243, 0.035536635584260956, -0.032065602882299496, 0.1518135812021941, -0.055483818421538864, -0.10202866552518947, 0.04556025469308193, -0.16242015582161193, 0.16665832113413914, 0.30511439579838645, 0.46611531677643475, 0.49424833174861216, 0.5, 0.5, 0.44341575106685577, 0.43541749993126155, 0.15916149843279953, -0.03631491903406125, -0.12307252855883143, -0.17689422773551125, -0.04458974347166568, 0.025750177849001406, 0.09994849081629413, -0.007992506195545009, 0.1225981180046369, 0.13844303154993104, -0.06594689771586601, 0.04888452422272068, 0.11954575442189933, 0.04440242543665537, 0.13466692794658877, -0.026286589270846587, 0.043307408717791755, 0.0025228825082152565, 0.007129052993662135, -0.0893966349850778, 0.13977077459138654, 0.20830032559244835, 0.474948442573093, 0.4954145686290779, 0.5, 0.5, 0.4919524623739528, 0.4656910779955351, 0.2357285330531496, 0.021194418606460794, 0.01060341042886351, -0.006299681951274692, 0.02096492266639651, -0.0314959986271676, 0.03534107856505733, -0.05327462468213725, -0.21468850224268607, 0.21921272739804437, -0.03259059741011501, 0.07795825110225384, -0.0544518914142859, 0.07550487439832257, 0.009080177772068486, -0.10845999865786839, -0.07020148187151032, -0.004890498250721657, 0.09780092289094951, 0.08143819784467714, 0.1730866269818992, 0.1898494621642151, 0.46780204393174013, 0.49946989232706107, 0.5, 0.5, 0.5, 0.4954587204499732, 0.2647201019438701, 0.06825296078299235, 0.11849728907687355, 0.19574986953205187, 0.13796164012384726, 0.03904857658590934, 0.028729930605706173, 0.03549791474226431, -0.16884257613600742, -0.07767011114197774, 0.14219680082451536, -0.19127059506453006, -0.03636314659066663, -0.08839426181562425, 0.04002521916377278, -0.10078555928137892, 0.01757603466333693, -0.08054222906184152, 0.15711762074148775, 0.055305641559912105, -0.010865528877065338, 0.12036303534631446, 0.4672406540706656, 0.4984151429534158, 0.5, 0.5, 0.5, 0.5, 0.2931704168202797, 0.05721346401695757, -0.08911866254796935, -0.055735915396360844, -0.15801615769359612, -0.08823279450394723, -0.01920630048153912, -0.03135072732915734, 0.02307009292342635, -0.053248135352579065, -0.04482303821793978, 0.23133700856970973, 0.13180228890346957, -0.07891301964013596, 0.08427239464319705, 0.07700087648777834, 0.05572327571453896, 0.08062542287056935, 0.05257570621780831, -0.05736888518711919, -0.1004193893498232, 0.02500503904019307, 0.41815720065390627, 0.47216883518229563, 0.5, 0.5, 0.5, 0.48910002368839994, 0.4606882496982851, 0.2512717537541216, 0.010239552986537144, -0.12789749615856547, 0.025176008388946156, -0.09581551809415682, 0.03414682189362766, 0.08227791469863564, -0.05680921363633781, 0.0031193308686423794, -0.11346340976032193, -0.03574450803292028, -0.006953102718247718, 0.05139219574216479, -0.009430786910930236, 0.11791512893059518, -0.16809099053046386, 0.078868584749105, -0.009076874422616003, 0.084196206393691, 0.10413621148910317, 0.13482704899970444, 0.4752776218970148, 0.48361930822795174, 0.5, 0.5, 0.5, 0.4905996321173645, 0.3865003099002628, 0.3076876288667293, 0.09639188334502069, 0.12293453569534103, 0.054135022963540946, 0.07251010704011394, -0.01687228768194053, 0.05539873409374519, -0.017138526208243215, 0.030508702412087984, -0.05752319918160739, -0.12668862387971463, -0.1414006992899431, 0.03513810452965936, -0.1359758200002415, 0.23554949052898488, -0.003915460722097569, -0.07155240891865226, -0.00997834968165923, -0.010037771333365454, 0.0805072837126174, 0.15837817664317297, 0.5014333834899212, 0.4551033367828563, 0.48369410502907784, 0.5, 0.5, 0.4957892604342632, 0.29265338251959416, 0.08763028587905057, 0.03242480250760241, -0.005711653502273112, 0.007275367699334659, 0.12162336716007661, -0.08005782045572332, -0.02095839904016399, -0.04071876566066172, -0.05226677098898118, -0.010450638860532662, 0.15784669157901124, 0.1026804721197939, -0.05198448005954114, 0.06414170718888686, 0.04865263950073435, 0.07082611489867412, -0.024165425782440977, -0.13188131898946545, -0.07303259321881198, 0.07006260381300379, 0.16505055533083637, 0.42721344159296387, 0.48887404457863665, 0.49774684000296027, 0.5, 0.5, 0.43737010235489293, 0.14491189145525887, 0.04762309510063023, 0.02456336232084139, -0.13057106688392497, -0.04976703574408291, 0.0069807827588793175, -0.03510285993113152, -0.020762666492574133, 0.13503578290025844, 0.037838074794214666, 0.0641005892445973, 0.0004553074061608068, -0.15116077443732245, 0.04181640553754054, -0.0782733197883917, -0.23006302790943528, -0.0942924425464034, -0.16907308577449276, -0.08119500580007898, -0.03834545598492384, 0.07389983415150639, 0.2519788941480407, 0.44705764179802393, 0.49940256507189423, 0.5018897701805083, 0.5, 0.5, 0.3949135488776342, 0.12747211527376284, -0.021721522856732126, -0.03890400621950702, 0.07774096753512325, 0.11943400186294065, -0.012492855311290315, -0.1374781262093324, 0.026813095287236605, -0.029183822627292362, -0.2552867017901822, -0.011881382873249732, 0.05642345841660165, -0.010751720477246422, 0.119534568126971, -0.14271955889466603, 0.13454039440951293, 0.18081223552607198, -0.11607569562014176, -0.12188743363977757, -0.16031843626016146, 0.09518741506200888, 0.3027258186943691, 0.387986324520571, 0.4958095774653735, 0.5, 0.5, 0.5, 0.4033997045147268, 0.14903833236201755, -0.009075089542948707, -0.05984575568094195, -0.01496926341491299, 0.01462566094489826, 0.08337078906546232, 0.19823836108546833, 0.03818208598910772, 0.02668030556481964, 0.17248243364578772, 0.17640055653931364, -0.030837647928765047, -0.1542048133557091, 0.16325335765683352, 0.2839043113001297, -0.006441166110038766, -0.06394342229688188, -0.19063915561141476, -0.18607666045399235, -0.06632063233265448, 0.17708467690745963, 0.2513824052867655, 0.44290886068838464, 0.49395016312521384, 0.5, 0.5, 0.5, 0.4763021914312892, 0.2938900048671754, 0.10731217501457753, 0.15476888358453894, 0.17707208513938316, -0.17987344273208888, -0.0587361625561251, -0.029954922553125457, -0.03298672325563704, 0.0517069009716379, 0.11645664843975696, 0.04584368015007379, 0.10985452201205378, 0.06614689096854205, 0.02391386531092491, 0.05292444884351101, -0.0034334804929563112, -0.037238658271585276, -0.010082891775589967, -0.058147711586273625, 0.09685869103592097, 0.2622254100565499, 0.386441105006398, 0.4833265990854883, 0.4957878587747742, 0.5, 0.5, 0.5, 0.497384283829794, 0.4754195722765469, 0.29192826768389746, 0.010651452185200506, -0.11237849437361748, -0.0011697204349688543, 0.10681572850071212, 0.08579763774318183, 0.025588693281044392, -0.10036264732650407, 0.01281453026001505, 0.09511668483094142, 0.058289336842835895, -0.015351301078171592, 0.004004873581645275, 0.18091170697801576, 0.1824268392984231, 0.12928167122425602, 0.21264747577943935, 0.20146120901536868, 0.29171487708049554, 0.3219927072728268, 0.4858441692700205, 0.5, 0.5, 0.5, 0.5, 0.5, 0.5, 0.5084701670012628, 0.2150886810187162, -0.032315212690746, -0.07739045711900001, -0.02528417969663531, 0.06512692309526412, 0.07932450271565221, -0.06753104084712207, 0.1577873618615049, -0.13855898487351387, -0.1548812009331841, 0.09639210257018031, -0.09622380822581882, 0.10053383683289127, 0.21652745114506544, -0.041450588937456956, 0.08773335000671253, 0.35006772601169395, 0.31524904910213597, 0.41791617715274326, 0.44005530300326623, 0.4967941269260815, 0.5, 0.5, 0.5, 0.5, 0.5, 0.5, 0.49989229172813676, 0.504330266139658, 0.4917137223810852, 0.4947930060015675, 0.47337945368740847, 0.24322231939224126, 0.11147820340640309, 0.04900032982679395, 0.10804597989761255, 0.03235211746561186, 0.13250802609647208, 0.17756251147561417, -0.012185324757688657, 0.05037127762544902, 0.12356511370039608, 0.27412343871339456, 0.35482353193324917, 0.39192007669604706, 0.39886484880129114, 0.4550309810919742, 0.49552799352314053, 0.5019618994907398, 0.5, 0.5, 0.5, 0.5, 0.5, 0.5, 0.4984424230000179, 0.48415969321329994, 0.4638325250909532, 0.4375146681434231, 0.39664759088239354, 0.3007349816529951, 0.2865321427034595, 0.346214874917363, 0.16373846291656927, 0.17963955041535856, 0.25760594003897197, 0.21234684542377277, 0.20076778913160517, 0.15097701997106275, 0.16895125033424024, 0.3055906621223711, 0.388885149196034, 0.4361641784157167, 0.4619971077291946, 0.49200918383032527, 0.5, 0.5, 0.5, 0.5, 0.5, 0.5, 0.5, 0.5, 0.5, 0.5, 0.4899859769614815, 0.4705869260695542, 0.4762132510354553, 0.5043515966218585, 0.4640504684132227, 0.4666481969348862, 0.46361334632313356, 0.4237822549293598, 0.4399077006280141, 0.4430325879742069, 0.40991478422751315, 0.40185242248418157, 0.42544079829702564, 0.488976666514559, 0.5012966383696729, 0.4962575773403039, 0.48080594986798925, 0.4878088830231888, 0.5, 0.5, 0.5, 0.5, 0.5], [0.5, 0.5, 0.5, 